129 64
http://www.w3.org/2002/07/owl#ObjectProperty 0.014197266 -0.027257316 0.026989803 0.080593355 0.039827812 0.08164362 -0.09264858 -0.00083702384 -0.21843523 0.043385357 0.026352981 -0.35198867 -0.3120284 -0.27324203 0.5633156 0.054908074 0.015857836 -0.032322016 0.110110715 -0.108564526 0.21403396 0.09803787 0.04755423 -0.16348243 -0.10438492 0.2705709 0.16781925 -0.09927078 -0.077184476 0.006144353 -0.31174904 -0.36790445 -0.02170417 -0.08600299 -0.27270162 -0.089756496 0.16183376 -0.16960728 0.2512748 -0.08848399 0.16667849 0.022882793 -0.041766398 -0.21004221 0.023467237 -0.21068694 -0.034620453 -0.09260125 -0.010585076 0.08295274 0.04561073 -0.022918813 0.318799 -0.04701474 0.037936494 0.113833256 -0.12096527 -0.054919835 -0.04951306 0.2648005 -0.052926097 0.083932824 0.05695194 0.060767125
http://cmt#Conference -0.08258569 -0.105733216 0.11858425 -0.06978925 0.22925697 0.12730868 -0.13167101 -0.065738335 0.05495639 -0.23284793 -0.07937404 -0.18015008 -0.17347169 0.0624624 0.32214862 0.2212903 0.015889917 -0.037464038 0.40985563 0.27167514 0.35818675 0.2872917 0.22745465 -0.121263705 -0.11327263 0.0047361804 0.015331856 0.09759647 0.18883975 0.09704055 0.12840506 -0.18683998 -0.20710374 0.13366391 0.13387288 -0.09468838 0.31925333 -0.024592344 -0.050391935 0.22743627 0.09720868 -0.30532852 0.22016788 0.0152484765 0.11828737 -0.4121147 0.0829954 -0.21437311 -0.17638995 0.25318715 0.25431547 -0.29771078 0.255058 0.0036819752 -0.10299069 0.14246312 0.11058832 -0.013352257 -0.20201014 0.014159101 -0.2878303 0.17302205 0.21236517 -0.21149345
http://www.w3.org/2002/07/owl#Class 0.18224718 0.25706393 0.26457706 0.05557159 -0.25410047 0.09355599 -0.1386513 0.12719291 -0.11462338 -0.2990624 0.005969826 -0.14989428 -0.0121941855 -0.009428617 0.09308934 0.3264572 0.1996421 0.18382819 0.059538536 0.1686233 0.17818493 0.15357819 0.2083652 -0.058543585 -0.04243898 0.29758367 -0.10614434 -0.032759815 0.0502965 0.13739574 0.02457871 0.107829444 -0.547264 0.013838151 0.16963099 0.2817088 -0.14671984 0.0041468423 0.081938565 -0.3741832 -0.28597134 0.11488988 0.035526026 -0.02925357 0.2192703 -0.2333591 -0.07504254 -0.13998692 0.18740764 0.19051373 -0.007603697 -0.015531179 0.27927572 0.17445531 -0.12505311 -0.29502344 0.22283232 -0.4260542 -0.03230316 -0.042329647 0.0083889505 -0.14979126 0.029121934 -0.07922912
http://cmt#Paper 0.14133316 -0.05750374 -0.22912022 0.114306934 0.18607616 0.11510567 -0.31114516 0.11132456 -0.35342965 0.2691247 -0.058901522 -0.21640985 -0.07219024 0.09918179 0.2347574 0.36915842 -0.22578928 0.15226132 -0.23010054 0.07857609 0.27784023 -0.19354767 0.16562425 -0.16209677 0.08209927 0.36392874 0.08320622 0.019344734 -0.4124652 0.10104864 -0.034078963 -0.22380243 -0.15667832 -0.21277685 -0.040793262 0.15691335 -0.033112697 -0.28217608 0.2091918 -0.28480566 -0.085856624 0.11838248 -0.25061053 -0.19449899 -0.08628059 -0.15528469 -0.061262235 -0.06759339 -0.1737123 -0.06657697 -0.12770785 -0.262511 -0.10776072 0.14752886 -0.176105 0.09378537 -0.022539563 -0.44236332 -0.46138963 0.033432275 0.06821446 0.007902764 -0.023004374 0.05670844
http://cmt#Administrator 0.040200986 -0.05006023 -0.08432953 0.4122335 0.13214138 0.027385335 0.08534639 -0.0142543595 -0.36922985 0.03002134 -0.07613249 -0.22336952 -0.13167349 -0.009494128 0.339541 0.05432271 0.011073314 -0.28755176 0.043267056 -0.01714902 0.20375142 0.47480506 0.18608116 0.016479628 -0.12723053 -0.017823335 0.06564568 -0.099199265 0.031538233 -0.24222988 -0.26432618 -0.3914056 0.016832735 -0.17030954 -0.15173228 0.25140476 0.24310735 -0.2739318 -0.10200149 0.23863678 0.3315899 -0.27412695 0.19091171 -0.325746 0.057299457 -0.18414336 0.05336054 -0.24743588 0.12881437 0.09173758 0.23316419 -0.21603958 0.30061448 0.056255918 0.03939535 0.016171655 0.084657304 -0.20456284 0.058468997 0.34049731 -0.0028918018 0.12371367 -0.0009001329 -0.19839416
http://cmt#Reviewer 0.46064338 -0.29698822 0.12157458 0.078892365 -0.23451892 0.22560294 -0.12751073 0.09967435 -0.03336272 -0.1012484 0.039306935 -0.46211928 -0.28261724 0.08658172 0.39921358 0.37616956 -0.13141122 -0.095600724 -0.4382573 -0.30294055 0.22357313 0.23885605 0.07186494 0.08229513 -0.10881706 0.15674296 -0.17492223 0.097540736 0.16757031 0.04006804 0.24470687 0.18387575 -0.26763585 -0.1690347 -0.16115029 0.07695923 0.12268374 -0.06484722 0.31189415 -0.23232254 0.069717005 0.2944043 -0.0662566 -0.4256158 -0.06573439 -0.05238151 -0.05301451 -0.20789056 0.37378722 0.028705575 0.040693577 0.12537016 0.16871497 0.09214897 0.060017455 0.13984278 0.019915543 0.34342408 0.08470288 0.17363612 -0.009640081 -0.34204337 0.024239326 0.09615057
http://www.w3.org/2002/07/owl#FunctionalProperty -0.16895466 -0.21865723 0.1438406 0.08311885 0.23213448 -0.26633626 -0.20627414 -0.042143963 -0.23552586 -0.021736123 0.13479942 -0.27487612 -0.09641948 0.12650241 0.271384 0.5533675 -0.24550572 0.08656811 -0.025795866 0.0064829774 0.117293835 -0.13899419 0.035514995 -0.09490679 -0.13735262 0.28591046 0.25154707 0.19776261 0.0633972 0.3517141 -0.11056218 -0.07689018 0.025541525 -0.15804315 0.0045366623 -0.09747574 0.007382485 0.15717094 -0.15068647 0.314343 -0.060665857 0.09524476 -0.03115875 0.05674232 -0.15402518 0.21602081 0.19423713 -0.2479724 0.2947002 -0.19995521 0.42159635 -0.3300254 0.30586323 0.45761558 0.23886438 0.17140587 -0.25669923 -0.2323262 -0.3181107 0.08502462 0.10616026 0.020416962 -0.25439867 0.23194294
http://cmt#Person 0.18018855 -0.05265556 0.1807007 -0.026037106 0.21892047 0.2096945 -0.04119885 0.18506007 -0.0768391 -0.2760777 0.09053721 -0.299214 -0.25951183 -0.037111327 -0.068748586 4.6230558e-05 0.3085527 0.10436277 0.39267382 0.29064798 -0.061827518 0.121636525 -0.15059671 0.068305634 -0.3158239 0.24204926 -0.0015313644 -0.24815096 0.18779962 0.123979196 0.35487622 -0.08942773 -0.55763465 -0.24073745 0.11321593 0.28644946 0.0956987 -0.044770885 -0.06981283 0.034468554 -0.04877338 0.057437077 0.3030737 0.18710104 0.14473861 -0.5080592 -0.05984619 -0.3213356 0.17188363 -0.033223 -0.33806878 -0.03531538 0.09706303 0.098356396 0.07708195 -0.19647482 -0.19147538 -0.0813192 -0.008896831 -0.0037000747 0.09695642 -0.15773135 -0.21911104 0.21119161
http://cmt#ProgramCommitteeMember -0.20894946 -0.1752653 0.055556536 -0.21027935 -0.12719089 -0.045294687 -0.038108513 -0.024371818 -0.5067009 -0.43686786 -0.044172373 0.29467896 -0.6085261 -0.08021288 -0.029483717 0.05419241 0.34473354 -0.0570472 0.15904729 0.06930446 0.03929492 0.22444373 0.29433596 -0.093192495 0.041263748 -0.24512798 0.05804584 -0.17075068 0.14902934 -0.113304235 -0.20177437 -0.040937133 -0.3231772 -0.099209696 -0.17993788 0.39275107 0.08551062 0.030726142 0.27507406 -0.18242538 0.053499702 0.37233013 -0.012826401 -0.105702855 0.21282779 -0.106201254 -0.13407652 -0.2317697 0.022454571 0.14194205 0.15334174 -0.54792446 0.40366182 0.18563685 0.30107436 0.0052551213 -0.13251115 -0.18296896 0.18262066 0.0064901407 0.25909537 0.002423576 -0.18841808 0.39049542
http://www.w3.org/2002/07/owl#DatatypeProperty -0.43395805 -0.23294702 0.076825604 0.22975914 0.39257348 0.16237661 -0.13653879 0.045169722 -0.13453327 -0.34234527 -0.052057408 -0.05724086 -0.24040091 0.26292714 0.15560986 0.34096566 -0.2792921 0.0073493896 0.100457445 0.001929654 0.12693164 -0.04812445 -0.15039808 -0.32087317 -0.14093056 0.08178164 0.049863975 0.22851339 0.35001057 0.3645766 0.31465438 -0.01036473 -0.06645138 0.079273075 0.11969308 -0.21899757 0.14511982 0.147138 -0.06274485 0.29742524 0.08326182 -0.101270854 0.033775754 0.18993706 -0.04402248 -0.23193 0.23693946 -0.23022057 0.015003713 -0.09207047 0.4877333 -0.48615912 0.08376484 0.3414427 0.42055628 -0.20850644 -0.115397185 -0.46474302 -0.7058749 -0.02774395 -0.15486743 -0.15301983 -0.08014384 0.29823813
http://cmt#Bid 0.05262194 -0.382066 0.032660343 0.04818057 0.21398503 0.40607604 -0.18395868 0.06032938 0.13988805 -0.31587908 0.1973599 -0.36159885 0.122356564 -0.07592022 -0.27196681 -0.09831709 0.048773196 -0.03695081 0.11638948 0.43850112 0.1930347 0.023815274 0.22007339 -0.11494508 -0.33469328 0.47217593 0.0950211 0.27942115 0.0877817 0.09080005 -0.17782022 0.035418395 -0.37004867 0.25248292 -0.013645779 0.049251553 0.10341134 3.8640203e-05 0.37925786 -0.1688942 0.09363108 0.0399643 -0.06895852 0.21391723 0.1874224 -0.2915788 -0.021429062 -0.1531923 0.31765845 0.07967675 -0.017188871 -0.1862611 0.05611499 -0.028714493 0.059526954 0.19179055 0.1742385 0.009440054 0.043453645 0.19871688 0.14563608 0.09261235 -0.1291991 0.16216871
http://cmt#Decision -0.013421255 0.22180654 0.112758465 0.021223493 0.21710473 0.10311647 -0.3024714 0.0052636154 -0.025013339 -0.38569662 0.30948836 -0.25207445 -0.055640284 -0.26167497 -0.14913417 0.06336455 -0.07597507 0.31219918 0.1857476 0.24168512 -0.17316201 0.3740129 0.2510011 -0.14621753 -0.45459878 0.16774984 -0.15496978 0.0065693427 -0.0072958097 0.10700356 0.062231917 -0.049900133 -0.33516738 0.12335348 0.15828575 -0.093306266 0.14325652 -0.17976627 0.22288324 -0.066688456 -0.07935741 0.104732476 0.20366378 0.20795956 0.16852349 -0.31097078 -0.064052485 -0.255437 0.29487836 0.009919279 -0.20783736 -0.18560664 -0.009349924 0.3630378 -0.03418877 0.3859154 0.19162136 -0.34886622 0.15633106 0.040031936 0.1829844 -0.16917486 -0.026398439 -0.073804565
http://cmt#Document -0.11562421 0.06770533 -0.053867623 0.055110592 0.022531193 0.25023523 -0.2910675 0.12456734 0.055163722 -0.39284483 0.12907693 -0.35505906 -0.27491155 -0.28327668 -0.19672461 0.059320275 0.31273165 0.24724098 0.25764468 0.26805893 0.15313248 0.25074822 -0.044608876 -0.12551041 -0.176759 0.30011657 -0.039479375 -0.0016115264 -0.09905256 0.23949605 0.042025577 0.0010095695 -0.21473898 -0.10870007 -0.19961101 0.15409113 -0.015484178 -0.05587223 0.13986805 -0.16834459 0.04732271 0.059388477 0.22579078 0.20597546 0.35180426 -0.46552607 0.060250454 -0.035034884 0.24742602 0.068398975 -0.21728617 0.0535305 0.11247625 0.1829547 0.037539303 0.3104808 0.029202865 -0.10105198 -0.16970663 -0.16254584 -0.04645553 -0.09765819 0.14590696 0.026322857
http://cmt#Author 0.42452684 0.19372578 0.114669405 -0.23083493 0.121942386 0.18709743 -0.17422186 -0.16172336 0.060289614 -0.043388065 -0.45234913 -0.19767691 -0.301975 0.0977035 -0.13552433 0.15849002 -0.13958326 0.15962067 -0.356504 0.123701245 0.08513035 0.06308596 0.31046528 -0.23572196 -0.15385717 0.16667287 0.22418572 -0.37293616 -0.010087171 -0.008584678 -0.113574155 0.086633556 -0.49929813 -0.48193115 0.055322874 0.37649825 -0.41161856 0.109736875 -0.039941926 0.21733667 0.2808605 0.08202959 -0.18482864 -0.15367039 0.10188008 -0.15537022 -0.24329664 -0.43075663 -0.10482347 -0.050644815 0.24076943 0.07962256 0.33762228 0.3083643 -0.31507397 -0.038157657 0.0413344 -0.117646985 -0.032040387 -0.020800797 0.18213837 -0.3413429 0.4075916 0.46605062
http://cmt#ConferenceMember 0.15292253 0.2557703 0.1223397 -0.052610368 -0.29211652 0.28017423 -0.080126636 0.28875518 -0.086840056 -0.3764344 -0.052926652 -0.22046798 -0.51576245 0.036724173 0.24294679 -0.036107365 -0.26390707 0.13110173 0.31990725 0.0822732 0.09085297 0.09990598 0.1539132 -0.5110485 0.0035994975 0.19236796 -0.3739144 -0.061618894 0.061821576 0.114813305 0.026377818 0.3285693 -0.34245893 -0.1819354 0.03971801 0.18548799 -0.19588687 0.07786133 -0.15449715 -0.011294231 -0.2254036 0.11564708 -0.064850815 0.026586125 0.084202625 -0.31157097 -0.3632696 -0.2529397 -0.10056727 0.118515775 0.06243707 -0.323602 0.3542006 0.08927475 -0.3115024 -0.08987732 0.017914215 0.25002658 0.22604232 0.3804599 0.056711078 -0.06641423 -0.064955 0.23605233
http://cmt#ProgramCommittee -0.38052845 -0.066801906 0.16079299 -0.0027930997 0.051821943 0.052629977 -0.1766966 0.06021924 -0.03102608 -0.34882024 0.24083546 -0.34238765 -0.2234137 -0.24405281 -0.14590175 0.05749697 0.37846887 0.11478754 0.28306562 0.2061769 0.01444946 0.4549028 0.33992395 -0.015714517 -0.28605708 0.38926485 0.021438751 -0.21814108 0.19919756 -0.04426541 0.20782182 0.022766566 -0.37503263 0.24640253 0.03916797 0.038901553 -0.030504819 0.057408873 0.4101313 -0.23114772 0.17433524 -0.047858693 -0.055850364 0.18612076 0.31452814 -0.30412218 -0.10656143 -0.028559756 0.056486093 0.10596799 -0.104805656 -0.26222673 0.06696528 0.18392912 0.050975252 0.02313746 -0.037215687 -0.18718135 0.19181012 -0.16752705 0.2612392 0.08327941 -0.008227343 0.11375691
http://www.w3.org/2002/07/owl#InverseFunctionalProperty 0.26112732 -0.36097518 -0.037920456 0.06533235 0.2999482 0.26733878 0.017668491 0.1873202 -0.19304 0.22817604 0.11970317 -0.13343239 -0.07928586 0.016033258 0.049420737 0.2951438 -0.09329667 0.11654011 -0.3682232 0.23142588 0.072655715 0.050799415 0.18820252 0.0939958 -0.3563248 0.26145208 0.14132558 -0.30179283 -0.19337769 0.2037146 -0.5097171 -0.21945733 0.026898753 0.015251071 -0.44911256 0.33082446 0.1532371 -0.06725895 0.07552761 0.20014252 -0.24982098 0.042471588 -0.5140144 0.26729342 -0.25589502 -0.31076652 0.032578744 -0.005697734 0.39840707 0.29187623 0.09405062 -0.09629351 0.47629857 -0.20520157 0.05393207 -0.02127839 -0.032233402 0.1639836 -0.17029007 0.2854016 0.018546496 -0.11573155 -0.06525978 0.09052554
http://www.w3.org/2002/07/owl#Restriction 0.114868164 -0.14482954 -0.03736352 -0.2664827 -0.012837691 0.32967067 -0.06285831 -0.009430633 0.16145174 -0.013764956 -0.1989056 -0.35870865 0.0031949182 0.25560305 0.25060496 0.45444292 -0.05340095 0.41918775 -0.08663399 -0.028596519 0.22474836 0.05482902 0.216703 -0.23804122 -0.21197082 0.08985029 -0.073455594 0.08320629 0.26839545 -0.07666428 -0.048525237 -0.2652068 -0.09384968 -0.10278402 -0.14079486 -0.16826883 0.064419374 0.15687208 -0.27015978 -0.017012158 -0.18681271 0.40408957 -0.31298298 -0.34836572 -0.033886757 -0.40439048 0.16340646 -0.2632533 -0.18080989 -0.025792286 -0.047616597 -0.54575026 -0.44027343 0.13780332 0.17898485 0.7128912 0.017941173 -0.4464371 -0.5663382 -0.2178543 -0.018224433 0.26456678 -0.29007393 -0.30363095
1 0.19357604 0.020411385 -0.09223618 -0.21403927 -0.24050286 0.5146861 0.0033915841 -0.061346635 0.18637419 0.028619813 -0.19596314 -0.3057128 -0.07469413 0.38549674 0.2911926 0.43670744 0.07777068 0.38062048 0.045139283 0.025254238 0.30481374 -0.024546543 -0.010833526 -0.38071504 -0.3242915 0.06950227 0.071531035 0.038959313 0.31010976 0.07991782 0.058651585 -0.34159732 0.01847716 -0.016176412 -0.32773992 -0.14327128 0.19613983 0.20701627 -0.18004581 0.14824286 -0.1476379 0.2643396 -0.2564456 -0.2767235 0.019976582 -0.3015266 0.163809 -0.3568925 -0.19395548 -0.09391597 -0.04549676 -0.54220223 -0.26205966 0.17405535 0.43242693 0.6363665 0.18984169 -0.48674467 -0.45839244 -0.17778943 -0.015562054 0.09099263 -0.24148858 -0.38260624
http://cmt#ExternalReviewer 0.25716794 0.029879464 0.2740141 -0.17551039 -0.37263453 0.2023588 0.12220074 0.40243784 0.30494368 0.03827776 0.21684375 -0.3865199 -0.40461168 0.04294986 0.18135606 0.21594101 0.035059724 0.26842844 0.0077082855 -0.20604391 0.03456767 0.0441971 0.11024803 0.3698786 -0.095010825 0.38240814 -0.19885775 -0.38643664 -0.026016885 -0.108245105 0.25397837 0.05529879 -0.19248517 -0.11871623 -0.10402855 -0.007959988 -0.13011555 -0.15825948 0.1225883 0.26356927 -0.15696506 0.25757095 0.016341235 -0.034693364 -0.025341311 -0.19578971 -0.061694436 -0.22901383 0.09287178 0.21827996 -0.040183067 -0.25286672 0.22615387 0.28584325 0.35640547 0.24017271 0.3023702 0.03591333 -0.5152059 0.32654902 0.10303328 -0.20557867 -0.5329093 0.06114389
http://cmt#Review 0.047559272 -0.28130555 0.0500416 0.2674391 -0.28831407 0.1270692 -0.2305443 0.10669537 -0.1875239 -0.05407217 -0.39685822 -0.32637838 0.13039945 -0.5106593 0.15973158 0.59329075 0.2257108 0.34855115 0.057032637 0.2507513 -0.18669635 0.027891073 0.162413 -0.28862682 -0.23140328 0.056663316 -0.2694713 -0.1610518 -0.24875292 0.2939197 -0.101888254 0.14335306 -0.36339873 -0.3227152 -0.23000354 0.014842656 -0.041164264 -0.038617045 0.14009392 -0.25329307 -0.18377365 0.053186666 -0.12246231 0.22370237 0.32789248 0.09865215 -0.11479589 -0.35134417 0.0689503 0.4518594 0.041563485 -0.023969673 0.08116849 0.12271925 0.36696514 0.057054684 -0.18578534 0.1693046 -0.012358823 0.012734497 0.010089049 -0.18250138 0.24629174 -0.26859802
http://cmt#Preference -0.1824472 -0.06230428 0.066848144 0.062453143 0.012267074 0.2567815 -0.2130588 0.15075971 -0.011048353 -0.3790506 0.16661568 -0.26802346 -0.11505471 -0.09225848 -0.13147964 0.038155336 0.23975642 -0.0046785306 0.23386715 0.36065757 -0.054329343 0.31768274 0.16695449 -0.05180898 -0.26951236 0.31540874 -0.061503544 -0.01634306 -0.07499748 0.1574341 0.15409891 0.0132153295 -0.546021 0.12449201 0.067902364 0.035893656 0.14022142 -0.09036518 0.19129778 -0.10038295 0.033349227 -0.04720951 0.08448881 0.22404873 0.22641058 -0.39547893 -0.021084197 -0.016879357 0.13233677 0.09729813 -0.10945753 -0.18032657 0.019301053 0.05335086 -0.037309974 0.2016569 0.09335598 -0.16381177 -0.11934844 0.04388447 0.24598365 -0.11426256 0.096223444 -0.078148045
http://cmt#assignedByReviewer 0.30228698 -0.20299146 0.12583637 -0.2559034 -0.05960193 0.09475723 -0.107169606 0.2755826 0.315397 0.16574861 0.3458079 -0.24018306 -0.20507543 0.015233454 0.3211209 0.37929878 0.0053866864 0.17674802 -0.13197953 -0.327471 0.1311732 0.0020366914 -0.12800346 0.19849579 0.038304374 0.1754351 -0.13422638 -0.1294157 0.06675104 -0.19701445 0.16640775 -0.06813452 -0.22262682 -0.08485663 -0.1702217 -0.10690025 -0.16440564 -0.11844646 -0.07122422 0.20784366 0.16255856 0.0110673355 -0.31607327 -0.12577403 -0.06413642 -0.27279556 0.063207924 -0.32707 0.16175233 0.35626563 -0.03652801 -0.26099062 0.21669185 0.3065678 0.36048847 0.18617809 0.18503635 0.026619835 -0.27551782 0.38978714 0.08135422 -0.024120962 -0.31575185 0.18217741
http://cmt#hasDecision -0.04477239 -0.16267665 -0.11421945 0.08888555 0.112344824 0.17519358 -0.20624529 0.10814559 -0.05584214 -0.007186523 0.11097607 0.026451726 -0.0128864385 -0.29030964 0.2716502 0.31704327 -0.26945284 0.42326865 -0.2524721 0.15988784 0.07091696 0.18245947 0.34018543 0.086970374 -0.15378956 0.18373486 -0.17095916 0.028449481 -0.28093088 0.2640748 0.1434727 -0.05493358 -0.15502289 0.021252718 -0.27269322 0.05050623 -0.028452473 0.057510324 -0.25507393 -0.050821144 0.062409986 0.12810561 0.12357774 -0.1932928 0.021730663 -0.13669468 0.00925739 -0.021257464 0.0730174 0.0064914008 -0.06882512 -0.46247184 -0.24100983 0.19704211 -0.090310045 0.76031476 -0.2193991 -0.5010654 -0.18211046 -0.04253351 -0.04251966 0.28986445 0.032643087 0.2988264
http://cmt#acceptPaper 0.019118924 -0.1942798 0.036901582 0.20794849 0.28217283 0.21437104 -0.16296665 0.09571162 -0.33099157 0.18793668 -0.0133038545 -0.16451089 -0.14667282 0.051932354 0.3183006 0.32708573 0.009707172 0.08700569 -0.35081667 0.11307331 0.09880713 0.047647685 0.23865722 -0.02838623 -0.00062947976 -0.07985879 0.028374946 -0.1313884 -0.15313478 -0.048166476 -0.3519351 0.022772072 -0.04995213 -0.098706044 -0.33058995 -0.057989065 0.11859383 -0.037904087 -0.010384216 0.12190861 0.05841562 -0.12202571 -0.22306226 0.039458703 -0.14354716 -0.14002353 0.45695734 -0.2166046 0.23695572 -0.007076992 -0.07820721 -0.039215308 0.2199495 -0.09754694 -0.08516129 0.027177427 -0.047914155 -0.23083314 -0.23053092 0.17824033 -0.070660785 0.12091673 -0.12794735 0.14191853
http://cmt -0.026385773 -0.6892682 -0.30426282 0.49987411 1.2258663 0.30120555 0.29183662 1.5858701 0.12846655 -0.21535847 -0.44564813 -1.5698628 -0.12228536 0.4266857 -0.33491695 0.11974743 -0.60899776 -0.558309 -0.9840207 -1.7153358 -0.16622072 1.0019357 -0.3579803 0.12805799 -0.35276118 0.6029645 1.2560601 -0.5601056 0.101267755 0.32833064 -0.20377521 0.4556684 -0.68743 -1.0047764 -0.18574938 0.9422588 0.43837297 0.31225672 -0.7777975 -1.435098 0.4761418 -1.2576704 0.0012528752 0.87767434 0.40651056 -0.1315297 -1.4769268 -0.78110844 1.7926633 0.35338652 0.008398161 -1.6624489 0.1346076 -0.034809824 0.62537843 -0.066004865 0.16538328 -1.6216744 -1.0578159 -0.4513159 0.39123103 0.30110908 -0.35982817 -0.18318047
http://www.w3.org/2002/07/owl#Ontology 0.00446248 -0.5848187 -0.38897923 0.48967627 1.2807882 0.3413189 0.3525023 1.5262934 0.06769598 -0.17582287 -0.45232812 -1.6164918 0.112554654 0.22713989 -0.1455088 0.006774671 -0.50559974 -0.51827013 -1.0392094 -1.695988 -0.40890583 0.90030575 -0.388866 0.0129262665 -0.42905596 0.5069924 1.2085905 -0.42146248 0.27268943 0.45049185 -0.3189438 0.5675347 -0.80479205 -0.96338236 -0.36566788 0.9215738 0.41539595 0.41752338 -0.68884695 -1.4005293 0.621914 -1.243741 0.08406519 0.76962346 0.29075563 -0.22858885 -1.4589491 -0.8375926 1.8861603 0.2658987 0.05588152 -1.5784302 0.085081644 -0.08633728 0.732278 -0.09646389 0.3213861 -1.6193542 -1.0971633 -0.48690102 0.27363268 0.17504063 -0.4721794 -0.2665435
http://cmt#acceptedBy 0.17444445 -0.22143482 0.05120961 0.25825593 0.2642653 0.048796773 -0.13804092 -0.006835468 -0.2970347 0.23246247 -0.1284628 -0.25732225 -0.19521016 0.047196284 0.16867684 0.31827894 -0.15954785 0.057586323 -0.09357682 0.17331362 0.074668564 0.18740772 0.12890054 0.016686874 -0.13430297 -0.119968325 0.13045093 -0.102747425 -0.005404941 -0.106974326 -0.24819714 0.1364659 0.020693764 0.11857731 -0.4796707 -0.0497804 0.13274767 -0.16681738 0.021224003 0.08772888 0.07033483 0.08724771 -0.31169018 -0.00016919982 0.036824424 0.040245254 0.32715294 -0.12166739 0.1325677 -0.01786511 0.1237913 -0.14228061 0.21571098 0.12572767 -0.10708633 -0.055432927 0.010888873 -0.19908689 -0.31897748 0.28909284 -0.088923484 0.33495274 -0.14365451 0.21796302
http://cmt#name -0.36845878 -0.17593917 -0.03627823 0.11487107 0.23074324 -0.014169271 0.14278363 -0.11483256 0.15879607 -0.37224978 -0.015012449 0.063103735 0.29408967 0.23670223 0.13290045 0.7390313 -0.34853375 0.19141307 0.10170711 0.046782903 0.1757212 -0.27499098 0.1440574 -0.21314959 -0.19270444 0.39904976 -0.019825043 -0.3022534 0.3224588 -0.00036646414 0.17420936 0.10471153 0.12747903 0.27101126 0.22460456 0.098547235 0.34134644 0.117920734 -0.44518894 -0.2843499 0.10782308 0.14377257 0.05120085 -0.031664487 -0.035196334 -0.38955948 0.40704036 -0.6691172 0.19395532 -0.0989389 0.14791721 -0.541564 0.00071640813 0.3242741 0.14944158 0.0036256034 0.03164782 -0.11643002 -0.52098024 0.12181471 -0.056803398 -0.11811573 -0.04543671 0.13463882
http://cmt#reviewsPerPaper -0.22640981 -0.26235202 0.15396918 0.09768847 0.31243387 0.3311993 0.0079662865 0.2672263 -0.08394547 0.2657491 -0.19127555 0.124531366 -0.1924214 0.15277998 0.15826198 0.28756645 0.117023595 0.15033591 0.43092465 -0.003303088 -0.114702165 0.062078763 0.21138208 -0.1114809 -0.12256785 -0.13163227 0.30860063 0.47600582 0.28649366 0.18172708 0.10446 0.13088651 0.26605526 -0.0062081264 0.22356644 -0.15591922 0.12660845 0.28278017 -0.1448296 0.20286477 0.17684889 0.17129111 -0.0824814 -0.09883552 -0.008927016 -0.32119367 0.006277779 -0.4963903 0.18960385 -0.114449725 0.06904382 -0.60348374 0.4199361 0.3597882 0.16952692 0.30805185 -0.053062454 -0.36107978 -0.5544098 0.12918296 -0.08421181 -0.047796305 0.054384585 -0.017776776
http://cmt#User 0.05118156 0.08233489 0.16021073 -0.14266723 -0.13254943 0.15604365 0.08117236 -0.024269287 -0.109623544 -0.05607512 -0.052939527 -0.37972292 -0.29627705 -0.16416414 -0.10492185 0.18225348 -0.24913776 0.012957527 0.007949562 0.1252504 0.11832971 0.18348084 0.31997642 0.028661719 0.051360823 0.11922948 -0.0027298646 -0.072805636 0.20921639 0.15593454 -0.079892516 0.2906889 -0.14704518 -0.47813493 0.04228794 0.2929063 0.14412582 -0.060223475 0.19421431 -0.080017224 -0.008165273 -0.1617322 -0.024360714 -0.1079827 -0.03416266 -0.4490312 -0.24929403 -0.16032606 -0.027224997 0.06558836 0.12416263 0.218998 0.09142971 0.10524935 0.072645314 0.03258322 0.2964795 -0.16980547 -0.13009602 0.22077088 0.226469 0.0070712906 -0.07916371 0.11611823
http://cmt#writePaper 0.537633 -0.048321817 0.23360416 0.14157179 -0.007342014 0.06571652 -0.43235013 -0.06808744 -0.20748256 0.080173045 -0.10884117 -0.27577522 -0.2526329 0.015486911 -0.12450281 0.31666473 -0.14845784 0.06755906 -0.3712569 0.38029093 0.07106475 -0.021995932 0.2085958 -0.23824854 -0.21357001 0.1832315 0.27212548 -0.12339465 0.0880824 -0.052806936 -0.39387938 0.10085427 -0.12404538 -0.23112217 -0.28410888 -0.10111142 -0.0015857354 -0.03261597 -0.19768646 0.16298617 0.069396526 0.001607423 -0.28572083 -0.030321602 -0.13243291 -0.22233224 -0.10114633 -0.06835755 -0.29849452 -0.08084571 -0.04801811 -0.018828312 0.20056263 0.066169426 -0.028485283 0.08864414 -0.103714645 -0.20521286 -0.08668884 0.23720679 0.11907291 -0.12908179 0.16760677 0.3497286
http://cmt#readByMeta-Reviewer -0.0330577 0.036285944 -0.40050173 0.12072794 -0.06531698 -0.084587775 -0.32939264 0.0004072297 0.23595719 -0.09433589 -0.30830318 -0.455583 0.08426718 0.034106545 0.48347214 0.23838192 -0.09509699 0.32139808 -0.21804346 0.079870164 0.28995466 -0.16789009 0.29997748 -0.018161839 -0.031212447 -0.048707083 0.1545212 0.2906359 0.21795422 -0.09433503 0.35009563 -0.0700042 0.15210561 -0.18053499 -0.35470092 0.09665648 -0.01381926 0.008166988 0.28019 -0.07061655 -0.16448364 -0.13325366 -0.28846675 -0.12513384 -0.17293054 0.050947964 0.038883936 -0.26749477 0.07294086 0.091314115 -0.32657096 -0.53185517 0.35479304 0.21659136 -0.096138865 0.12053731 -0.2602904 -0.34918517 -0.25244117 0.10504745 0.20626198 0.065826625 -0.13313591 0.0051127127
http://cmt#readByReviewer 0.162801 -0.29994398 -0.036565635 -0.019604947 -0.13941443 0.1334757 -0.27594587 -0.12020074 -0.013207405 0.04540574 0.014088024 -0.26481876 -0.23486072 0.045138545 0.37599948 -0.033523813 0.04780913 0.20181364 -0.19123732 0.029105764 0.56966335 0.078522176 0.093552195 -0.15740688 -0.3829652 -0.19430538 0.04962039 -0.112512656 -0.35933575 0.17794287 0.047498558 -0.034904283 -0.12691607 -0.21361753 -0.40680423 -0.035842847 0.09206439 -0.0683307 -0.0030648063 -0.26154888 -0.116874814 0.07627017 -0.17183833 -0.48754483 -0.21164599 -0.11948353 -0.37274626 -0.37171587 0.057991605 -0.01622922 0.17337894 -0.2131037 -0.48035192 0.20326053 0.021688392 0.001427352 0.027759276 0.027825575 -0.27066493 0.37714294 -0.041551765 -0.23277257 -0.12922859 -0.06049518
http://cmt#adjustBid 0.2133943 -0.27592838 0.07707656 0.047753286 0.14279091 0.17283228 -0.12013606 0.11223153 0.14985421 -0.15104702 0.058779795 -0.30174863 0.029222941 0.23614968 0.28889292 0.16869919 -0.05054762 -0.29247683 0.10518055 0.24380274 0.24564852 0.25962418 0.18666542 0.122202076 -0.23227295 0.34622812 0.2808836 0.0675384 -0.2156994 0.17555334 -0.29495764 0.29944402 -0.26586074 -0.040972833 -0.36902592 -0.17631158 0.3538247 -0.15723933 0.1178258 -0.13039671 0.096203074 0.05554401 -0.28311402 0.046100523 -0.08089753 -0.018066831 0.082738385 0.04740931 0.24824305 0.30321485 -0.11342788 0.060662527 0.20290326 0.23878591 -0.017107138 0.27257317 0.08196939 0.01347942 0.050028514 0.18979074 0.2570778 -0.010257787 -0.22418103 0.3092491
http://cmt#writeReview 0.12570062 -0.4012417 0.014560742 0.43802217 -0.018137299 -0.036812253 -0.29760915 0.20926087 0.006915527 -0.027992798 -0.089735985 -0.27168047 -0.10336713 -0.31283018 0.29481822 0.42600146 -0.06064214 -0.036050342 -0.16002338 0.03867648 0.1292149 0.056111943 0.013343671 -0.10566255 0.0024050854 0.0039516985 0.1330478 -0.20131314 -0.2250027 0.1588572 -0.34590802 0.4777027 -0.011780878 -0.2131931 -0.28824526 0.044799745 -0.04908054 -0.14604232 0.054852612 -0.07134549 -0.23290358 0.07012022 -0.2505259 -0.21594149 0.44799185 -0.18389732 -0.0010863296 -0.24007075 0.17296739 0.39087257 -0.0695003 0.08912395 0.21492712 0.23218033 0.33926252 0.12763335 0.014580701 0.12222803 0.08198692 0.06414123 -0.16148822 -0.22831613 -0.067765094 -0.018030422
http://cmt#adjustedBy -0.025955206 -0.33783087 -0.103112094 -0.026143152 0.13128474 0.11032598 -0.08880844 -0.022070356 0.18848786 0.063290894 0.17565827 -0.06495496 -0.010249269 0.110400036 0.32672477 0.19967394 -0.15104438 -0.20289803 0.19323179 0.04541672 0.35489658 0.239427 0.27471054 0.038895775 -0.31446597 0.07682702 0.12600604 0.13311723 0.04376105 0.2621039 -0.06851074 0.30084842 -0.42047796 -0.15909414 -0.26859927 -0.28288326 -0.0360335 -0.031773116 0.13640714 -0.12431961 0.26458937 0.03219618 -0.23239511 0.22114626 -0.08129152 -0.15628807 -0.007065784 0.18630946 0.36267698 0.17828509 -0.19058384 -0.16916147 0.27539003 0.027373796 0.08478191 0.34066063 0.07675484 -0.055811226 -0.10734373 0.35039166 0.06312187 -0.24824584 0.060416736 0.34009495
http://cmt#hasAuthor 0.25421482 0.26578254 0.0077384426 -0.027308213 0.17010392 -0.053993046 -0.042641032 0.09246 -0.071116455 0.09284123 -0.27088493 0.095389485 -0.31219274 -0.070892006 0.19974779 0.328598 -0.16077411 0.106063865 -0.5419649 0.22963335 0.13845183 0.008712752 0.33419865 0.0097857015 -0.040471148 0.20899257 0.18575588 -0.063026436 0.27992648 0.34183562 -0.2523149 0.06670538 -0.17175288 -0.38966405 -0.17667669 0.03482983 -0.2057727 0.0058296286 0.064284064 -0.024459273 0.23203391 -0.22311504 -0.40713128 -0.07041504 0.033902526 -0.25963303 0.17862599 -0.38754624 -0.12949187 -0.10652903 -0.04495852 -0.14260808 0.03865558 0.06872633 -0.09753437 0.12083275 -0.20329545 -0.17868903 -0.076525375 0.23605265 -0.090029106 -0.039650217 0.076322876 0.33237886
http://cmt#writtenBy 0.2015702 -0.38103488 0.06477733 0.23393066 0.20280413 -0.16539823 -0.1749065 0.07376421 0.029567981 0.23537517 0.1476702 -0.06945654 0.039867714 -0.38828328 0.1899087 0.33933496 -0.097076595 0.102687396 -0.06075988 0.022166817 0.14703463 0.1209346 0.17658779 -0.27141008 0.08822319 0.010891408 -0.00020267443 -0.15243085 -0.016517684 0.35332617 0.0505013 0.26996848 -0.14813378 -0.4258567 -0.5048323 -0.12017618 0.057639357 0.04262812 0.07060486 -0.2850172 -0.22435011 0.28254327 -0.043576606 -0.17407835 0.23219694 -0.16109972 0.14919786 -0.26436397 0.13926078 0.26727998 0.067162804 0.050017808 0.409261 0.07263764 0.40375248 0.043807164 0.03435588 0.09415256 -0.18538667 0.22611757 0.014794862 0.025864054 0.20284046 -0.08614671
http://cmt#addProgramCommitteeMember 0.011450271 -0.1347471 0.035501804 0.07319825 0.16480298 0.105872266 -0.14857382 -0.14931627 -0.19001502 0.0543243 -0.20950417 -0.22692542 -0.43351513 -0.09333735 -0.063790165 0.26456538 0.10152161 -0.2810465 -0.05431666 -0.01026097 0.13995183 0.22946903 0.14371149 -0.20937127 0.14142425 -0.002877167 0.26055306 -0.27633643 -0.09044464 -0.07332601 -0.37244517 0.13367555 -0.119502924 0.1484502 -0.3196579 0.18997173 0.16538925 -0.024090618 0.08640084 0.19409682 -0.15480325 -0.004870776 0.021191917 -0.10777195 -0.091671176 0.004698172 0.16069561 -0.1283346 0.3105667 0.03139436 -0.012693367 -0.47680068 0.40825093 0.04673477 -0.17237553 -0.037573442 -0.14628346 -0.041334007 0.15721227 0.19902624 -0.1272722 0.016194284 -0.53191155 0.1426945
http://cmt#rejectPaper 0.23047459 -0.27309737 0.029851943 0.17350401 0.052229945 0.21077253 -0.15373373 0.15130396 -0.2343115 0.17409343 -0.17679706 -0.5576095 -0.018181682 -0.048278738 0.15825883 0.35025522 0.17025948 0.036192395 -0.33797455 0.18512452 0.44371036 0.23420438 0.018925484 -0.14253187 0.13855007 -0.11485422 -0.035672072 -0.20635284 -0.0036742839 0.017211972 -0.4759767 -0.13478258 0.18642916 0.1724814 -0.24402098 0.0025888532 0.023781355 -0.16874486 -0.09745446 0.04368159 -0.023936987 -0.18476279 0.014341807 -0.018475287 -0.048573047 -0.05057173 0.08065359 -0.020427428 0.15530454 -0.075108096 0.1034338 0.005909733 0.17896232 0.07405535 -0.14210165 -0.012291177 -0.10892419 -0.40271673 -0.17212582 0.37251416 0.33845526 0.13578543 0.05576898 0.16607158
http://cmt#addedBy -0.03296954 -0.07087184 -0.23397405 -0.20128867 0.1718939 -0.009543424 -0.113172635 -0.2362874 -0.33249077 -0.10381957 -0.20867735 -0.015096739 -0.309818 -0.07760438 0.1601798 0.058693826 -0.05772016 -0.28837535 -0.17940974 0.009203821 -0.08633259 0.1192572 0.14575815 -0.11904759 0.107472956 0.077955686 -0.09618015 -0.25548854 0.06305535 0.19335042 -0.20248954 -0.09459144 -0.18157592 0.023452345 -0.3259149 0.04222568 0.22771895 -0.084035 -0.06888863 0.1714249 -0.009384598 0.14868984 -0.0023911502 -0.22954464 0.05083435 -0.016266603 0.04851555 -0.11620761 0.35762691 -0.025430994 -0.08962603 -0.5025886 0.4358199 -0.11090237 0.23766005 -0.18974279 -0.038747717 -0.3754621 -0.01632057 0.35215467 0.0056125573 0.20775059 -0.12301167 0.1241779
http://cmt#rejectedBy -0.33247197 -0.16798419 -0.22128329 0.11662357 0.04237206 -0.005862441 -0.16858838 0.19098596 -0.1731864 0.33183154 -0.17767379 -0.21935292 -0.06541437 -0.0022850432 0.2984946 0.34555367 0.058585666 0.23203553 -0.3469057 0.30382758 0.19493076 0.24227469 -0.059347115 -0.08408069 -0.028361958 0.0005203905 0.10041515 -0.27853027 0.07036953 0.17938523 -0.04718346 -0.1715185 0.10762767 -0.21818802 -0.15482502 0.10055835 0.36198094 -0.2513953 -0.22856154 -0.17672722 0.16028635 -0.2182482 -0.12998202 -0.16787824 -0.11340375 -0.07522068 -0.0037800076 0.1281553 0.09222567 -0.04902891 -0.014555437 -0.08535685 0.31792083 0.1461159 -0.034352623 0.022903826 0.04237566 -0.29678637 -0.15642935 0.4267923 -0.12450688 0.2635668 -0.0151809845 0.2006496
http://cmt#assignExternalReviewer 0.48077095 -0.29424253 0.30089262 -0.0252346 -0.13962829 0.038870856 0.059951693 0.58422554 0.097609125 0.058171123 0.08857909 -0.28859332 -0.2060089 -0.009267079 0.26949692 0.2725753 -0.09544017 0.021209832 -0.16325453 -0.23074083 0.34876078 0.045641903 0.03571507 0.14263979 -0.023922442 0.11605372 0.0013820546 -0.4024614 0.016131934 -0.21212463 -0.336359 0.05514436 -0.2425058 -0.25591123 -0.15107287 -0.2469934 0.04752275 -0.1183406 0.16923153 0.25909725 -0.07190419 0.1074813 -0.13285223 -0.17701346 0.07657758 -0.06065635 0.03924187 -0.15854694 0.15612261 0.22162704 -0.12960543 -0.055439897 0.25292626 0.22393613 0.07695849 0.1303031 0.13458505 0.06898848 -0.27022183 0.32678315 -0.031727 -0.01668854 -0.57195497 0.105567634
http://cmt#date -0.05726281 -0.25374913 -0.041170668 -0.0030469694 0.3780778 0.48570475 -0.035330024 0.14136119 0.11303793 -0.5440942 -0.17732455 0.009098492 -0.080028675 0.20960568 0.115182325 0.3855474 -0.052243836 -0.13086495 0.08802991 0.01407014 -0.064715296 0.3624516 -0.3303204 -0.66744053 -0.5161164 0.0024236452 0.032209538 0.05399815 0.18621445 0.17749551 0.21511379 -0.18965481 0.15781179 0.048777923 -0.008518434 -0.30794385 0.21122405 0.025037004 0.10282452 0.13505824 -0.22358324 -0.35350034 0.1623544 -0.12085926 -0.24921018 -0.38097346 0.1087612 -0.34022036 -0.4561283 -0.015160138 0.20145887 -0.83645034 0.111704044 0.20795044 0.23725104 0.07118001 0.36698973 -0.1489485 -0.4374917 -0.42828035 -0.0046165846 0.21445622 0.034307078 0.09395949
http://cmt#markConflictOfInterest 0.16657336 0.14834565 -0.03505891 0.023682546 -0.062214166 0.20316507 -0.27611423 0.36204135 -0.14390841 0.112355195 -0.019095106 -0.5063314 -0.32678044 -0.5339208 0.51484513 0.24921544 -0.11565447 -0.56753296 -0.24797359 0.059749827 0.46150172 -0.107509784 0.30307564 0.19933888 -0.10838746 0.17757934 -0.15290819 -0.042414512 -0.18990634 -0.23849922 -0.20741752 -0.095216244 -0.0797545 -0.1270909 -0.060236603 0.09600379 0.2128784 0.25345585 -0.08517967 -0.3423641 -0.18046945 0.2762904 -0.20424016 0.1649217 -0.12700665 0.07763698 0.052532166 0.015029071 -0.043664098 -0.18894526 -0.11399752 -0.53415 -0.340935 0.42077434 0.15146917 -0.22961017 0.08762623 -0.34858182 -0.13951522 -0.035222396 -0.093129635 0.07359869 0.70185536 0.14286444
http://cmt#AssociatedChair 0.01748436 0.19023067 0.03575706 0.06721369 -0.087916136 0.30812898 -0.16485795 0.42759538 -0.27244657 -0.41765845 0.14252335 -0.25576603 -0.52358913 0.30532062 0.31015754 -0.07254631 -0.18729618 0.2723701 -0.0508804 0.18142143 -0.12666743 0.1503002 -0.121555515 -0.07520988 -0.028982053 0.38801807 -0.2657888 -0.018024819 0.4085182 -0.15372482 -0.06949335 0.4171305 -0.5870829 -0.40161842 0.1516351 0.28114086 -0.17210087 0.04838811 -0.21878184 -0.42074972 -0.023591843 0.29330152 -0.084561914 0.096166976 0.4059995 0.06610133 -0.14201362 -0.25724006 -0.11114113 0.24711253 0.10376498 -0.34851363 0.47055104 -0.014404091 -0.48756817 -0.24910596 0.16919596 -0.018700927 0.11942702 0.018677076 0.2699118 -0.13462697 -0.14033562 -0.22234109
http://cmt#Meta-Reviewer 0.30665898 -0.10638122 -0.30373448 -0.05995274 -0.24142483 -0.10734636 -0.1114327 -0.059864562 0.26407927 -0.4486461 0.21534061 -0.6185102 0.26187566 0.009385753 0.4380661 0.21458271 -0.16712435 0.124301106 -0.09706088 -0.011967102 0.042208154 -0.10218188 0.06976184 -0.1063051 -0.115485705 -0.34435377 -0.08155091 0.023328602 0.327342 -0.074334145 0.10379022 0.15848641 -0.20108175 -0.55210406 -0.03674332 0.36751878 -0.07855177 -0.11520659 0.54706466 -0.3415068 -0.17698391 0.083300166 -0.17893524 0.039498873 0.1214668 0.07289816 -0.14265855 -0.029247645 0.18186711 -0.050586313 -0.2060247 -0.14716469 0.53228456 0.4490757 -0.13427621 0.23092237 -0.18043734 -0.33415863 -0.37141564 0.3555819 -0.16897611 -0.019735586 -0.10390099 -0.14299804
http://cmt#ConferenceChair 0.12712641 0.087484166 0.09916646 0.011841896 -0.09727509 0.42273673 -0.0825341 0.22137505 -0.051987115 -0.6028399 0.09426353 -0.08673461 -0.62812483 0.27424985 0.3259317 -0.0029367958 -0.1844608 0.10863942 -0.0029155111 0.2075968 -0.21773174 0.16102313 0.03981745 -0.06204135 -0.13022283 0.27226856 -0.44037187 0.07671043 0.09695432 -0.17422499 -0.03814977 0.39607167 -0.6415288 -0.33804318 0.18822344 0.24298987 -0.4183786 -0.18229587 -0.24610662 -0.44612396 -0.05715838 0.03149934 -0.14375797 0.12475211 0.18585463 -0.043105833 -0.2726574 -0.2546937 -0.008274536 0.1068264 0.1748959 -0.41937563 0.36016783 0.026238952 -0.3184018 -0.3536884 0.097482026 0.023695318 0.10620176 0.10857769 -0.0029277527 0.041510716 -0.085627176 -0.07165907
N93172ba41b93442f85ab336d3ce3bc8d 0.020947544 -0.23106776 0.14015663 0.092382886 0.31375048 -0.15292643 -0.089689985 -0.074561805 0.21955095 0.27260563 -0.2908698 -0.3332025 -0.25222015 0.04511625 0.26469174 0.3037974 -0.049175426 0.4162141 -0.39516428 -0.060620714 0.09007647 0.17714886 0.30408964 -0.22006372 -0.6358548 0.39127046 -0.56935346 0.15336834 -0.124121234 0.16747427 -0.14411913 -0.08602597 -0.04374803 0.022902852 -0.07820103 0.06656389 -0.08971334 -0.2956722 -0.21278147 -0.07241391 -0.24985453 0.31174803 -0.09132186 -0.01743646 0.09878432 -0.09081847 -0.16494341 -0.13565691 -0.15190972 -0.03319685 -0.20816794 -0.44757134 -0.41351333 0.21021746 -0.124441035 0.6935367 -0.1534214 -0.6810316 -0.46008795 -0.2533127 -0.2051827 0.32252017 -0.024584964 0.04442442
http://cmt#paperID -0.24392045 0.044090264 -0.1273031 0.27678737 0.39125392 0.086412184 -0.34571904 0.4182289 -0.28673795 -0.009892629 0.061661117 -0.22826737 0.012026307 0.12134542 0.11705753 0.47780833 -0.1987258 0.21356474 -0.03334902 -0.2182615 0.07715951 -0.017388344 0.3602858 -0.43828607 -0.23273884 -0.029690074 -0.12327565 0.22835504 0.10695657 0.53213507 0.002275984 -0.28708345 0.13812703 -0.28183404 -0.023060128 -0.15092798 -0.12524843 0.073872015 0.115345955 -0.11629411 0.16041334 0.021905728 0.011308887 0.01921474 -0.21041295 0.12150575 0.5455263 -0.11691536 -0.026176693 -0.14045455 -0.04092307 -0.48290405 -0.034971323 0.5091513 0.21055876 -0.26244327 0.07168687 -0.1201912 -0.64785725 0.21221775 0.021995692 0.07958327 -0.20638429 0.42737818
N48cd3ead1a0f41349eeba5b984779071 0.053594373 -0.020304127 -0.10318938 0.17608115 0.003974623 0.32281932 0.007896639 -0.04157937 0.101027176 -0.16309072 -0.05973007 -0.36973694 -0.0058952053 0.17848581 0.16962034 0.34190664 0.024622317 -0.026852563 0.13590242 -0.19196741 0.08812024 0.40144655 0.005514044 -0.37950045 -0.47525635 0.044704646 0.13534318 -0.07644306 0.18848096 0.056482565 0.08204812 -0.27665666 0.083664656 0.25091353 -0.11376148 -0.104358524 -0.18153897 0.05542023 -0.0717219 0.1273264 -0.09569309 -0.14730404 -0.08226059 -0.26637474 -0.047048055 -0.57098436 0.20198794 -0.16892411 -0.35180858 0.10186835 0.11777923 -0.93959755 -0.18203595 -0.050152916 0.16111718 0.39678845 -0.0006003785 -0.20410232 -0.48465675 -0.3610106 -0.07338674 -0.1253119 -0.02691174 -0.28620255
http://cmt#Chairman -0.23888749 0.43933398 0.26564103 -0.074522026 0.0798752 0.6109128 -0.36370257 0.169476 -0.22600244 -0.2568742 0.49900147 -0.55346864 -0.011441669 -0.17005138 -0.11253581 0.07569506 0.12340717 -0.038203787 -0.258666 0.095596604 -0.036373224 0.14503536 0.044529658 0.12054206 -0.25664744 0.05430809 -0.13693553 -0.16260988 0.2530543 0.039254006 0.01524866 0.4764346 -0.68006456 -0.027189054 -0.003213533 0.5292076 -0.27276668 -0.11793384 0.16341802 -0.15451616 0.03416692 0.25669667 0.298753 -0.038605716 -0.098820284 -0.15352185 -0.10135787 -0.5205251 -0.261443 0.10573361 -0.00035538228 0.010894393 0.34448457 0.18134926 -0.10470192 -0.31129184 0.10708417 -0.040326737 -0.35520393 -0.056888416 0.115247905 -0.17135328 0.06541713 -0.11424432
http://cmt#acceptsHardcopySubmissions -0.09869443 -0.19500273 -0.18750331 0.44183564 0.06292246 -0.17698328 -0.012266809 -0.075533085 -0.13461947 -0.2209298 0.013219457 0.077197954 -0.17562944 -0.2190775 0.2519562 0.22763978 -0.0036486867 0.25439838 0.057086986 -0.26158178 -0.08273918 0.37339738 -0.103114456 -0.21659157 -0.018511385 0.10133573 0.43911308 0.3217526 0.12380441 0.34586698 0.094718724 0.14580488 -0.2748631 0.005536217 0.15047596 -0.34291562 0.20387903 0.15929052 -0.16601342 0.07630646 0.17661731 -0.04466489 -0.040975794 0.2856184 -0.4077346 -0.49576133 0.51954865 -0.34039295 0.13192338 0.09367069 0.29833245 -0.39530188 0.25391886 0.42136136 0.08069928 -0.08283856 0.1707779 -0.14932194 -0.6664049 0.25616035 0.010791933 0.16576238 0.07661745 0.11725134
N18b328cd5ded40bf853a883b365b08f8 -0.12422038 -0.15799302 -0.1013196 -0.29886144 0.06297866 0.142545 0.11065864 0.27978733 0.042549912 -0.0028842029 -0.12247026 -0.26298577 -0.039910287 0.31748056 0.28153932 0.2683764 0.07018557 0.26797533 0.28537792 -0.09120034 0.23566326 0.36430168 0.09546443 -0.107976474 -0.18596625 -0.016119102 0.20700099 0.47111273 0.34924886 0.19981243 0.11335096 -0.07359609 0.04961333 0.21440685 -0.11322948 -0.063361585 0.12522024 -0.1195636 -0.36927623 0.32233882 -0.24555725 -0.07395942 -0.07581241 -0.43401274 0.252724 -0.32405072 0.080603644 -0.5793567 -0.016280405 -0.019603489 -0.09742875 -0.64067256 -0.20063083 0.15666649 0.27694413 0.3403044 -0.08468665 -0.39200154 -0.50791454 -0.07224309 0.014659161 -0.10158427 0.18565695 -0.10192314
http://cmt#Co-author 0.3399169 0.33366933 -0.16699117 0.14853671 -0.058642767 -0.040851563 -0.0075393026 0.1925757 -0.26370332 -0.11422821 -0.12498261 -0.32166478 -0.5177986 -0.121137 -0.10091166 0.25454924 -0.12859952 0.06343433 -0.12202292 0.109691314 0.047970437 -0.13383237 0.31510693 -0.29527557 0.023754584 0.10491938 0.13280295 -0.2501494 -0.0037726504 0.0040857648 -0.010925633 -0.22266887 -0.33090344 -0.09289658 0.21222672 0.16687797 0.040453553 0.1925311 -0.064556345 -0.36077473 -0.0027334304 -0.14430182 -0.34690574 -0.11277158 -0.17083162 0.247069 -0.33687887 -0.6461134 -0.21232942 0.23413895 -0.22426692 0.20986298 0.34318376 -0.12053338 -0.22454144 0.3451681 0.3163989 -0.36583942 -0.26878706 -0.052578703 0.08371221 -0.3121425 0.0752259 0.44489276
http://cmt#maxPapers -0.037147447 -0.16518103 0.20272668 -0.08288738 0.4821986 -0.1197228 -0.012849755 0.2209642 -0.26543868 0.027909689 -0.11692412 0.12263505 -0.26853406 0.05114584 0.12144362 0.17723145 0.2176982 -0.032153923 0.10145326 0.061516974 -0.18373407 0.061310094 0.16626297 -0.38521186 -0.03948637 -0.20563826 0.03959888 0.2800529 0.2387047 0.34418112 0.14759976 0.14892428 0.0856341 0.09932666 0.191542 -0.021020005 0.1643842 0.16528347 -0.09813005 0.007990478 0.24496672 0.37057394 -0.067943975 -0.12470387 -0.079024166 -0.14822991 0.08756805 -0.30131602 0.13403368 -0.20447724 0.13293338 -0.7865515 0.57747954 0.45456815 0.51502424 -0.13660917 -0.31344858 -0.37011874 -0.23635702 0.07723512 -0.0043600164 -0.119304 -0.10775439 0.3137943
http://cmt#ProgramCommitteeChair 0.13615224 0.2067999 0.15451324 0.01857149 -0.09933518 0.22532545 -0.12443733 0.07300634 -0.16866055 -0.51300037 -0.20603582 -0.17411387 -0.36790326 -0.25371653 0.13564062 0.34983802 0.4272295 0.26895037 0.19254272 0.16300529 -0.42737913 -0.06442306 0.0921503 -0.28756613 0.19967006 0.09055862 0.20694585 -0.27434856 -0.121336654 -0.09458122 -0.058062013 0.30206904 -0.3251228 -0.36346942 0.0928669 0.30686674 -0.09356574 -0.4862806 -0.04742405 -0.3698524 0.14091773 0.21250238 0.20697 0.061357398 0.21417269 0.30124757 -0.21083173 -0.17491548 0.344726 0.24532695 0.20403047 -0.67462873 0.14099276 -0.21741973 0.2691298 -0.09763566 -0.01930371 -0.18344125 0.2312103 0.041078962 -0.14951998 0.07941141 0.1502984 0.17716876
http://cmt#title -0.28262842 -0.31931737 0.10187289 0.44522023 0.2714895 -0.087148525 0.14894427 0.06701387 -0.09918544 0.006608797 -0.04069049 -0.029301312 -0.0072975494 -0.032874744 0.063795775 0.51629025 -0.15358034 0.29472768 -0.025127018 0.18322688 0.25539324 -0.14706078 -0.20447724 -0.31668574 -0.24929284 0.14233477 -0.022556873 0.02217417 0.18331954 0.14303397 0.16671662 0.032783616 0.026678141 -0.34919095 -0.005198112 -0.19003832 0.2987173 0.26497746 -0.07372009 -0.19199647 0.11419215 0.18412937 -0.120563745 -0.039322134 -0.20326577 -0.33669564 0.37220722 -0.390867 -0.059072245 -0.25742745 0.1484728 -0.43475458 -0.08401094 0.12039114 0.09036935 -0.1836591 -0.16517574 -0.4026076 -0.49140564 0.17727962 0.02742555 -0.26441038 -0.25379595 0.4531032
Na38c4f4ceefa451b8fae04af9fe3a786 -0.10642178 -0.0462058 0.090779655 -0.111384526 0.030399902 0.22789146 -0.21387681 -0.03785003 0.23256952 0.43068254 -0.16018735 -0.25176498 -0.17964949 -0.088621564 0.21859813 0.42636627 -0.21554524 0.54058033 -0.1749403 -0.11024789 0.34431985 0.11651874 -0.0392455 -0.39696354 -0.47207722 0.26628348 0.018611832 0.071443975 0.065741666 0.17858562 0.0033909692 -0.44837543 0.037996966 0.08597803 -0.20781732 0.039484866 -0.060305186 -0.17314586 -0.18051903 -0.06451959 -0.21067981 0.14232533 -0.18586025 -0.13779119 0.14008704 -0.071543835 0.19597241 -0.32361364 -0.04636003 -0.042494293 -0.2172336 -0.60341084 -0.2035948 0.092807785 -0.049593873 0.5496757 -0.008639891 -0.5222693 -0.15657255 -0.17322654 -0.031600147 0.006020899 -0.1470438 -0.12693188
N35b684d32e2c4e62a907513241a2b7c4 0.18845357 -0.15909843 -0.091825254 -0.29535237 -0.4027249 0.18784477 -0.07736206 -0.1551921 0.16055991 0.057890918 -0.17143385 -0.393431 0.11908168 0.16465695 0.33006084 0.34483716 0.0049047526 0.3087682 -0.21949655 -0.05381625 0.23553537 -0.12106159 -0.059366792 -0.21107367 -0.307685 -0.010649511 0.13456687 0.06106451 0.14148393 0.23344526 -0.042857897 -0.38686305 0.047250286 -0.13041191 -0.17243077 0.17991853 -0.14570951 -0.0015043926 -0.00018620586 -0.1440688 -0.13016504 0.009861314 -0.25398657 -0.15084508 0.079187 -0.045483682 0.32380128 -0.29004526 -0.07487231 -0.1058516 -0.22913615 -0.73256826 0.11081444 0.27653745 -0.09351738 0.6151083 -0.081098124 -0.4920307 -0.54318815 -0.072253026 -0.25700593 -0.1744548 0.031759184 -0.18218751
Nf0431b7016a248528b10be596227a76f -0.22265963 -0.19059706 -0.2180532 0.10879798 -0.18472362 0.312638 0.2362806 -0.25671527 0.1832331 -0.09884395 -0.011108836 -0.13481845 -0.053444326 0.09319665 0.24969238 0.47636095 -0.15411112 0.007714932 0.18683085 -0.058015656 0.2011174 -0.06866118 0.045305792 -0.21107376 -0.2926775 0.23363693 0.03828689 -0.10046533 0.33921134 0.07783431 0.1508131 -0.34421882 -0.14091238 0.13833927 0.0109253265 -0.4337804 -0.026964886 -0.042017564 -0.53244156 0.05903736 -0.26340353 0.004768409 -0.044568952 -0.37628388 0.15577756 -0.43439493 -0.028139599 -0.38740617 0.21558152 -0.22707665 -0.14216127 -0.72804576 -0.111288644 0.1412139 0.03173282 0.34036893 -0.040345028 -0.21276142 -0.56683266 -0.11027707 0.06744325 0.00031275587 -0.058101755 -0.14561372
http://cmt#logoURL -0.22122084 -0.037317656 0.16511567 0.30364302 0.41628107 -0.07171042 -0.1888374 0.06329916 -0.2508844 -0.042667683 0.054533638 -0.029891418 0.16428196 0.29806712 0.3408173 0.32275173 0.014406339 0.05096983 -0.06940402 0.19925255 0.06818885 0.35033715 -0.120571345 -0.30200213 0.13875124 0.115873106 0.11851576 0.10054462 0.36500505 0.28214243 0.26664302 -0.02080115 -0.027468335 -0.12960514 -0.10389445 -0.4379508 0.12129761 0.2172632 0.10570008 0.26001674 0.14481997 0.040699985 0.23421475 0.39702174 -0.20879385 -0.27784276 -0.1348973 -0.42770904 0.052767638 -0.16495657 0.090722606 -0.44465065 0.21409431 0.29541767 0.12050558 0.20197156 0.18602797 -0.10251471 -0.43634334 0.10814241 -0.16458152 0.12262846 0.011393363 0.29444018
http://cmt#hasCo-author 0.0809049 0.14243332 -0.1430035 0.067591496 0.100656345 0.021520374 0.15229899 0.051118024 -0.2743571 0.02861125 -0.15261908 -0.5522223 -0.3641485 -0.30732796 0.080759384 0.18707623 -0.25691992 0.029158391 -0.06851003 0.25450018 0.24352625 -0.11280002 0.2891735 -0.3511328 -0.25270718 0.01216735 0.22204389 -0.20479561 -0.118679225 -0.013635055 0.11515729 -0.3247796 -0.107749 0.11609004 -0.25733227 0.05714811 -0.26897472 0.1899016 -0.17521164 -0.32183522 0.24573681 0.0386428 -0.42212972 -0.029163105 -0.09281686 0.15957543 -0.27810857 -0.24279805 -0.2418144 0.35137105 -0.0890656 0.21112347 0.29962546 -0.039926663 -0.05912377 0.11947042 0.1304395 -0.5323255 -0.22706348 0.07178062 -0.215704 -0.1494471 -0.04209718 0.37712827
Neb65d8c62a3f4e42b09e688ecc6ac0d6 0.15910071 -0.2223025 0.28530216 -0.23094362 -0.36990175 0.3037477 0.30820343 0.3960107 0.32458076 -0.0025874232 0.04640264 -0.3887146 -0.16205586 0.17638277 0.12173921 0.30884722 -0.0025704862 0.3548811 -0.3814904 -0.17178027 0.53744006 0.08516818 0.031961124 -0.047828246 -0.25321922 0.3896914 0.027110783 -0.20306398 0.32742298 -0.1243343 0.016930794 -0.07353996 0.0076654316 -0.03603807 -0.028859945 -0.18204552 -0.19998628 0.107177846 -0.20046623 0.3340569 -0.07690928 0.30025792 0.042213857 -0.24639234 -0.034990538 -0.074676275 -0.009131876 -0.21439117 0.03162015 0.2065465 -0.24844746 -0.70639735 -0.059219535 0.24268107 0.2519896 0.6231978 0.11340527 -0.01741427 -0.44837067 0.10302423 -0.006564726 0.030681506 -0.37187248 -0.182043
http://cmt#readPaper 0.26865286 -0.077476814 0.2959742 0.04754124 -0.018663844 0.13954991 -0.21812825 0.02800028 -0.119364314 -0.018291732 0.01732533 -0.4076697 -0.22962162 -0.007550653 0.41295713 -0.0047172424 -0.111704126 0.043985423 -0.13461357 -0.14612663 0.49139455 -0.14460176 0.064670056 -0.17780918 -0.20043395 -0.19361123 0.009028737 -0.21972728 -0.07285208 0.22694677 0.18462665 -0.021220418 0.15379621 -0.31892663 -0.29824108 -0.077703364 0.14483963 -0.07206258 0.076247 -0.32212946 0.15399554 0.15380913 -0.32299444 -0.18029016 0.07807993 -0.19602932 -0.25638893 -0.17701328 0.24677916 0.23782319 5.944219e-05 -0.10444268 -0.27612424 0.115867145 -0.20971143 0.022644782 -0.16903009 -0.055614118 -0.19614387 0.2811269 0.037108805 0.020197315 -0.11654869 0.014269299
http://cmt#AuthorNotReviewer 0.32604524 0.24238953 0.28067407 -0.07738099 -0.10057499 0.07795526 0.13180824 -0.15659057 -0.044370648 -0.1397585 0.112230286 -0.20069653 -0.35267618 0.079751566 -0.01632542 0.052290414 0.01602489 -0.12718499 -0.03832221 0.013851844 -0.18579 0.10837774 0.42853817 -0.38175657 0.10094116 0.22568908 0.017673103 -0.3153225 0.18377177 0.1890641 -0.03553371 0.4115371 -0.35608047 -0.3097076 0.014598569 0.45322052 0.13719305 -0.015374609 0.14962687 -0.12984833 -0.079847306 0.04089329 -0.281134 -0.30701885 0.06129896 -0.16707735 -0.34799916 -0.1622282 0.13968961 0.1645205 -0.028784307 -0.21228412 0.18206985 0.19027922 0.016380154 -0.0070672254 -0.07977074 -0.15923154 0.1508942 0.05385361 0.0735557 -0.2605619 -0.05315976 0.21733154
http://cmt#hasBeenAssigned 0.2898678 -0.47954354 0.008643943 0.29039425 -0.17895204 -0.034606047 -0.033326533 0.076735206 0.08837296 0.044241946 0.0978192 -0.44429693 -0.2008246 -0.07856088 0.2275453 0.33587548 -0.15713413 0.12157403 0.06482987 -0.031955 0.43307397 0.07273081 0.15007593 -0.18452132 -0.1737151 0.2350378 -0.2508255 0.079427265 -0.22140299 0.15132254 -0.010921564 0.06870431 -0.0042235567 -0.3791383 -0.4121668 0.06096106 0.041498072 0.024224374 0.22027916 -0.08728935 0.5068944 0.11215588 -0.289267 -0.38677067 -0.13200203 -0.042172357 -0.24043117 0.034209386 0.02240934 0.0776367 -0.26092783 -0.11568295 0.059962556 0.20449245 -0.11873695 -0.2953565 0.08760424 -0.18587987 -0.0030410842 -0.11693387 -0.33435893 0.04623542 -0.064116485 0.073817715
http://cmt#hasProgramCommitteeMember -0.047831986 -0.243386 -0.03490514 -0.17980397 0.17666806 -0.1367946 -0.28324908 0.066283256 -0.20005311 -0.5213703 0.42920527 -0.23267137 -0.27883458 -0.2290294 -0.07913119 -0.066758044 0.7476334 -0.016049378 0.20199612 -0.013266648 0.107830934 0.03015249 0.3826425 -0.3505236 0.005752994 0.27538496 0.027420348 -0.33680025 0.025228748 -0.07119207 0.042275455 0.13217478 -0.10602581 0.26008603 -0.15314882 0.28047803 0.17017744 0.17007227 0.021436142 -0.04144705 0.20448455 0.061154895 -0.05651745 -0.10854559 0.036324214 -0.16099177 -0.07550769 -0.027848464 0.096354276 0.13926081 -0.072471835 -0.36746132 0.22452052 0.15075137 0.07112071 0.17639545 -0.24417795 -0.20733908 0.176342 0.24725112 -0.0043804594 0.020116419 -0.028135568 0.14434901
http://cmt#hasConferenceMember 0.045422275 -0.05279132 0.14995667 -0.04167262 0.17544672 0.1383455 -0.17936832 0.28333285 -0.2099127 -0.34889877 -0.038221385 -0.24531715 -0.43470994 0.12787785 0.49288318 -0.07080746 -0.2614414 0.121793084 0.15731792 -0.08838055 0.08130134 0.30071062 0.31089786 -0.14526863 -0.0037229436 0.06793346 0.18733083 -0.040587697 -0.004401705 -0.17562887 0.13130686 -0.14516385 -0.2592033 -0.19349256 -0.15016893 -0.26142892 -0.04168036 0.27928585 -0.37108386 -0.1307938 -0.11727494 0.037137266 -0.031887427 0.15145719 0.28577986 -0.39289832 -0.15261705 -0.14041267 -0.30529392 -0.065045714 0.0023998178 -0.2946062 0.39013523 0.06373313 -0.20445915 -0.15155183 0.022749709 0.21888472 0.3304352 0.18378063 -0.16774635 0.014179592 0.04058927 -0.19232178
http://cmt#siteURL -0.3160917 -0.014146348 0.11299849 0.2976743 0.4432095 -0.13054521 -0.10317994 0.032710556 -0.23788884 0.046568755 0.07251592 -0.03991555 0.20622227 0.3470144 0.31281644 0.34721515 -0.027881391 0.055870943 -0.07500495 0.1399113 0.14164421 0.3480113 -0.09968492 -0.33991432 0.21850206 0.16001554 0.13452393 0.0915586 0.30775303 0.29273397 0.2788074 -0.17568044 -0.083924286 -0.10760688 -0.15110633 -0.485337 0.09473378 0.21901213 0.118253924 0.18555124 0.12755276 0.099426165 0.18667145 0.34641996 -0.006309269 -0.26932052 -0.08474842 -0.48892364 0.14376731 -0.121907786 0.24127841 -0.5757014 0.11495012 0.3757331 0.18022239 0.074958734 0.16464695 -0.030123528 -0.36137474 0.103339754 -0.082376264 -0.07315771 0.06831346 0.26780808
http://cmt#memberOfProgramCommittee -0.18053235 -0.24359533 0.034887563 -0.27749154 0.15242763 -0.0984303 -0.22809617 0.2595123 -0.07084759 -0.37568074 0.19567418 -0.13573982 -0.5126488 -0.21947429 0.042744193 -0.1921311 0.7326803 -0.16993369 0.114648305 0.054405104 -0.043186482 -0.048681885 0.38039273 -0.27801242 -0.077933215 0.2549781 -0.02089634 -0.41800725 0.0011340867 0.15646459 0.14862007 0.020147469 -0.19567253 0.23097524 -0.15605055 0.12055594 0.18209879 -0.032528564 0.26360965 -0.100960344 0.12620518 -0.035779577 -0.018978123 -0.16297013 0.10180553 -0.10653061 -0.013751733 -0.037734404 0.1409383 -0.057239775 0.15906274 -0.3945642 0.31101346 0.090765245 -0.13908038 0.153195 -0.16974783 -0.2590449 0.21229917 0.2123656 0.18675883 -0.077003896 0.044101607 0.12535858
http://cmt#co-writePaper 0.03497788 0.09122974 -0.13744909 -0.064165376 0.09405297 0.008337011 0.12787995 0.18438436 -0.24409978 -0.093063086 -0.20250246 -0.5339923 -0.21305273 -0.1742371 0.061583746 -0.02260424 -0.23934256 0.09428734 -0.35172522 0.16698447 0.15697406 -0.036318053 0.32131582 -0.4628179 -0.02734396 0.15436663 0.12436446 -0.22784384 -0.09962269 -0.10101388 -0.03386654 -0.39144865 -0.26374695 0.0093571665 -0.3370638 -0.028443122 0.11455672 0.01732671 -0.16896223 -0.42220402 0.2372455 -0.048900336 -0.19032004 -0.041852817 0.07773904 0.37579283 -0.043267857 -0.4575671 -0.26800787 0.2805837 -0.059451234 0.22690123 0.17467809 -0.14327289 -0.019199476 0.062780716 0.12665406 -0.4790685 -0.29914182 0.080948144 -0.29608473 -0.35377875 0.039406028 0.41071895
http://cmt#paperAssignmentFinalizedBy 0.06142819 -0.08946384 -0.23962706 -0.112214 0.44153127 0.25225055 -0.14423437 0.009491642 -0.098211 0.13809742 0.051556382 -0.4963166 -0.19936214 -0.0981029 0.3727268 0.2816221 0.019695867 0.05333585 0.13587584 0.17212573 0.15439434 0.4497975 -0.036540415 0.039123565 0.088895455 -0.0039614323 0.08616377 -0.16276062 0.18112476 0.07751919 -0.40970483 -0.18258674 0.038933467 0.047921937 0.064789735 -0.19199276 0.16327013 0.36859033 0.032445423 -0.26363868 0.30617818 -0.5689278 0.16597371 -0.32104978 -0.012925065 -0.28325164 0.008183217 0.010132227 -0.043658476 0.027902057 0.23615111 -0.24290705 0.08377894 0.09118262 0.14545941 -0.0472144 0.083259724 -0.06425367 0.085088275 0.21697108 -0.1178804 0.14225933 -0.022516556 -0.159109
http://cmt#memberOfConference 0.16053869 -0.19204162 0.08972768 -0.02602091 0.11974782 -0.03327148 -0.20667273 0.22790638 -0.16485128 -0.5227174 0.098708816 -0.26718724 -0.45205835 0.04834242 0.32500613 -0.105632074 -0.3036069 -0.024837922 0.16093245 -0.10241431 0.14966424 0.16980547 -0.031314697 -0.061240032 0.021853866 0.079098746 -0.025969293 0.108051725 0.019637702 -0.10074575 -0.18800473 -0.15686995 -0.29791087 -0.002853479 -0.1674701 -0.012228547 -0.12320485 0.19118287 -0.11761097 -0.07432372 -0.14292683 -0.08276907 -0.10318745 0.07753811 0.40098757 -0.46957964 -0.099561326 -0.27219182 -0.4204774 -0.33250025 0.13128877 -0.3700786 0.28138706 0.034511015 -0.2176854 -0.013826134 0.14413121 0.13670623 0.17572303 0.29990897 -0.39507598 -0.008697144 0.1454826 0.014421698
N401a9e9d3e27445d8bb2d36b47860a26 0.14368145 -0.062608965 0.17673402 -0.15730003 -0.19580336 0.43256554 -0.31781766 -0.13671635 -0.08764069 0.22249162 -0.16765718 -0.31628016 -0.22129041 0.18633859 0.29823443 0.24229853 -0.18006971 0.20601024 -0.29066133 -0.22052082 0.39469835 -0.08750048 0.025040992 -0.3137672 -0.42853546 -0.028022755 0.17098424 -0.1024418 0.11047918 0.12802997 0.17936851 -0.22703227 0.36948365 -0.09836269 -0.056723937 -0.029499454 0.12512198 -0.035491068 -0.023574878 -0.26311532 -0.14698601 0.16795225 -0.35157913 -0.2811641 0.21327971 -0.34806344 0.03382043 -0.32258537 0.111027434 0.29018578 -0.088221125 -0.5959586 -0.5672142 0.049947232 -0.19270901 0.5142408 -0.01830324 -0.2334578 -0.43578637 -0.08032437 -0.06330481 -0.038326398 -0.11615829 -0.0057506408
http://cmt#hasBid 0.20824566 -0.12260498 -0.016187277 0.037087094 0.18175156 0.32153913 -0.22080871 0.16914968 -0.096853614 -0.048074234 -0.04858235 -0.3056896 -0.16931745 0.10796141 0.05636602 0.24744184 0.07333234 0.0131219365 -0.080105826 0.32561052 0.23461644 0.21760453 0.20096266 -0.012316783 -0.36295775 0.0059338324 0.16051248 -0.21091858 -0.2713154 0.051344126 -0.27276102 0.15859249 -0.06302137 0.048085216 -0.4242484 -0.15686718 0.24736552 -0.25300592 0.0039971336 -0.08249318 0.09767182 -0.026465436 -0.19503994 0.25512 -0.046370447 -0.073907435 0.21788394 0.13717836 0.040511355 0.14513674 -0.19803505 -0.05258196 0.12923409 0.10419195 -0.21072793 0.20704575 -0.08787416 -0.21344057 -0.1227599 0.0052944995 0.025132474 -0.34853905 -0.09195687 0.19401316
http://cmt#runPaperAssignmentTools 0.01188856 -0.21877652 -0.31808588 0.018677402 0.2934571 0.08178272 0.17713426 0.11063334 -0.31129837 -0.16553348 -0.088499665 -0.3342639 -0.34670907 -0.14148384 0.28510055 0.347578 0.13356678 0.053499885 0.12050941 -0.126254 0.13557597 0.046883114 0.21100293 0.16561994 -0.18775092 -0.035709664 0.46862298 -0.038332682 0.2651805 0.079877086 -0.18001081 -0.23507857 -0.1437846 0.033240493 -0.2743786 0.002656352 0.20984508 -0.09769695 0.095349215 0.1780794 0.015371332 -0.12091217 0.3955725 -0.036188234 -0.023659347 -0.30022338 -0.116998866 -0.09624778 -0.08975039 0.09800087 0.044907525 -0.050676983 -0.058314487 0.053650234 -0.23133293 -0.05063172 0.32925576 -0.26780537 0.1055577 0.41100293 -0.39099252 0.33110026 0.15665239 -0.19710876
http://cmt#enableVirtualMeeting 0.16723655 -0.1704098 0.111006536 -0.07051933 0.312378 0.08373569 -0.22345923 -0.32772958 -0.56007606 -0.2025976 -0.15870172 -0.31182492 0.008756557 -0.21755095 0.25149634 0.089113295 0.27071485 -0.12888145 0.31449372 -0.08996367 0.31597608 0.34457788 0.1834718 0.123834416 -0.067326985 0.20770735 -0.0043389373 -0.041414008 0.23616451 -0.17291234 -0.06265856 0.026303826 0.1347229 -0.20282212 -0.18572612 -0.17061277 0.07447795 -0.05613705 -0.12104898 0.05695415 -0.0070528644 -0.41304624 -0.003035113 -0.07163738 -0.15340492 -0.21785975 0.0823876 -0.14760946 0.13695587 0.01866407 0.12013853 -0.25454557 0.21125317 -0.15710054 -0.049546327 0.16986771 0.49123436 -0.2277029 0.0026425875 0.06888153 -0.26846284 0.041393775 0.19117247 0.081852354
http://cmt#hardcopyMailingManifestsPrintedBy -0.23074897 -0.24505104 0.2243084 -0.023591822 0.28850293 0.09189826 0.18641041 0.0044762897 -0.2683317 -0.17969255 -0.05835221 -0.5043442 -0.3501964 0.15158083 0.13417046 -0.13570142 -0.010260698 0.012981094 0.029347673 0.0970632 0.26164123 0.06909197 0.09275533 0.07208441 -0.007704703 -0.109065 0.2163383 -0.1932422 -0.10316305 -0.05844261 -0.25817034 -0.22685044 -0.11918897 0.007156487 -0.2706643 -0.31348887 0.06460021 -0.03571007 -0.037067793 -0.068298645 0.04016914 -0.39708337 0.17740837 -0.23290767 -0.14636444 -0.37512353 0.17761824 -0.2953349 0.2705079 0.18181774 -0.03186319 -0.13931108 0.34405398 0.08051411 0.020658858 0.16517848 0.116151616 -0.09024601 -0.026071418 -0.21853079 -0.21919858 0.45746562 0.41224942 -0.20321658
http://cmt#assignedByAdministrator 0.091769084 -0.31999233 0.22484821 0.25798798 0.08328695 0.14697535 0.12334899 0.040192675 0.04230844 0.008481298 -0.115322836 -0.54273915 -0.1254623 0.13387482 0.3877694 0.14435457 -0.16407146 -0.21019876 0.097368866 -0.35791007 0.2028529 0.12594813 0.12428565 0.01258446 0.013666864 -0.15283044 -0.14721677 -0.32642317 0.052988313 0.091572866 -0.0015623651 -0.078560606 -0.2812891 -0.2894054 -0.33102003 0.30083382 0.09020669 0.07725503 0.11629283 -0.116175905 0.16977838 -0.032856677 -0.11210863 -0.4707536 -0.089623116 -0.18477988 0.0136475805 0.09690725 0.28666177 0.03815767 0.27934733 0.11323557 0.18738255 0.12179884 0.15383025 0.23056994 0.2865521 -0.1479065 0.31397772 0.4716097 0.1506414 -0.044029653 0.11517805 -0.051171906
http://cmt#finalizePaperAssignment 0.0703746 -0.14966291 -0.15098648 0.10039689 0.14641504 0.13239 -0.2812121 -0.06117652 -0.23163006 0.15433283 -0.022964492 -0.23093396 -0.3589981 0.1491504 0.09064093 -0.062876455 -0.19430007 0.07675237 0.3399454 -0.017796336 0.14780891 0.40530616 -0.07856154 0.053598635 -0.089606136 0.302938 0.099320225 -0.40138224 0.22456133 -0.057650246 -0.25048575 -0.084415175 0.023184104 0.08379722 -0.20981438 -0.1787267 0.32718742 0.27930546 0.18801187 -0.07476553 0.16136654 -0.49090567 0.17833592 -0.20272508 -0.05444312 -0.12924394 -0.060763437 -0.10055203 0.0765079 0.13711117 0.34343207 -0.1885719 0.18875425 0.15699068 0.078052156 0.03886113 0.073216826 -0.38658723 -0.114146926 0.28421947 -0.23971917 0.12011268 0.2913566 -0.33889922
http://cmt#printHardcopyMailingManifests -0.15550661 -0.19018117 0.10103436 0.2715585 0.13114864 0.07319138 0.17681032 0.012530062 -0.4340687 0.06331736 -0.13871937 -0.6834894 -0.16974205 0.18064511 0.35890126 -0.1632888 0.0400107 -0.043287493 0.17944019 0.24889944 -0.024738701 0.054401588 0.08449756 0.013288064 -0.036955077 -0.17203483 0.04224633 -0.27818844 0.040042937 0.07126178 -0.24255073 -0.086911954 -0.20495562 0.22875535 -0.06829234 -0.16023202 0.1730333 -0.10404341 0.039681874 0.07735455 0.0040780515 -0.24525923 -0.061703734 -0.26656213 -0.26310226 -0.3261595 0.17256394 -0.2540498 -0.11665194 0.09591534 -0.06227571 -0.32277617 0.16404301 0.2679672 0.13432163 0.19155599 0.25119513 -0.112410754 0.17046867 0.19407332 -0.2716438 0.37784228 0.29973426 -0.09872638
http://cmt#enterReviewCriteria -0.012807388 -0.3489225 0.26756728 -0.0025072538 0.1601234 0.08532236 0.012262895 0.05482019 -0.29437026 -0.18769866 -0.21281838 -0.2633165 -0.22354952 -0.24112533 0.2490123 0.29893988 -0.09556224 -0.4150933 0.2870991 0.13976593 -0.054590452 0.3779034 -0.041100804 0.02386591 0.26152948 0.09263239 0.19048372 -0.04644789 0.12651664 0.19370635 -0.14048167 -0.303934 -0.13473646 0.07962764 -0.4842631 0.00877722 0.22212479 0.16044953 -0.03407301 0.10084599 0.2717729 -0.29466513 0.024620296 -0.19066295 -0.033825893 -0.045452707 0.021511225 -0.17307058 -0.054139208 0.031169657 -0.013253926 -0.22025411 0.028777208 -0.020716669 -0.39699614 0.1380203 0.19362003 -0.24444707 -0.2514601 0.29823384 0.029588364 0.1267596 0.18228638 -0.4439624
http://cmt#assignedTo 0.16377921 -0.49911478 0.046580687 -0.0038067356 -0.10112946 0.06306824 0.0484351 0.063536614 -0.055415343 0.13218682 0.23546815 -0.4903108 -0.26176482 -0.089011334 0.4243912 0.36658168 -0.23206873 0.11672807 -0.1468874 -0.15885958 0.35136485 -0.10354849 0.15876304 -0.105072394 0.010626337 0.09713946 -0.22784212 -0.00999754 -0.25857395 0.30154663 -0.022384156 -0.013715563 0.14102393 -0.36609787 -0.36622342 0.08397821 0.29857197 -0.13801071 0.14463899 -0.103334345 0.37385783 -0.022294808 -0.15180202 -0.106729425 -0.0407095 -0.078214094 -0.18936954 -0.13041016 -0.091679804 -0.043832168 -0.22622351 -0.122969344 0.11632303 0.27929395 -0.13213956 -0.064457715 0.21564099 -0.13222156 0.17749533 -0.19774404 0.029271735 -0.15589051 0.00018900793 0.04202021
http://cmt#paperAssignmentToolsRunBy -0.13407171 -0.17500937 -0.109789975 -0.0023480929 0.22712544 0.10844601 -0.08753134 -0.09434181 -0.0175381 -0.06140197 -0.114202075 -0.4904979 -0.38386926 -0.08009415 0.14089532 0.37734583 0.26936352 -0.11041349 0.07531489 -0.31478453 -0.050205257 0.1537784 0.20463346 0.06316385 -0.03332032 -0.17166637 0.01899447 0.09131805 0.08086581 -0.10149499 -0.3466872 -0.3030456 -0.049947508 0.028648289 -0.26679108 -0.3118042 0.18894762 -0.00621481 -0.12202984 0.060024016 0.12121421 -0.23971304 0.31562334 0.027890217 -0.00019389181 -0.49204814 -0.2906248 -0.13178834 0.10533416 0.24922518 0.09969283 0.011356564 0.14656785 0.08811704 -0.24352273 -0.13640258 0.3281474 -0.35666144 0.021512993 0.30792 -0.19098169 0.1389251 0.10010095 -0.103833646
http://cmt#enterConferenceDetails -0.0842348 -0.36097845 -0.054487817 0.08919355 0.13074337 0.07199403 -0.12248506 -0.025758566 -0.28749508 -0.015959866 -0.2877041 -0.33277646 -0.18538043 -0.03274003 0.6403471 0.15378584 0.124710515 -0.13677216 0.13330835 -0.063344434 -0.036003094 0.20055196 0.14461832 -0.25270176 -0.29330122 0.052987974 0.05611999 -0.21260011 -0.021762745 -0.26515555 -0.1766633 0.00019372681 -0.09614971 0.18303019 -0.13678864 0.12993479 0.253163 0.35278788 0.05359466 0.30621317 0.060039923 -0.3920814 0.2596535 -0.057740368 0.07272298 -0.23296122 -0.17765605 -0.17160627 0.1956169 -0.18385912 -0.018904096 0.14426537 0.20144862 -0.09847633 0.06064999 0.20010297 0.27540338 -0.10473703 -0.23104653 0.15391818 -0.08615826 0.3299539 -0.022870254 -0.021153145
http://cmt#detailsEnteredBy -0.02278855 -0.1705592 -0.19167003 -0.2720854 0.051928405 -0.13257508 0.24753426 0.08780424 -0.3180357 0.0645157 0.028718926 -0.35884356 -0.27512148 -0.015208164 0.45113632 0.21478733 0.06392501 -0.25402477 0.10274969 0.16140187 0.07950519 0.38457662 0.060507406 -0.42713735 -0.23873109 -0.05786705 0.18615495 -0.057098877 -0.09246197 -0.27577364 -0.06698482 0.0037827264 -0.117490724 -0.030740501 -0.2295958 -0.064119875 0.09853944 -0.027277486 0.08181501 0.10157381 0.1272592 -0.36786473 0.06033928 -0.0061402214 0.20182085 -0.3242082 -0.013814995 -0.11969587 0.31044078 -0.2090919 0.3283021 -0.13236964 0.077782586 -0.14720188 -0.08185195 0.08394441 0.3095726 -0.18342611 -0.10303855 0.13182193 -0.16408451 0.36662066 0.13107862 -0.23409131
http://cmt#virtualMeetingEnabledBy -0.016827319 -0.23952277 -0.07606009 0.13801047 0.3703119 0.1493001 0.0026364573 -0.12576783 -0.3417221 -0.014080386 -0.32661915 -0.45504442 -0.011191035 -0.24406329 0.39171994 -0.15438245 0.21954599 -0.01700788 0.1389029 -0.006878246 0.1488351 0.13310765 0.30172667 0.08652109 0.04391903 0.26301214 0.061395723 -0.07670794 0.25691682 0.0020040025 0.006046521 -0.049265034 -0.016898056 -0.10879753 -0.26988065 -0.18710537 0.29452428 -0.06744408 -0.060373463 0.16163194 0.0813642 -0.20450397 -0.12529488 -0.147953 0.0577208 -0.2827901 0.03197342 -0.030455986 0.024244746 -0.10691666 0.40361834 -0.31587923 0.1762401 -0.10173724 -0.07927173 -0.011408805 0.59876525 -0.121260844 0.06082269 0.09756139 -0.09106873 -0.10645991 -0.030554092 -0.07102606
http://cmt#assignReviewer 0.16180576 -0.30637556 0.3911172 0.0757248 0.007678466 0.13519019 0.29228872 -0.20003365 0.006417233 0.1390506 -0.014026869 -0.39896 -0.1527232 -0.023734234 0.3167109 0.237696 -0.07051696 -0.2991029 -0.06345287 -0.17315331 0.18551156 0.34382132 0.025062043 0.11455901 -0.027417375 0.030376043 0.052070446 -0.12833099 -0.112425335 -0.16208644 0.10009964 0.0842346 -0.08579974 -0.4579179 -0.3563419 0.20965151 0.2646634 -0.064514145 0.09670812 -0.38461283 0.08639199 -0.2773611 -0.008834768 -0.19882429 -0.15060061 -0.11197856 -0.012309621 -0.20677292 0.14002262 0.15624358 0.19570203 0.007687275 0.23311391 0.3274908 0.12970077 0.13330702 0.029421227 -0.10575059 0.32248715 0.48509303 -0.07603636 0.20733991 -0.07520081 -0.012683988
http://cmt#startReviewerBidding -0.09487345 -0.15857068 -0.031304665 0.11544416 0.35855022 0.33294332 0.0030452462 0.013545623 -0.34506443 -0.23716845 -0.14462389 -0.3631805 -0.09864334 -0.06180171 0.21911947 0.2545353 0.23217094 -0.049284372 -0.009429417 -0.3508226 0.34793776 0.32857 0.024249792 0.038662266 -0.052097656 0.007700788 0.09401403 -0.18508749 -0.07614043 0.12866795 -0.11645614 -0.15552804 -0.061531466 0.06473967 0.09109484 -0.15546787 0.1728612 -0.14365853 0.0012270177 0.2598197 0.31476346 -0.33844128 -0.32648146 -0.026250608 0.15017127 -0.07855174 -0.13894753 -0.21331683 -0.026355468 -0.3181755 -0.0326756 -0.103847995 0.3053257 0.048298217 0.04777595 0.1173169 0.23332585 -0.110762365 0.027527794 0.37149227 -0.29970625 0.38597432 0.05888576 -0.3691424
http://cmt#reviewCriteriaEnteredBy -0.31383064 -0.25024733 0.23262814 0.0486243 0.27851096 -0.009314681 -0.045283265 -0.075537555 -0.0016722847 -0.17380601 -0.2006869 -0.40811437 -0.46223447 -0.104765624 0.30100548 0.3238796 -0.020579424 -0.16605537 0.14422494 0.19531736 -0.008795467 0.39915857 0.013297604 -0.050277475 0.13089098 0.10972985 0.16418207 0.006604699 0.15693444 -0.14133078 -0.21973358 -0.2325766 0.097685635 0.03976578 -0.27093837 0.10022726 0.07539687 0.119394094 -5.174972e-05 0.06315479 0.28335986 -0.16395213 -0.058602106 -0.1878683 -0.058006756 -0.2086423 0.16005911 -0.17825864 0.06798484 0.024191288 -0.26460403 -0.17187436 0.0397801 -0.1564448 0.0074888803 -0.0011078297 0.46421018 -0.13253783 -0.07037621 0.47351548 0.0022359341 0.07585475 0.28517455 -0.42270577
http://cmt#reviewerBiddingStartedBy 0.026247138 -0.0007938999 0.07542205 0.18469332 0.17714237 0.22992627 0.11254427 -0.13418764 -0.017691601 -0.23887205 -0.005184224 -0.47182247 -0.27471337 0.032992598 0.20382735 0.26962662 0.24706951 -0.029034449 0.1580183 -0.113604926 0.16741209 0.42091936 0.30147746 0.25617677 -0.0981718 -0.0005400026 0.11821448 -0.17918113 -0.23907723 0.09808191 -0.05965123 -0.13269573 0.18371437 -0.14885828 -0.089300714 -0.26123074 0.27446476 0.034899086 0.048285067 0.14878786 0.13426268 -0.17788002 -0.03162978 -0.0010386413 0.2104705 -0.09069874 0.09407671 -0.3770379 -0.10807929 -0.25089446 0.1934375 -0.1274047 0.39749596 -0.23143971 -0.020756863 0.026442861 0.12774591 -0.22379358 -0.083164506 0.32085845 -0.13745928 0.52297896 0.17140912 -0.2631281
http://www.w3.org/1999/02/22-rdf-syntax-ns#nil 0.32583857 0.31265366 0.22036463 -0.1597693 -0.08428831 0.2362228 -0.4213636 0.2201911 0.021644086 -0.39038786 -0.19247313 -0.23151979 -0.34284434 -0.09319574 -0.22559063 0.34436783 -0.048607063 0.23092698 0.3074276 0.20877726 -0.21621692 -0.14825952 0.08126099 -0.034795452 -0.23740554 0.06745886 0.4435999 -0.39829502 0.5118029 -0.04682111 0.075900815 0.62563974 -0.90821975 -0.06290592 -0.07760926 0.51214033 -0.14066553 -0.6858482 -0.36443213 -0.35137925 0.32109803 0.040764343 0.012292828 0.1432502 -0.1341862 -0.16582295 -0.42806387 -0.53214175 0.1181252 -0.20746739 0.30315202 -0.32429072 0.15804143 -0.18952465 0.04736177 -0.24838395 0.14446518 0.21089661 -0.04431678 -0.3158018 -0.075017504 0.43623766 0.20171931 0.37583563
Nbb353b5cbd56417b97b42d662edf7304 0.02472166 0.2769634 0.19247988 -0.020825401 -0.1839473 0.561279 -0.11836085 0.2158532 -0.19773832 -0.33460376 0.42420566 -0.33912873 -0.38553166 0.022264969 0.4212622 -0.014880681 0.20905998 0.12484974 -0.1929041 0.39383578 -0.19023171 0.02991881 -0.046924736 0.06538671 -0.15666094 0.21468364 -0.26440173 0.123368874 0.29521823 -0.050359312 -0.106337905 0.54796976 -0.6918695 -0.31386003 0.1532523 0.39899242 -0.58909196 -0.07081797 -0.38944018 -0.6009926 0.073679306 -0.08212947 0.30905077 0.33387497 0.07956443 0.098280676 -0.22251141 -0.6393998 -0.08691267 0.33624724 0.14713475 -0.446999 0.47592393 -0.04326162 -0.5156694 -0.33423752 0.13513139 -0.18976079 0.061030272 0.018571313 -0.0037653623 0.15485059 -0.40336362 -0.16791247
Ne77f00310249492f87c7f2877d7847f4 -0.111130364 0.12486691 0.3347941 -0.090257466 -0.120311655 0.094756916 -0.207554 0.08052083 0.21737866 -0.54316825 -0.18757635 -0.22605221 -0.19515368 -0.024753999 -0.252593 0.10241345 0.01645458 0.38501298 0.34154814 0.27470604 0.1907407 -0.021918653 0.2526608 0.06895714 -0.16132677 0.12561893 0.15844172 -0.4431536 0.32118818 0.06326663 -0.2716732 0.30315164 -0.63370055 0.110418506 0.12183136 0.3054423 0.15412422 -0.546006 -0.34638306 -0.2786408 0.4996857 0.023643078 0.4621622 0.23618372 -0.0321072 -0.43155167 -0.2382979 -0.40537798 0.24633709 -0.39047775 0.10659063 -0.41723114 0.15028924 -0.1053298 0.041121665 -0.24386653 0.35042074 0.31095868 -0.3110662 -0.36507148 -0.1489992 -0.057395495 0.04443319 0.18654247
N69bcb833cf064346bfdb617fea70b413 0.26238465 0.2863392 0.104748905 0.13650371 -0.06615103 0.36652514 -0.24946499 0.1746678 -0.046196032 -0.3722192 -0.062845245 -0.13282949 -0.6131096 0.11662886 0.29334947 0.16294001 0.09519681 0.5203579 0.3635192 0.033636793 -0.109262615 -0.1962724 -0.0141935395 -0.24218543 0.027391009 0.038740657 -0.14389028 -0.42067808 0.45189077 0.10372541 -0.14468625 0.55741954 -0.6967478 -0.11769179 -0.13686173 0.5545464 -0.32448676 -0.6963302 -0.23612957 -0.26164815 0.36979797 0.08026337 0.31792197 0.51844305 0.021020498 0.18642756 -0.40935794 -0.5831517 0.21355541 0.093810104 0.18338656 -0.5213795 0.24008934 -0.37232938 0.14427863 -0.18907033 -0.09037848 -0.22647236 0.3292881 -0.24224633 0.07596546 0.16782002 0.15551934 -0.0227488
Nc61692cdd85b4411bb727692ac82d89c 0.0511514 0.06502893 0.1192514 0.024433924 0.01034564 0.1502237 -0.079219945 -0.19514613 0.037347738 -0.39552897 -0.060905643 -0.2389734 -0.039379984 -0.06788182 0.072033696 0.41615736 -0.1423562 0.093003966 0.40599597 0.25249156 -0.08229781 -0.26780504 -0.0057929764 0.1503117 -0.08485978 0.15924016 0.0883569 -0.38678536 0.4958321 0.12765321 -0.069706194 0.03421302 -0.2345707 0.63443583 0.030510746 -0.0008096956 0.4370326 -0.3132842 -0.46288666 -0.2653489 0.38006485 -0.0679076 0.19148766 0.21326295 0.38981876 -0.53275967 -0.33404842 -0.54658204 0.23085564 -0.32242963 0.28583136 -0.32466644 0.21804093 0.23275891 0.028562138 -0.29117066 0.38485882 0.13476186 -0.31185895 -0.37979704 0.069903426 0.15369752 0.07959251 0.03472722
Ne3a3e11ff0254ca18b98d19af3c03d9f 0.32639462 0.37594962 0.52628165 -0.13853866 0.04622977 0.09964257 -0.5620387 0.08612448 0.19201812 -0.18757401 -0.11695695 -0.34180993 -0.31784478 -0.20696674 0.06011433 0.35910493 -0.098196834 -0.21532497 -0.3155817 0.24809457 0.049431074 -0.0912391 0.27837515 -0.008986846 -0.24088168 -0.023748087 0.43950132 -0.47225818 0.3800012 0.20284857 -0.16844471 0.36268327 -0.7440977 -0.32710958 0.42724228 0.6750349 -0.062362507 -0.2343072 -0.21409227 -0.11910277 0.3007565 0.27612558 0.051335357 0.06170133 -0.31041265 -0.22570008 -0.55491894 -0.43360618 -0.14678167 -0.17491569 -0.25823107 -0.14476359 0.23325735 -0.22727299 0.13518733 -0.18108122 0.20844719 0.05334609 0.022762544 -0.29724854 0.058528036 0.031060662 0.29567972 0.29550293
N97f550dc29fb48c9b97fad854307abda -0.08007282 0.05812817 -0.032387886 0.16696131 0.16693908 0.1943463 0.29746965 -0.3278626 0.09441064 -0.23327844 0.097004056 -0.053376764 -0.17728071 4.194638e-05 0.007795855 0.7438491 -0.05957622 0.22338282 0.44510582 0.29496172 0.2828524 -0.10485508 0.28783944 -0.22769041 -0.02065251 0.10978087 -0.14649257 -0.4902359 0.64501387 -0.035829023 0.09872933 0.15884823 -0.5168529 0.15532398 0.19049345 -0.13152175 0.2977157 -0.11123809 -0.34700388 -0.4388861 -0.07690522 0.032249402 0.10803153 0.06959279 0.034179043 -0.078396454 -0.007099253 -0.1909937 0.2997914 -0.2798358 0.035459187 -0.3905306 0.17412765 0.17990659 -0.13845018 -0.2584999 0.06517201 0.25648707 -0.6198253 -0.29947954 0.14478101 -0.068965465 0.06705502 -0.061573662
N684cfa31a4124b4abead0be39ded83c1 0.18263543 0.09921569 0.26585093 0.04548035 -0.13110326 0.43198878 -0.23946674 0.49175066 -0.34608307 -0.4717393 0.00087474665 -0.33891386 -0.41103888 0.040289056 0.3908092 -0.17288166 -0.0062064533 0.34555775 0.23823312 0.3641737 -0.23872991 -0.18601781 -0.1724564 -0.21797179 -0.07187258 0.23167655 -0.17632866 -0.10609976 0.45486334 0.10645499 -0.18919024 0.5411278 -0.66534376 -0.4880472 0.102997534 0.51972073 -0.44249845 -0.1736838 -0.43001613 -0.47049522 0.12943 0.24645028 0.288152 0.30397755 0.11246837 0.16434431 -0.19712476 -0.30319574 0.22243583 0.15725158 0.29682484 -0.588641 0.44344705 -0.21834186 -0.4943091 -0.16025706 0.2621076 -0.04936287 0.2283889 -0.1777144 0.13670598 0.26844442 -0.12476655 -0.021738138
Nf5835abc9fe04f0bb95f593987fcc726 -0.27516678 0.2621524 -0.012484134 -0.017556425 -0.069701284 0.38835898 -0.4758608 0.09129937 -0.10803132 -0.3320242 0.58300155 -0.43723324 -0.10818497 0.022638403 0.07940264 0.12124073 0.050556093 0.07174253 -0.16067566 0.33230612 -0.0458973 -0.06818711 -0.033852164 0.08324526 -0.38198498 0.04720401 -0.36627436 -0.16473264 0.29830024 -0.07315143 0.00412118 0.4003303 -0.75575566 -0.47866794 0.3282499 0.22028781 -0.20344938 0.040235683 -0.101004474 -0.108799554 -0.14084876 0.15789819 0.16149044 -0.11213725 0.19402932 0.12139014 -0.14208287 -0.5567659 0.03314184 0.48145917 0.042316504 -0.22012857 0.3519727 -0.18036962 -0.33760175 -0.5118285 0.19959071 -0.36043546 -0.11177868 -0.0350645 0.009708617 0.045907244 -0.017633213 0.016660921
Naa3047b023054d6886d91106712ce170 0.312774 0.004274201 0.45293316 -0.08246973 0.014574659 0.23907419 -0.12489788 0.22422588 0.330559 -0.08094806 0.35034904 -0.44723338 -0.01845038 -0.44793296 0.53204435 0.14013943 -0.20425554 -0.46745694 -0.18863918 -0.33828703 0.39727816 0.10523089 0.22250521 0.15386143 -0.34674752 -0.026842482 -0.058320444 -0.32341623 0.105077185 -0.060707863 -0.1625344 0.43351483 -0.4755468 -0.23011225 -0.09992805 0.5349991 0.058012232 -0.011562305 0.42211077 -0.22879072 0.0009440244 0.58710784 -0.01041177 0.018697934 -0.04774269 0.010705284 -0.09166823 -0.4888077 -0.11046526 0.04056792 -0.040306143 -0.07252706 -0.18963033 0.21539249 0.15711634 -0.43375564 0.30630293 -0.1718393 -0.14111434 -0.12090264 0.043376617 0.06056229 0.3839367 0.18079983
Nfe7b9940a4ae448aa80b7638aac7572d 0.09688167 0.33550727 0.33156586 -0.10258379 -0.28872642 0.505061 -0.47483727 0.3695537 0.27790952 -0.007584991 0.49294195 -0.4303318 -0.1344437 -0.34820217 0.04863863 0.28617123 -0.13396552 -0.4052162 -0.36549592 -0.084603556 0.09633892 -0.18637373 0.4077823 0.12297874 -0.35215235 -0.07464269 0.20157038 -0.4923477 0.19746248 0.3523586 0.13116786 0.46911764 -0.82113487 -0.4336851 0.011379972 0.43239358 0.07978541 -0.13650846 0.13197778 0.0022309143 -0.08809975 0.23976895 0.27387226 0.08019759 -0.13952371 -0.106192194 -0.16271389 -0.59832245 -0.18359885 -0.008487424 0.068032965 -0.12552568 0.1764764 0.005673961 -0.24494536 -0.32450828 0.3260163 -0.162557 0.09032904 -0.39557603 -0.020369526 0.1297945 0.27397305 0.33881253
http://www.w3.org/2001/XMLSchema#string -0.564558 -0.12939234 -0.0752636 0.12989834 0.27180004 0.100887895 0.31996357 -0.006439124 -0.30574602 -0.4367746 -0.09952056 0.034419805 -0.08048001 -0.0007227493 -0.04644181 0.63947415 -0.42767897 0.052682865 -0.0693374 0.121971644 0.293633 -0.22499965 -0.17186078 -0.25564098 -0.3797286 0.19225065 -0.106517255 -0.15428054 0.25388306 0.11741009 0.38281414 0.38790628 -0.0012945033 0.06761826 0.01011127 -0.29547232 0.25774613 -0.11833744 -0.32850915 -0.114124104 0.17151965 0.19524448 -0.036129393 0.2244752 -0.3279241 -0.5706642 0.14474086 -0.54417956 0.09594155 -0.38860443 0.147353 -0.2979697 -0.003935535 0.38347298 0.24334788 -0.10515438 -0.40236825 -0.34994647 -0.6056757 0.20603475 0.14616127 -0.30798584 -0.34497437 0.029572167
N30e03a60de6a432cb4b2d8615a096c2f 0.009858172 0.44060755 0.11756675 0.32678574 -0.05492424 0.45992813 -0.3148876 0.3175717 0.19548011 -0.056260217 0.23196948 -0.31012678 -0.08893382 -0.6142894 0.33455995 0.23296632 -0.015723573 -0.5506901 -0.17877476 -0.17670232 0.37046343 -0.16894117 0.09622966 -0.009592128 0.024732908 0.14152494 -0.24949497 0.04984775 0.096770234 -0.37159348 -0.06963292 0.13375819 -0.6671214 -0.23818922 -0.29081362 0.4481206 0.28694302 0.14949718 0.06262413 -0.27246252 -0.12214626 0.27738 -0.24398798 0.09769508 -0.23388244 0.020844694 -0.16427882 -0.18665685 0.10979437 0.0030566487 -0.11439763 -0.20775072 -0.038445037 0.58407265 0.017409543 -0.08412435 0.2808821 -0.07523581 -0.113496676 -0.24000274 -0.13898906 0.016718592 0.41329095 0.07136544
http://cmt#email -0.5970715 -0.27798706 0.04524955 0.30905414 0.30789128 0.06892318 0.13254865 0.22017941 -0.024699211 -0.39345303 -0.16785567 -0.11752192 -0.069229595 0.08030485 -0.45141494 0.51015097 -0.0969486 0.15336302 0.24850455 0.06863791 0.3477904 -0.10385326 -0.30451536 -0.057812985 -0.32080242 -0.031674985 -0.21738505 -0.036530007 0.16861592 0.1153207 0.37690172 0.11033126 -0.17771718 -0.076151736 0.3366692 -0.07308645 0.11224556 0.04171058 0.03660395 -0.13906321 -0.019664064 0.2335367 0.30364668 0.17095965 -0.19423856 -0.68507874 0.14604887 -0.41020223 -0.043731272 -0.18766998 0.27479842 -0.49732068 0.19342276 0.07259854 0.09875349 0.015936326 -0.02982459 -0.28220978 -0.4270693 0.13392702 0.24690022 -0.19456562 -0.27386662 0.44555506
http://cmt#hasSubjectArea 0.09817837 0.6398006 0.088706225 0.042778846 0.054058626 -0.077041216 -0.042211894 0.20767494 -0.18441851 0.019314727 -0.014146997 -0.28516638 -0.09241949 -0.08646819 0.20554416 0.44045502 0.1209674 0.31262794 -0.2279286 0.016633283 0.2642158 -0.29401988 -0.072071925 -0.10436046 -0.38951883 0.18388465 -0.13575833 0.15140389 -0.5594925 -0.118165486 -0.3333386 -0.03112939 -0.24947621 -0.13894163 -0.5389763 -0.043855615 0.33990398 0.3375721 0.1433727 -0.3501335 0.31821308 -0.13743529 -0.06193295 -0.3824232 0.26479718 -0.22114083 -0.07407702 0.03682799 0.07907947 0.07722469 0.04316246 -0.334358 0.05053237 -0.1839797 -0.21502031 -0.01605062 -0.04051255 -0.23814379 -0.2883687 0.18860713 0.2459936 0.072461225 0.15160918 -0.08172259
http://cmt#endReview 0.2991689 -0.18229418 0.10980007 0.31443867 0.055014104 -0.023029584 -0.32799947 0.12293735 -0.03341534 -0.12522484 -0.38104716 0.083095804 -0.45396125 -0.36818686 0.08186062 0.24960582 0.34903646 0.10810701 -0.09145906 0.09786167 0.1233743 -0.32505774 0.050798457 -0.3671963 -0.034015432 0.11453975 0.060912218 -0.17567667 -0.09347095 0.08900166 -0.13826102 0.25287208 -0.26553422 -0.13719362 -0.3451052 0.17698911 -0.18112518 -0.40770796 0.059449427 -0.5243178 -0.055514622 0.0061427397 0.22795159 0.11562387 0.33444527 0.1783876 -0.2406219 -0.16059348 0.19277632 0.30003965 0.25170562 -0.20585074 0.40356454 -0.01909351 0.5191802 0.1655719 0.06179215 -0.28347176 0.2563571 -0.03452406 -0.19717233 0.1510135 0.16798188 -0.47899148
http://cmt#Acceptance 0.01283952 0.37413806 0.16610488 0.123846695 0.17060791 0.3262657 -0.032049853 0.1440571 -0.14988387 -0.5765408 0.30149966 0.034348764 -0.031290717 -0.5051294 0.0062482017 0.20695858 -0.16450945 0.5550595 0.02858609 0.48556575 0.015143194 0.41854796 0.29817984 -0.0011177898 -0.21883465 0.10330783 -0.053457275 -0.097158164 -0.0051785484 0.097469695 0.16169927 0.09771823 -0.6811678 -0.021947086 0.3104001 0.095221445 0.022803428 -0.05244255 0.2529379 -0.06934133 -0.21741883 -0.017047128 0.02256014 -0.19029216 0.28839535 -0.010228964 -0.10427897 0.07430184 0.45721662 0.033946317 -0.032731213 -0.18516277 -0.0047828713 0.36049145 -0.066043414 0.24110056 0.36440915 -0.33836114 0.042624336 -0.056774817 0.03521674 -0.0727841 0.0974929 -0.0081883855
http://cmt#Rejection 0.13830285 0.1897784 0.47692373 0.28235263 0.102085374 0.40557426 -0.18163562 -0.042017117 0.020934723 -0.37443432 0.44498298 -0.031784795 -0.081472486 -0.45472893 -0.04367388 0.102257624 -0.23511752 0.6072884 -0.07408225 0.45559058 -0.13082093 0.35034522 0.36882663 -0.094042 -0.079039715 -0.0014956993 -0.124961145 -0.0163816 -0.09005555 -0.16011265 0.23950998 0.006726189 -0.57844836 0.14786352 0.25018734 0.09465219 0.04498604 0.0830676 0.23437424 -0.15934779 -0.13776337 -0.1843355 0.18324015 0.002311471 0.2514907 -0.12417391 -0.1276309 -0.117016405 0.4513607 0.0055262856 -0.1883759 -0.22155517 0.1045777 0.13589413 0.034853417 0.30668133 0.27764952 -0.44722676 -0.031435635 -0.03666495 0.24949901 -0.1975255 0.11688631 0.017809903
http://cmt#submitPaper 0.374042 0.19673492 0.066916 0.13570796 -0.13446482 -0.0053768344 -0.124004155 0.063295715 -0.22106948 0.026208656 -0.027671777 -0.20688961 -0.31082323 -0.012909499 -0.06643518 0.15669842 -0.052516714 0.055126254 -0.35579318 0.12657405 0.20755991 -0.056345336 0.5326075 -0.185489 -0.27215263 0.13553238 0.118977256 -0.09184018 0.16988312 0.13736251 -0.23474212 -0.044871304 -0.005516362 -0.40158084 -0.18562055 0.055577945 0.004227285 0.0066988403 -0.22406968 -0.11045248 0.24781853 -0.27101597 -0.15877604 -0.14614439 -0.006574454 -0.19586593 -0.122088924 -0.31132472 -0.22645646 -0.24088717 -0.09843143 -0.086766504 0.006816205 -0.021626905 -0.08569628 0.046086438 -0.083147876 -0.3078967 -0.020126736 0.13590978 0.025151541 -0.021453474 0.13233696 0.19137047
http://cmt#setMaxPapers -0.0127687305 -0.093209416 0.13015483 -0.14719802 0.2172022 0.04116402 0.06841124 -0.07202344 -0.29958677 -0.120632626 -0.26292637 -0.24091482 -0.5433141 -0.053695444 0.06989089 -0.046607275 0.29765353 -0.055342294 -0.026022762 -0.19382322 0.051770963 0.21435505 0.21073942 -0.23868845 0.12988965 0.046200894 0.0020949792 -0.22320107 -0.19840644 0.027864726 -0.027491387 -0.0055495356 -0.13407996 0.06816953 -0.27450305 0.2035228 0.24470904 0.0343222 0.08440501 0.016996527 0.064731635 -0.09238435 0.11665735 -0.23007435 -0.099163674 -0.084067285 -0.12398267 -0.15166521 0.32502887 0.05723985 0.12148219 -0.3007955 0.30423665 -0.01362099 -0.00969939 -0.13968088 -0.06247578 -0.21288627 0.1674043 0.22599435 -0.11600082 0.07905417 -0.04779662 0.027973752
http://cmt#hasConflictOfInterest -0.10725148 -0.1355786 -0.025766667 -0.16859521 -0.02265395 0.01664418 -0.28882137 0.20408502 -0.24532965 0.0074738 -0.22076936 -0.5326344 -0.06632077 -0.24300854 -0.35188422 0.15456614 0.038789216 0.050220333 0.17131057 0.2336328 0.17472288 0.036132175 0.1936071 0.18462692 -0.1485012 0.31192464 -0.06538174 -0.1385743 -0.1610314 0.013021746 0.14960018 0.053366803 -0.48842812 -0.053885862 -0.029534535 0.1113366 0.12936896 -0.08417607 0.19530873 -0.08740971 0.22645773 -0.14112362 0.36329257 0.21999997 0.20674694 -0.4167073 -0.033581402 -0.21053852 -0.07915869 0.022434615 -0.15796764 -0.22141436 -0.019609014 0.1363859 0.21456264 0.113231845 -0.052365355 -0.094579436 0.11598721 0.17978188 0.046018228 -0.046910696 -0.16328493 -0.1252861
http://www.w3.org/2001/XMLSchema#int -0.43096498 -0.49917516 0.225353 -0.1460778 0.28965122 0.32892114 0.07759286 0.44152603 -0.100363865 -0.0075259274 -0.039605353 0.20595507 -0.17024985 0.40433565 0.12235291 0.3699625 0.12607805 0.3853811 0.28261793 -0.2119525 -0.15725608 0.10438638 0.39173293 -0.32550845 0.179246 -0.16658877 0.3919257 0.5158375 0.2642573 0.040446147 0.0028514173 0.19367297 -0.019166755 0.06550169 0.12699239 -0.0936524 0.3637709 0.018859314 -0.060253497 0.26475132 0.054204844 0.07221387 -0.22265762 -0.17859592 0.086379886 -0.055406705 -6.638777e-05 -0.4585606 0.121177636 -0.23376241 0.30323774 -0.72762644 0.35660383 0.2854437 0.47738004 -0.0012591673 -0.340832 -0.5051915 -0.3642748 0.07899464 -0.09580555 -0.22156934 0.22923546 0.34653333
http://cmt#SubjectArea 0.15690169 0.48558804 0.2177071 0.025131991 0.14714926 0.09751126 0.13267842 -0.22320792 -0.27795234 -0.10029915 0.12269498 -0.2587657 -0.22917525 -0.0103320815 0.29165772 0.34678 0.16310537 0.41930678 -0.2494618 0.04499491 0.23120731 -0.43341526 -0.14285779 -0.030360853 -0.30749333 0.28042632 -0.057013188 0.18227167 -0.3462991 0.028349262 -0.12774633 0.41890824 -0.690564 -0.05281007 -0.15669051 0.2175174 0.28750134 0.23570164 0.24276242 -0.15269946 0.01417567 -0.34431717 0.10974435 -0.15499218 0.6182187 0.11563673 -0.12665325 0.16140284 -0.117952 0.18439792 -0.28065205 -0.42910743 0.044087898 -0.006066105 -0.15663442 -0.099706024 0.2132577 -0.17930132 -0.34407717 0.25777772 0.37809458 -0.08711852 0.14207397 0.033939295
http://cmt#Meta-Review 0.2022294 0.09142317 -0.14593792 0.3752054 -0.041033696 0.11833399 -0.1346951 0.022370294 -0.12788552 -0.13158631 0.13798466 -0.3289038 -0.19420132 -0.28237057 -0.02858862 0.49203712 0.1899885 0.1464978 -0.10831187 0.2522018 -0.024997411 -0.1091256 0.20223658 -0.36122763 0.07664911 0.17994368 -0.118940815 -0.07237297 -0.067806184 0.12136524 0.028074652 0.3977385 -0.20269923 -0.40021074 -0.060384978 0.2623202 -0.12977198 -0.17634405 -0.012981998 -0.40428102 -0.4173739 0.052933212 0.17390822 -0.003612372 0.6915236 -0.15172422 0.03583096 -0.07927795 0.16984242 0.4938982 -0.0418475 -0.05193132 0.17443642 0.19678564 0.20258945 0.1009713 0.11532669 0.122776605 -0.23265593 -0.16553177 -0.021371687 -0.12930891 0.2536065 -0.18756118
http://www.w3.org/2001/XMLSchema#anyURI -0.45167714 0.18021965 0.27240604 0.35097015 0.51611215 -0.5086686 -0.41187352 0.18096906 0.04711575 0.009493031 0.08236518 -0.1657937 -0.059250124 0.46900973 0.346045 0.45708498 0.14854166 -0.12466744 -0.08997624 0.47148323 0.14111786 0.24936613 -0.13405348 -0.05908539 0.08606574 -0.04780604 -0.017680483 0.053569425 0.207007 0.5322793 0.29718766 -0.090722986 -0.05452657 -0.08533727 -0.24930774 -0.38786772 -0.020832209 0.36549726 0.04768044 0.32167336 0.095191866 -0.18064816 -0.06527711 0.24454878 -0.1276326 -0.33206844 -0.15781246 -0.44088402 0.16146556 -0.181834 0.52868545 -0.50484025 0.102937885 0.14823551 0.31316987 0.2167658 0.35421944 -0.075515926 -0.49059704 0.032850463 -0.46443766 -0.0649144 -0.1376101 0.31514168
http://cmt#PaperFullVersion 0.19712597 0.13403194 -0.05249549 0.26785472 -0.07546474 0.27395478 -0.13998237 -0.010781909 -0.22143087 -0.047910057 0.15692493 -0.26066366 -0.23293261 -0.106619895 0.029146826 0.2562778 0.12222464 0.31635755 -0.25796303 0.32396185 0.2010251 -0.110054076 0.12038969 -0.15659392 -0.18858705 0.09167488 -0.24567065 0.015102066 -0.11593566 -0.007891964 -0.07407649 -0.07709284 -0.057562914 -0.2512736 -0.006841317 0.29387444 0.10552852 -0.034336083 -0.0007998333 -0.30724645 -0.036269 0.04985923 -0.13495663 0.056427896 0.15614454 0.14188755 -0.13119936 -0.19129986 0.12207043 0.24596255 -8.005347e-06 -0.25394756 -0.06163305 0.23717977 -0.31726614 -0.056743428 0.061302256 -0.25305232 -0.32177523 -0.062909834 0.060084336 -0.1323121 0.058416482 0.08594793
http://cmt#PaperAbstract 0.09109013 0.23910198 0.08332144 0.21562466 -0.06588749 0.308404 -0.18910336 -0.023200564 -0.1402421 -0.13741209 0.109692246 -0.2947465 -0.14680399 -0.022340659 -0.011341102 0.273945 -0.00036624074 0.3586446 -0.27790514 0.3269326 0.11673188 -0.12151711 0.1419402 -0.123799644 -0.23630343 0.15430099 -0.34219804 0.096736975 -0.0024399618 -0.011170447 0.039998535 -0.10228825 -0.16220786 -0.26852077 -0.09240198 0.35211268 0.15251116 -0.22878921 0.0745951 -0.20038211 0.07130181 -0.022859132 -0.26468506 -0.0062809684 0.23386474 0.08635 -0.15554646 -0.11839431 0.1028563 0.093090154 0.008015016 -0.18987043 -0.06590088 0.22260667 -0.36465046 -0.03863741 0.093294695 -0.22795834 -0.33626395 -0.046446178 0.16398533 -0.12338287 0.14202315 -0.03503422
A special type of Reviewer.  There can be any number of Reviewers for a given paper, but only one Meta-Reviewer.  The Meta-Reviewer can go over all the reviews submitted for the paper and submit their own review.  Questions for the Meta-Reviewer can be different from those for a normal Reviewer.  Their role is to ensure that the reviews are good and consistent. The decision to use Meta-Reviewers is optional, and must be set before paper assignment occurs. 0.35037205 -0.18220288 -0.21559167 -0.106476575 -0.1784946 -0.114603125 -0.16669004 0.1746504 0.4896766 -0.77697587 -0.09608835 -0.5242397 0.47322193 -0.08448313 0.5499575 0.36128995 -0.11662034 0.19557774 -0.24729872 -0.121958844 0.0067948513 0.008753788 0.3132383 0.16949743 -0.12668537 -0.37893155 -0.04172045 0.021377247 0.33008912 -0.018906148 0.22806005 0.007839955 0.04259489 -0.57389987 -0.19514419 0.41072538 -0.04737388 -0.071044184 0.58726144 -0.3693788 -0.4631885 -0.14663 -0.17850333 -0.13317904 -0.042151675 0.16971703 -0.34648928 -0.18064176 0.33500788 0.01907542 -0.23632418 -0.18056802 0.6791738 0.4150203 -0.30594754 0.035953872 -0.24325839 -0.3148702 -0.4264398 0.27802846 0.12951677 -0.26684538 -0.12376123 -0.17934977
In CMT terms, a Conflict of Interest is an association between a specific Reviewer and a specific Paper that states there is a conflict of interest between that Reviewer and that paper. Conflicts can be marked by Authors (during paper submission) or by Reviewers (in Phase 2) or by Chairmen (in Phase 3).

Based on that conflict, the reviewer will not be able to bid on the paper, be assigned to that paper (either automatically by the system or manually by a Chairman) or view review submissions for that paper.
 0.005519811 0.21964419 -0.058359627 0.04257143 0.03830016 0.41374594 -0.21324036 0.4401716 -0.0039438694 0.3474869 -0.044598315 -0.20103511 -0.26014432 -0.81317204 0.46113238 0.051717926 -0.05449726 -0.47797757 -0.12225012 -0.13192807 0.705459 -0.047969706 0.2584005 0.041360773 0.00024456988 0.32987434 -0.03830272 0.045037027 -0.06982702 -0.3765121 -0.4339737 -0.043935608 -0.19231042 -0.22619699 -0.32461458 0.20464501 0.38242325 0.28455618 -0.15346457 -0.47609428 -0.27119917 0.037475526 -0.2932503 0.124721356 -0.16418363 0.011439416 0.10707318 -0.13734849 0.020717008 -0.2883299 -0.08489356 -0.5065939 -0.33501956 0.69889665 0.047888435 -0.21819638 0.059238818 -0.3604906 -0.1388506 0.0036814513 -0.22092243 0.020259662 0.600556 -0.019630646
http://www.w3.org/2001/XMLSchema#date -0.13912606 -0.2247132 0.14249009 0.33913866 0.45321077 0.55088174 0.014428927 0.21741417 0.038780667 -0.63271457 -0.15171874 -0.18601876 0.0063933874 0.2004324 0.21808627 0.48461887 -0.29843363 -0.22052822 0.044505335 -0.12762006 -0.13826543 0.29390806 -0.13388024 -0.7375056 -0.56266683 -0.21785721 0.24310829 -0.10360776 0.2916164 0.13743356 0.20460603 -0.12739034 0.12124692 0.17286718 -0.03825656 -0.28910154 -0.03737996 0.14937067 0.16831976 0.09497434 -0.18414447 -0.27887586 0.17857777 0.014503354 -0.22414307 -0.5884143 0.0027492512 0.063497715 -0.7079244 0.12473965 0.28031453 -0.93579394 0.10652217 -0.0058348766 0.40775505 0.049734786 0.3260876 -0.28767097 -0.43986264 -0.55967927 -0.07223147 -0.108777635 -0.13671465 -0.021872105
http://www.w3.org/2001/XMLSchema#boolean -0.16349652 -0.36998284 -0.3621748 0.4233182 0.33423784 -0.4209222 -0.1656476 -0.28321472 0.01297453 -0.33615804 -0.10154188 -0.20970424 -0.36771125 -0.3508496 0.18457301 0.08085377 -0.120496474 0.24558246 -0.015159514 -0.2698619 0.051049333 0.3680063 0.026935326 -0.23014188 0.020878926 -0.27741823 0.5056177 0.32109797 0.10613063 0.4357025 0.052352443 0.16622576 -0.34650153 -0.13619792 0.44516864 -0.397393 0.41692242 0.283347 -0.35711443 0.14912795 0.18524131 -0.041266687 -0.20334126 0.58551645 -0.2536024 -0.4217349 0.5841191 -0.26722687 0.17518422 0.19169536 0.43452573 -0.44223374 0.18592918 0.4217606 0.17729701 -0.08654825 0.33621827 -0.1897865 -0.5822881 0.17155853 0.518135 0.25554386 -0.04767599 0.014094555
0 -0.044571295 -0.32407573 0.23364778 0.046364363 0.5436978 -0.13221404 -0.0011387247 0.08019006 0.016175402 0.19018513 -0.14365476 -0.4912684 0.09437598 -0.14841658 0.15313464 0.4602245 0.07083778 0.55143803 -0.5631375 -0.1659124 -0.06547967 0.09171008 0.46444404 -0.30259728 -0.37582907 0.4009481 -0.52461797 0.45945033 0.08489211 0.09577141 -0.17070879 -0.32972133 -0.23949301 -0.20239584 -0.22315809 0.020972118 -0.077039175 -0.34046292 -0.4086052 -0.17774136 -0.26802534 0.25642928 -0.111627676 -0.11096004 -0.045194972 -0.2930663 -0.32069308 0.035142772 -0.23810688 0.22202606 -0.041336946 -0.4527587 -0.53057027 0.37242466 -0.28398716 0.9707953 -0.30966103 -0.4102412 -0.36080933 -0.29076093 -0.20787428 0.27561995 -0.0740897 0.15883699
The Program Committee consists of all members of the conference except for Authors who are not also Reviewers. -0.22593851 -0.009011089 0.0729396 -0.21322271 -0.0896191 -0.0062103556 -0.15594634 -0.067923434 -0.24433559 -0.43952754 -0.22092815 -0.004970784 -0.60442036 -0.075591795 -0.26534805 -0.15394987 0.4187315 -0.01649101 0.055614162 -0.15551612 -0.1724388 0.14003165 0.31384578 -0.3923491 0.23767707 -0.15693396 0.01781908 -0.2743972 -0.008644351 -0.09366077 -0.06274276 0.049757194 -0.31383115 -0.15347412 -0.12235956 0.49893177 0.23687011 0.16677456 0.118590295 0.117355205 0.020773029 0.27658582 -0.051358927 -0.15382554 0.07850476 -0.07059107 -0.13582018 -0.14608282 0.34202293 0.015866274 0.06283158 -0.78448194 0.41901508 -0.063613005 0.16145268 -0.11269751 -0.2632849 -0.26150814 0.13412614 0.28447014 -0.029459938 -0.20316929 -0.29002437 0.22036816
http://www.w3.org/2001/XMLSchema#unsignedLong -0.23199254 -0.17900562 0.21351925 0.2562281 0.34080634 0.08604873 -0.5994582 0.3240123 -0.36027658 -0.027242344 0.015579369 0.23204398 -0.12969081 0.34118578 0.0011991423 0.46977654 -0.22259107 -0.040735576 -0.18884106 -0.3955104 0.17511432 -0.12460605 0.51356703 -0.4420934 -0.3574951 0.036440976 -0.10320462 0.23700519 -0.040845692 0.4263584 0.21924298 -0.37700227 0.08666321 -0.39342922 -0.1546105 -0.18998468 -0.16083756 0.10273411 -0.108378656 -0.29788724 0.26668492 -0.2553384 0.07572573 0.15099764 -0.022428572 0.16882786 0.44093052 -0.07133363 -0.06512792 -0.07971897 -0.23717007 -0.39577097 0.109409794 0.83100057 0.24718255 -0.26049885 0.11693708 -0.15453799 -0.88121694 0.20149283 0.13903344 0.34768397 -0.28020167 0.36176503
An External Reviewer is a person that has been assigned to review a paper for another Reviewer, but is not themselves a Reviewer.  0.45484465 -0.22835433 0.3666229 -0.41349173 -0.34332073 0.05696898 0.08425041 0.5747586 0.09256883 -0.05687646 0.38749197 -0.38309604 -0.29546684 0.02604083 -0.031848226 0.3714938 0.0439605 0.29478395 -0.3038446 -0.42430604 0.44038665 0.15944624 -0.25522205 0.0662601 0.14089316 0.16258979 -0.32571945 -0.27033153 0.116624355 -0.30110127 0.20771825 -0.160127 -0.5254311 -0.30675727 -0.07953197 -0.12452053 -0.17423378 -0.16230814 0.12008217 0.3773248 -0.15756005 0.21345167 -0.10959953 0.13042176 -0.020803284 -0.24149637 -0.17022923 -0.13110067 0.21743236 0.44903892 -0.21269165 -0.2625372 0.18553574 0.32792544 0.4114056 0.20412262 0.24285257 -0.018056033 -0.31966686 0.18901564 0.1366211 -0.033735953 -0.4518754 -0.016790945
