173 64
http://www.w3.org/2002/07/owl#Class 0.1306466 -0.15102558 0.17310739 0.02647812 0.30346724 -0.060757887 0.17231885 -0.097348996 -0.091968 -0.013861776 0.004650685 -0.021323793 -0.13803901 0.21166362 -0.047961377 0.07271315 0.030609764 0.11859815 -0.058714468 0.077951014 0.011825108 0.0033094666 0.18386023 -0.13390087 0.018447235 -0.03668551 0.00011294978 0.13345818 -0.07837088 0.01022928 -0.076366045 -0.13859756 -0.2889101 -0.032571178 -0.28193274 -0.1466152 -0.04367682 -0.0014554939 0.2789765 -0.15561232 -0.42646044 0.2338096 -0.024871364 -0.022548497 -0.022291575 -0.15107432 -0.061447285 -0.3576312 -0.115791075 0.46772596 -0.01608172 -0.22972295 0.3894147 0.06792024 0.08600968 0.0011306272 0.18207845 -0.064712234 -0.13079563 -0.09035385 0.13995466 -0.14535801 -0.13060914 0.0056584054
http://www.w3.org/2002/07/owl#ObjectProperty 0.17242311 0.22952838 -0.3739315 -0.28661847 0.40398785 0.38530055 -0.0011473953 0.03445279 0.23066668 -0.08312126 0.13865663 0.29065233 -0.23615423 -0.2572498 0.2752987 -0.0248256 0.03864559 -0.1591009 0.21679549 -0.05268632 -0.12997206 0.23568155 0.06656305 -0.41983455 0.044168975 -0.11354343 -0.17105107 0.16794714 -0.15549766 0.31234965 0.03593267 0.17724144 -0.11151362 0.14015517 -0.44439143 -0.18855138 -0.20405984 0.23210111 0.14839584 -0.13385785 -0.12799767 0.13446069 0.26831633 -0.4880689 0.099399164 0.08539502 0.40039098 -0.07530356 0.15545285 0.24342789 0.3117416 -0.34797254 0.040126216 0.28328043 0.043928154 0.072114155 -0.104338355 -0.12116301 0.45019346 0.30677637 -0.11487815 -0.461154 0.00486475 -0.030368496
http://ekaw#Paper 0.0836967 0.26228267 -0.06037046 0.141354 0.059428293 -0.09246569 0.44292212 0.056451123 -0.32547235 -0.21521433 0.19798452 0.30803648 -0.0135332355 -0.14572096 0.32358992 0.30825385 0.13056812 -0.15374407 0.27342957 0.46447468 0.27321622 0.46976548 0.34693953 -0.059072718 0.120687656 -0.0009607916 0.37205663 0.02165995 0.111651726 -0.022028096 -0.48358583 0.10806798 -0.07683983 -0.05568476 -0.05475391 -0.35368514 -0.104279 -0.15136996 -0.06740446 -0.19168907 -0.08948406 0.22574517 -0.34234488 0.03305069 0.042614263 0.0061369296 -0.09781655 -0.09605464 -0.223426 0.040613502 0.18524277 -0.15451807 0.3493451 -0.20337929 0.10634914 -0.012750838 -0.26763728 -0.26490307 0.02370954 0.066969074 -0.19696955 -0.14189278 0.039126143 -0.1383973
http://ekaw#Session -0.05959794 -0.74086004 0.14829087 0.10109295 0.20102622 0.3963187 -0.10020999 0.02103509 0.1270691 0.09536356 -0.3333063 -0.3294983 -0.37169418 -0.33475426 0.33873323 0.18082839 -0.1973683 -0.11972168 -0.41955698 0.040044837 0.08833635 -0.16430971 0.24969879 -0.2558811 0.094362125 -0.11922895 0.22893217 0.0605684 -0.03727519 0.27700323 -0.18059506 -0.33224186 0.014614875 -0.031397436 -0.34727314 0.4083854 0.17856076 -0.25160244 0.36016113 -0.060566474 -0.33087647 0.32813248 -0.047260955 0.116904154 -0.020556465 0.05657917 -0.24714066 -0.22815041 -0.09845803 0.08855903 0.024646938 -0.25762644 -0.02410919 -0.08897356 -0.061948404 0.24493782 0.17747764 0.0012913217 -0.15031093 -0.13015792 -0.23394687 -0.12820208 -0.18863778 -0.21521863
http://ekaw#Event 0.14600958 -0.17893252 -0.212405 -0.08584391 0.30469885 0.28407055 0.10535515 -0.08800107 0.09983137 0.300634 0.18360178 0.040171113 -0.07973468 -0.04547936 0.61820257 0.2643265 -0.16586368 -0.16953978 0.1846748 0.19451094 0.04832081 -0.12923601 0.29087016 -0.06737719 -0.7407423 -0.17871632 -0.39083016 0.14830613 0.023511667 0.5455406 -0.010109414 -0.27923894 -0.033976715 0.19591397 -0.35468936 -0.26143238 -0.08435648 0.046683002 0.06022357 0.11454036 -0.2516061 0.15532652 0.18526825 -0.32646334 0.22659405 0.26727256 0.14867708 0.10205115 0.055387717 0.08339009 -0.20672652 -0.22894081 -0.0043358724 0.08147517 0.22901058 0.049435902 -0.014864118 -0.17331527 0.08288953 0.18083648 -0.38122353 -0.06266054 -0.26331314 -0.36388895
http://www.w3.org/1999/02/22-rdf-syntax-ns#nil 0.09317687 0.08916172 -0.04232829 0.4855179 -0.12312919 -0.09348538 0.017972194 0.031970125 0.07902652 -0.13426448 0.21459973 -0.2028289 -0.5641669 0.4286318 0.41537157 0.35510188 -0.13108954 0.07872847 0.017257009 0.64372325 0.6049361 0.035225313 0.3996222 0.15301453 -0.13628538 0.2508859 0.12250628 -0.17435576 -0.060682714 0.17477383 0.113779806 0.14920823 -0.14225021 0.2342802 -0.46905276 0.13621795 0.20981026 -0.041954156 -0.28773263 -0.23842777 -0.18620162 0.122947946 0.32754263 -0.010973204 0.08124137 -0.32131124 0.061159406 0.16198754 0.028740544 -0.31218854 -0.30178985 -0.42318457 0.5602404 0.32348377 0.5149088 -0.3725406 -0.54963213 -0.09467472 -0.1214186 -0.08974413 0.033070624 0.11805843 -0.06313962 -0.26348805
http://ekaw#Person 0.115606435 0.034576617 -0.09378376 0.62659144 0.24157636 -0.30433348 -0.05190596 0.16445075 -0.21919146 -0.18711622 -0.053379115 -0.027698608 0.06110861 -0.14893936 -0.021387793 0.18672737 -0.104633115 0.22982612 0.087667376 0.21946983 0.024068592 -0.2595078 -0.10236562 -0.14782104 0.32884473 0.15988831 -0.31692448 -0.20525673 -0.32417476 0.22774328 0.10957121 -0.16936307 -0.04387111 0.3991009 -0.25658095 -0.18530558 0.10518587 -0.33170432 0.076135494 -0.28776497 -0.1318074 0.40319678 0.2582164 -0.28900853 0.24033229 -0.067812674 0.33383453 0.35113838 0.01705853 0.40729383 0.11124323 -0.3178438 0.111949585 -0.016789803 0.33622676 0.063123494 0.20980242 -0.45064706 -0.10604201 0.24838947 -0.122370034 -0.30822775 -0.06435252 0.050022647
http://www.w3.org/2002/07/owl#Restriction 0.15149206 -0.36839795 -0.17386092 0.32651407 0.14681987 0.15737398 0.12501022 0.25856268 -0.019620012 0.44875163 0.29357514 -0.17080307 -0.27114153 -0.14148949 0.3719522 0.057238754 -0.1687966 -0.56152767 -0.41285345 0.032060917 -0.13115738 0.46525386 -0.19898374 0.040816728 0.40058285 0.0739904 0.5847417 0.19818667 -0.05451928 0.41717872 -0.12553687 -0.011380161 -0.38008833 -0.2565746 -0.2518455 0.10526676 0.04156309 0.1646608 0.113677405 -0.014006409 -0.122801 0.13533883 -0.03160067 -0.0914846 -0.20396833 0.15869412 -0.097891964 -0.21908219 0.13477434 0.096218064 0.071127504 -0.089178935 0.055177692 0.050907563 -0.4213609 -4.888251e-05 -0.3203334 -0.121609405 -0.09843222 0.4419082 -0.18227041 -0.6150423 -0.3366357 0.3277892
http://ekaw#Review -0.03945539 -0.010501695 -0.08279553 0.07250079 0.11586824 -0.1260001 0.21021171 -0.0992762 0.13294646 -0.23629005 0.10762265 0.15315473 -0.42907065 -0.39645442 0.057328165 0.26685306 0.105071016 -0.09888645 -0.009616601 0.20606735 0.14364415 0.1379189 0.23087312 -0.092470236 0.28204885 0.2517477 0.09311651 -0.15571037 0.47144225 -0.13917063 -0.3734714 0.015739542 -0.39276874 0.06328551 0.051684372 -0.45611235 -0.2715192 0.10767649 0.15965164 -0.13274394 0.035403803 0.17833602 -0.19750237 -0.08254949 -0.13591212 0.015344502 0.4337928 -0.2227952 -0.01584203 -0.06822918 -0.053540062 -0.11528793 0.38695264 0.13179573 0.12709223 0.17054869 -0.038717132 -0.21283215 -0.26930678 0.1767868 -0.09610512 -0.27326238 0.339295 0.28034073
http://ekaw#Conference 0.36599544 -0.51115024 -0.15753333 -0.063988164 0.24777249 0.35768682 0.032581005 -0.13672855 0.14897443 0.09570241 -0.45979518 -0.13845262 -0.41236025 -0.1234789 0.23341392 0.54605436 -0.30528444 -0.15671699 -0.13159892 0.12462676 0.037994944 0.1564552 0.19237375 -0.033010397 0.094908126 -0.09210278 -0.013743128 -0.059906006 -0.27362257 0.13086817 0.018511184 -0.045521192 -0.060363844 -0.13691895 -0.3717246 0.367552 0.047235284 0.047820024 0.26528084 0.017326545 -0.27486685 0.1796199 0.012421296 0.18854526 -0.23709512 -0.39452145 -0.2732554 0.018388664 -0.26595506 0.017758146 -0.35637125 -0.33369872 0.10855335 -0.10278259 -0.055090178 0.012823522 0.36843282 -0.14772615 0.113625705 -0.26867735 -0.3573413 -0.27305788 -0.33018145 -0.12233416
http://ekaw#Document -0.031817775 0.068143256 -0.16224466 -0.047126148 0.28500882 -0.12643397 0.13901679 0.03479017 -0.37486243 -0.29977453 0.23820665 -0.029053122 -0.50545824 -0.23031798 -0.018726768 0.045582592 -0.07641235 -0.0123423785 -0.060223874 0.13407598 0.23914033 -0.24419065 0.20057993 0.045637447 0.18644296 0.23620127 -0.25171155 -0.09655657 -0.05100189 0.053229295 -0.6596404 -0.06447381 -0.12575148 0.20623678 0.015051742 -0.24110228 0.017344065 0.0444587 -0.2685234 0.11767943 0.0050792475 0.10161638 0.1478994 -0.24492371 0.025715254 0.10097378 0.051896647 -0.48873326 0.008035227 -0.046636295 0.51943654 -0.29615954 0.115898035 0.009893701 0.3974895 -0.082730696 -0.00932575 -0.28364593 -0.05671337 -0.08169148 -0.0704246 -0.4369205 0.1351917 0.24153155
http://ekaw#Conference_Participant 0.0066695455 -0.402686 0.0598017 0.467558 0.1324405 0.16368325 0.34660414 -0.07684703 -0.6010841 -0.07820629 0.38044226 -0.099465184 -0.13480292 -0.018868254 -0.16613472 0.080525175 -0.037900057 0.2118023 -0.07711383 -0.049468186 0.08283054 0.047345247 0.06807738 -0.22826466 0.28883526 0.106484935 -0.33599228 0.42561585 0.038894597 0.0935788 -0.05971322 -0.16864121 -0.06406074 -0.032775134 -0.29230177 -0.15844308 0.5536995 -0.20670876 0.045172207 0.13537033 -0.1408587 -0.05484413 0.06529371 -0.2454973 0.16256502 -0.32468572 0.0895853 -0.0061394484 -0.26762855 0.3470946 -0.017115194 0.11519588 0.45247102 0.05109064 -0.12093038 0.15874152 0.7157777 -0.43651572 -0.20979051 0.2535222 0.20402981 0.023153728 -0.3721819 0.40640008
http://ekaw#Web_Site 0.11968421 0.18710569 -0.11253938 0.1511964 0.21884914 -0.30383152 0.13762583 -0.36270598 -0.102182895 -0.2545616 0.21456169 -0.020977924 -0.45807955 -0.13979493 0.02159578 0.05975913 -0.012542406 -0.17075759 0.03597116 0.3825724 0.17693184 -0.11929192 0.13742346 0.052447896 0.16854237 0.14344046 0.45788667 -0.08829233 0.26442376 -0.08101023 -0.38617426 0.007143623 -0.19784234 0.10186743 0.01038514 -0.22283581 -0.15318358 -0.017422598 -0.3475439 0.00560307 -0.15923181 0.22284266 0.22197801 -0.22169437 -0.05962073 -0.12256183 0.13132948 -0.29922733 -0.40320912 -0.1324621 -0.17618275 -0.07489455 0.4684056 0.36276537 0.14190769 0.021772351 -0.061478525 -0.26860672 -0.03203603 0.069479205 -0.07306733 -0.12077499 0.35449207 0.06266365
http://ekaw#Workshop 0.44520593 -0.5379144 -0.07221951 0.23673783 0.16928163 0.55319756 -0.08313549 -0.045371402 0.09399468 0.21910624 -0.13945758 -0.24964118 -0.45178014 0.08088811 0.11004924 0.48746678 -0.38929632 -0.0041072727 -0.1261884 0.14333725 0.35266384 -0.089929886 0.3124797 -0.06453766 -0.0022398988 -0.06265717 0.20744447 -0.3333282 -0.04737661 0.17836256 0.15668684 -0.036327694 -0.07395843 0.02676319 -0.28907079 0.49762487 -0.076399766 -0.080400996 0.21114995 0.07515349 -0.32933763 0.23585145 -0.022254255 0.03369841 -0.06707683 -0.16504367 -0.258927 0.05565635 -0.16199338 -0.097299434 -0.14444882 -0.07047495 0.24084301 0.15151793 0.02278293 0.177426 0.2877269 -0.16868436 0.105514444 -0.022227425 -0.23290016 -0.07924294 0.03645667 -0.15347753
http://ekaw#Programme_Brochure -0.016432084 0.16209798 0.06705612 0.2120317 0.32883242 -0.2724707 0.042208653 -0.19723763 -0.052378703 -0.2071254 -0.03022594 0.21786277 -0.4846223 -0.11292467 -4.8111797e-05 -0.0021446631 -0.003783288 -0.23094203 -0.07321752 0.5048893 0.013807513 -0.04625571 0.10178269 -0.050444804 0.20273869 0.16574469 0.13996045 0.05316814 0.279219 0.09165416 -0.62317884 0.21551138 -0.17031793 0.008227336 0.11415652 -0.22888614 -0.23239052 -0.20532325 -0.36647603 -0.04046608 0.054250535 0.082260415 0.32012218 -0.2516597 0.012470656 -0.08939644 -0.060014088 -0.5562076 -0.16728362 -0.0037730276 -0.2087818 -0.28294456 0.5047698 0.2365368 0.07004006 0.12927337 0.04311481 -0.17461306 -0.11881451 0.053772606 -0.05008922 -0.07554374 0.43019968 -0.013986646
http://ekaw#Proceedings -0.014426812 -0.089768015 -0.077289455 0.022053575 0.21266928 -0.43852124 0.14178962 -0.0123230005 0.04168215 -0.04615341 0.3240244 0.032865852 -0.19507901 -0.2548393 0.018664131 -0.13307138 0.14808398 -0.28856647 -0.066693515 0.26324302 0.07972344 0.054672405 0.09247977 0.122515626 0.18979773 -0.13549028 0.13841659 -0.052098 0.39749947 0.33113962 -0.45433155 0.19863029 -0.14286266 0.12015391 -0.3030976 -0.24893166 -0.4061427 -0.049743645 -0.36630487 -0.11435408 0.08347148 0.32205528 0.03420285 -0.16394638 -0.5806142 -0.2052 -0.10700081 -0.33479953 -0.41631907 0.0095327 0.05199084 -0.23161778 0.37054616 0.06273302 0.06146288 0.03807062 -0.00039743708 -0.27993992 -0.22407657 0.13975279 -0.033542283 -0.20866773 0.075144745 0.22349446
http://ekaw#Social_Event 0.10338835 -0.30489105 0.009019005 -0.042841878 0.20904985 0.3933292 0.28700235 -0.17738539 -0.19557162 0.08085287 -0.33351898 -0.39999643 -0.4326661 -0.09342483 0.32067236 0.5969854 -0.48554257 -0.13001218 -0.11010692 0.19800869 -0.09500626 -0.10691219 0.22117749 0.29447287 -0.1971334 -0.41023555 -9.1158894e-05 -0.26282007 -0.2762771 0.15830639 0.14552963 0.0016564308 -0.32406673 -0.02291402 -0.12477854 0.18397231 -0.20773092 -0.042680778 0.30901796 -0.041992486 -0.25143978 0.41565135 -0.062298954 0.07644163 0.14277737 -0.07592185 0.13189393 -0.17406078 -0.23086709 0.16889888 -0.25181895 -0.090191066 0.023805216 0.10026754 -0.1815088 -0.015589289 0.5076358 -0.100385405 -0.11754875 0.021088159 -0.19549936 0.14492767 -0.16119982 -0.05500948
http://ekaw#Track 0.29996666 -0.43586358 -0.018366197 -0.05900533 0.17193335 0.4175195 0.18618031 -0.16490689 0.027934065 0.28770632 -0.45978168 -0.24254055 -0.59480345 -0.041869532 0.16778162 0.5804046 -0.2701204 -0.070511855 -0.24657193 0.094608545 0.25256363 -0.0481907 0.14969495 -0.009659216 0.0012319396 0.034131117 0.07356169 -0.18561569 -0.060471132 0.096044935 -0.029869167 -0.016871864 -0.08296198 -0.1518339 -0.24484284 0.54454 -0.029987594 -0.20364478 0.28722477 0.065083876 -0.2603681 0.3861003 0.074467905 -0.11617099 -0.06803239 -0.07685514 -0.2026252 0.12759349 -0.11574355 0.09082752 -0.16766073 -0.23667066 0.2160082 0.07902777 -0.14023595 0.12137627 0.3570175 -0.02082325 -0.016498808 -0.058320206 -0.042384185 0.034301933 -0.16687119 -0.27056643
http://ekaw#Contributed_Talk 0.44685876 -0.5604004 -0.12377447 -0.0130581325 0.09023154 0.32484272 0.033658773 0.28725556 -0.03504309 0.3909084 -0.29332832 -0.059926603 -0.3890429 -0.06344948 0.3629316 0.37432614 -0.4148103 -0.25392395 -0.06890742 0.13622834 -0.00813632 -0.13169335 0.32601285 0.06143124 0.17423323 -0.11279641 0.083089344 -0.26738662 -0.19490802 0.1321742 -0.090235226 0.167512 -0.1716356 -0.13530871 -0.3745387 0.3952818 0.058540378 -0.113321275 0.3645756 0.1552619 -0.20311944 0.31894132 -0.21385993 -0.13052587 -0.20575935 -0.11682739 -0.090324186 -0.2216719 -0.30259585 -0.05727548 -0.08453616 -0.12387447 0.10021642 0.034360185 -0.50011075 0.21098351 0.19737117 -0.19472797 -0.08528249 0.056238838 -0.020004572 0.0019526639 -0.10804778 -0.08943859
http://ekaw#Organisation 0.023848647 0.048519947 -0.26675412 0.47292385 0.29976463 0.15444373 0.04310638 0.1458187 0.23559584 -0.21327062 -0.09954649 0.0074527683 -0.2649269 0.2740061 0.14541593 0.17722268 0.13492441 0.19057086 -0.34538653 0.30015662 -0.2424314 -0.33573583 -0.2148732 -0.4333123 -0.13319641 0.16845873 -0.0054883636 0.18872577 -0.42092562 -0.27841714 0.31937745 -0.110850856 -0.1613442 0.46278596 -0.52699405 -0.29019755 -0.123590596 -0.021267788 -0.13523592 -0.1280905 -0.48969167 0.096797094 -0.118101925 -0.1630537 -0.09776381 0.0032927468 0.5315045 -0.21038355 -0.35377857 -0.0357197 0.23665933 -0.35459688 0.1258183 -0.22913566 0.24130069 0.21769129 0.19149469 -0.007970201 0.111934476 0.19280565 0.3822149 -0.041146874 -0.28918698 -0.029749667
http://ekaw#Multi-author_Volume 0.07039781 0.026418325 0.039011966 0.05802796 0.20921111 -0.34908465 0.33639506 -0.10347723 0.11260479 -0.071666226 0.17886251 0.3336668 -0.4794457 -0.30330724 -0.015355466 0.13946806 0.16910905 -0.18230928 -0.12047451 0.34945655 0.15888421 -0.061617408 0.020219613 0.058317166 0.19154976 0.051620867 0.16047397 -0.17580277 0.28221807 0.008292737 -0.4124764 0.02896934 -0.29464105 -0.02352592 -0.029007789 -0.3526245 -0.33355063 -0.04625242 -0.36749908 0.017403334 -0.06914489 0.16884969 0.24425828 -0.02662899 0.051935196 -0.19617599 0.02972256 -0.4306408 -0.18220463 -0.06437151 0.029401315 -0.2106873 0.46202117 -0.1674076 0.09844422 0.25592813 0.06541489 -0.29458848 0.014929147 0.050194986 -0.01273461 -0.084999725 0.24309586 0.0101707205
http://ekaw#Flyer -0.0634735 -0.07363295 0.035579 0.068136655 0.2743099 -0.40544745 0.34870392 -0.035654284 0.056114625 -0.3171523 0.094607495 0.068975165 -0.49665368 -0.23592475 -0.14824069 0.17720366 0.19884175 -0.11703661 0.079625905 0.26444373 0.3563739 -0.01909389 0.20749351 -0.101352334 0.044286016 0.06387011 0.28305548 -0.166006 0.21989565 -0.12244263 -0.35343274 0.10474305 -0.2138538 0.055938408 -0.010202549 -0.2827061 -0.026437271 0.0030013733 -0.49338213 0.09140859 -0.042220853 0.2769901 0.032418333 -0.18801378 -0.30456695 -0.17460883 0.025266722 -0.28811434 -0.1968246 0.006783834 -0.03230116 -0.10701359 0.43986997 0.048148558 0.23694357 -0.042134356 0.044145178 -0.19860454 -0.02318952 0.19054154 -0.16709375 -0.35064694 0.31595957 -0.051739864
http://ekaw#Individual_Presentation -0.011855619 -0.40654078 0.020039355 -0.048804335 0.044505566 0.31943697 0.009414548 0.194904 0.16684537 0.17547233 -0.047761098 -0.09572072 -0.4991469 -0.07424178 0.2089739 0.57463485 -0.46515647 -0.04831201 -0.16138318 0.027834725 0.31423455 0.11324782 0.21184893 -0.13523598 0.19878133 -0.14903258 -0.031809747 -0.0062137195 -0.020089265 0.17916708 -0.005303596 -0.039027736 0.05599193 -0.053265866 -0.54335135 0.64535165 -0.25124162 0.13967389 0.23965323 0.14242585 -0.025341105 0.46392035 -0.3933231 -0.2541281 -0.011723187 0.12749091 -0.11389557 -0.03705478 -0.06315297 0.19812186 -0.11484217 -0.18869501 0.052225005 0.07213794 -0.21710463 0.26531425 0.37963748 -0.03393438 0.3597922 -0.10549502 0.015046097 -0.12707913 -0.11706759 -0.12121286
http://ekaw#Tutorial 0.27617535 -0.35335606 0.016721882 -0.058781438 0.21596429 0.4738406 -0.043934032 0.04292136 0.006913372 0.07319953 -0.34006038 -0.09010597 -0.41497377 -0.01654785 0.21206073 0.5483345 -0.4084568 -0.2146478 -0.22205393 0.13166705 0.07739758 -0.07199616 0.41680384 -0.0077115498 0.10149817 -0.072012775 0.11881455 -0.187459 -0.15014811 0.12703055 0.06652371 -0.09150493 -0.09426815 -0.06783197 -0.23932898 0.51318157 -0.0650877 -0.11554322 0.2923048 -0.09367309 -0.33096686 0.28754637 -0.07655839 -0.052391574 -0.034066916 -0.1932066 -0.09770782 -0.12985958 -0.32897624 0.061771307 -0.23374653 -0.10728696 0.04058002 0.18403429 -0.12565412 0.15735672 0.38974816 -0.18846734 -0.011143714 -0.08931782 -0.061209563 -0.0060974876 -0.1401306 -0.11195802
http://ekaw#Invited_Talk 0.30549785 -0.4787908 0.020353904 -0.04444078 0.18347187 0.43763617 -0.012910875 0.1283978 0.042893957 0.108290546 -0.30795896 -0.18264669 -0.29965314 -0.092994206 0.13627137 0.5002466 -0.3891423 -0.2444634 -0.24682255 0.2174839 0.097928084 -0.12252258 0.3626426 0.025386663 0.046803206 -0.025120601 0.2035216 -0.23956625 -0.1272623 0.19480303 0.10692383 -0.055632725 -0.031422075 -0.044062387 -0.2949354 0.43544316 -0.2052225 -0.21018405 0.2897698 0.0036225596 -0.36219543 0.25357684 -0.07271699 -0.056919593 0.033483837 -0.18463191 -0.14492808 -0.046557784 -0.3148562 0.08018538 -0.23304352 -0.12415649 0.023657003 0.20520489 -0.2121237 0.18473867 0.37624988 -0.17376576 -0.054674216 -0.082035094 -0.011741595 -0.08570823 -0.07188774 -0.15569879
http://ekaw#Accepted_Paper 0.17460477 -0.15361863 0.19604738 0.19049294 -0.024524046 0.033912685 -0.0028010157 0.13890347 -0.5934861 0.33623385 0.121212356 -0.4732947 -0.36930612 -0.096501134 -0.11187316 0.18099418 -0.22015043 -0.19601911 0.0421271 0.014717159 -0.6252001 0.36231726 0.22587563 -0.06902614 0.23462884 0.41767114 0.29820582 0.07209344 -0.050414894 0.1240876 -0.04541304 -0.010965741 -0.33929273 -0.3373805 -0.5556747 -0.42416584 -0.041670125 -0.15126644 -0.03135755 0.016402865 -0.31790566 -0.0495756 -0.038066216 0.41845927 -0.21925767 0.6558197 0.1960223 -0.019830355 -0.02819872 0.030572345 -0.08254257 -0.08354294 0.34339127 -0.054745607 0.2302491 -0.037924383 -0.10694701 -0.16833259 0.2475988 0.13325165 0.13811085 -0.34151182 -0.15818551 0.30881703
http://ekaw#partOfEvent 0.058171794 -0.33797252 -0.54174083 0.037738815 0.31177577 0.6178933 0.13534786 0.045233402 -0.06671399 -0.16824637 -0.17290716 0.02195483 -0.118981 -0.47122282 0.48188356 -0.13512729 -0.24993679 -0.64353365 -0.06782434 -0.105608664 -0.019295542 0.14126323 -0.09686724 -0.24982677 -0.052427176 -0.27666476 0.013369074 0.51901877 -0.046552718 0.3849462 -0.08777336 -0.10429862 -0.31022936 0.39566034 -0.2520761 0.15751539 0.3301556 0.117571704 0.03389186 -0.16557595 -0.14418806 0.13845345 0.3211363 0.10626067 0.089107044 0.32971966 0.047816508 -0.11849181 0.23414245 -0.0012575263 -0.19244514 -0.44255581 -0.22764096 0.2300196 0.007066033 0.058559407 -0.19587421 -0.003348834 0.0837641 0.31613544 -0.45855683 -0.25747997 -0.3804199 -0.25853541
http://ekaw#Camera_Ready_Paper 0.43789947 -0.09598329 0.052785795 0.22659309 -0.2115987 -0.19408867 0.12033 0.40337715 -0.30690578 0.10591902 0.13380614 -0.38983107 -0.23853213 -0.028321676 0.22627364 0.42399308 -0.2564371 -0.2780584 0.1392921 -0.1371372 -0.1062114 0.16015247 0.34940335 -0.13361736 0.5684103 0.0019220418 0.07407382 0.3698997 -0.107482314 0.06952682 -0.36010087 0.057048965 -0.31244183 -0.5522317 -0.17892247 -0.37539256 0.32879996 -0.33780447 -0.114231795 0.13301301 -0.17546648 0.08995255 0.16964395 0.15620497 -0.2717887 0.36077982 0.06736022 -0.28686786 -0.3130028 0.2781716 0.08746219 -0.04374793 0.067728445 0.10537775 -0.10833138 0.062239304 -0.061067108 0.03875928 0.3171732 0.2121574 0.009908997 -0.19968188 -0.066565596 0.30522874
http://ekaw#Academic_Institution 0.33873025 -0.082417056 -0.2561926 0.03648816 -0.070456095 0.16543728 0.3252222 0.15873915 0.062268388 -0.53493375 -0.18067165 0.14129822 -0.21782638 0.54784197 0.3805551 0.1464526 0.015441352 -0.12253684 0.13020335 -0.21085572 -0.08882559 -0.23073968 -0.10870914 -0.49407268 -0.110494785 0.19543503 0.23885077 0.19306454 -0.00032774324 0.12467902 0.47100565 0.04576551 0.065067865 0.5252755 -0.3712573 -0.2483996 -0.19874647 -0.31525695 0.057277698 -0.14671218 -0.516252 0.17141065 0.00013956467 -0.39103192 -0.16537306 0.18386547 0.28176743 -0.59035337 -0.12672353 0.05323275 0.017644407 -0.26582912 0.07217653 -0.3672418 0.26358768 0.002495552 0.5061483 0.13242017 -0.011858769 -0.085913025 -0.058418043 -0.023286534 -0.22186989 0.4035801
http://ekaw#PC_Member 0.19301662 -0.28666797 0.30422267 0.32842356 0.11928258 0.091187924 0.33192134 -0.054078426 -0.3786256 -0.16526365 0.21897985 0.040568963 -0.29109567 -0.4836378 0.24323414 0.0636191 0.24119101 0.015586142 0.3185365 0.0071611484 0.08916622 -0.040221818 0.021406878 -0.19323425 -0.15956008 0.08713912 -0.23823184 0.27222002 0.13853526 -0.22218823 0.3789584 -5.447366e-05 -0.09823204 -0.27554417 -0.04891053 0.018941212 0.32976037 -0.14972049 0.22681057 0.058263186 -0.08153437 0.02357961 0.02327188 -0.22474396 0.25046834 -0.037004665 0.022358492 0.08043614 -0.6871266 0.47263294 -0.08069544 -0.3241974 0.41334265 -0.009747082 -0.098641045 0.17336583 0.39296183 -0.4140581 -0.48253667 0.13350588 0.46199226 -0.47470248 -0.18300995 0.108553536
http://ekaw#Scientific_Event 0.16093029 -0.49059534 -0.07814747 0.10455289 0.20525743 0.44027773 0.097002916 -0.028823603 -0.041900724 0.019559033 -0.43180805 -0.009876989 -0.29206276 -0.03843926 0.2720968 0.32771683 -0.36658508 -0.18302388 -0.012229372 0.18865618 0.102751575 -0.0015766079 0.44382703 -0.040272716 0.08662813 -0.032847114 0.013379011 0.01267357 -0.16919264 0.20282367 0.17469569 -0.19551441 -0.010890263 -0.2152873 -0.36467278 0.46771616 -0.17780066 -0.122247994 0.24475175 -0.14053544 -0.2403835 0.25954875 -0.052483816 -0.030115096 0.1609665 -0.18967164 -0.09018097 -0.086109586 -0.14473553 0.057854608 -0.2383076 -0.031360444 -0.040570725 0.3342065 -0.05182743 0.01205691 0.24818967 -0.22816524 -0.19603388 0.15544026 -0.18756361 0.08955095 -0.11432649 -0.18929492
http://ekaw#Abstract -0.18984348 -0.13560934 -0.29113072 -0.108089045 -0.049388852 -0.27965328 -0.20819603 0.110536344 -0.66002244 -0.1778515 0.5650278 -0.050400615 -0.35675305 -0.1452615 0.084168665 0.42703554 0.08681338 -0.068892285 0.0509288 0.1301097 0.514382 -0.004869555 0.3014684 0.04385169 0.4026945 0.3326844 -0.070448674 -0.21140036 0.025471376 -0.06165413 -0.08693272 0.13789743 -0.00016733591 0.029391142 -0.26752055 0.13786337 -0.06981921 0.12402185 -0.03186194 -0.0075531267 -0.4226466 0.08901005 0.11147385 0.08152951 0.4519895 -0.37382278 0.1575608 -0.7939002 0.25516167 0.17210145 -0.11775388 -0.23304513 0.29401842 -0.33536536 0.3149572 -0.19029772 0.15323916 0.08683207 0.1044499 -0.045438517 0.3032113 -0.25032905 0.100805625 -0.46406388
http://ekaw#organises 0.09513609 0.1504304 -0.19995916 0.11169183 0.24981928 0.36271462 0.06332403 0.2247477 0.017258931 -0.06998873 -0.022042135 0.035990063 -0.4228243 -0.10379403 0.4266565 -0.033690665 0.12376859 -0.2615366 0.3203055 0.21617 0.19495107 0.019691499 0.16191381 -0.5574107 -0.3441061 -0.3540659 -0.072608024 0.1895332 -0.4248112 0.2781105 0.3980484 -0.33289647 0.020815697 0.19784379 -0.54658985 -0.43370375 -0.1845681 0.1850057 -0.1168694 -0.09082024 -0.057070512 0.14809966 0.04905424 -0.45927837 -0.08939502 -0.07870165 0.43391103 -0.16988097 0.24214229 -0.14663178 0.09705528 -0.5893583 -0.23272622 0.13168414 0.17222168 -0.04769873 0.38761115 0.28965884 0.14633642 0.4206533 -0.03469455 0.009543252 -0.19224112 0.3039168
http://ekaw#organisedBy 0.17218097 0.08399032 -0.32915163 0.06619818 0.34336236 0.20784925 -0.09707344 0.35454065 -0.0459092 -0.4304204 -0.118692674 0.27329978 -0.8015213 -0.103334226 0.34535077 -0.11352978 -0.09271744 0.051138606 0.13037282 0.12616283 0.0780359 0.11547851 0.0039920197 -0.38383994 -0.5725368 -0.09277329 -0.1303803 0.1982466 -0.3562083 0.3688933 0.19105951 -0.09905606 -0.016824447 0.13408679 -0.3798823 -0.351122 -0.57657516 0.053015456 0.015414693 -0.14551462 -0.0759205 0.016409509 0.111680984 -0.407359 -0.08001115 0.28592032 0.36299434 -0.06182159 0.35910028 0.015223627 -0.19874272 -0.1115295 -0.04648515 0.003838154 0.12148833 -0.116766475 0.4108809 0.14158083 0.26187646 0.39828902 -0.017129166 -0.07904065 -0.45839638 -0.10642217
http://ekaw#Evaluated_Paper 0.08032738 -0.033638973 0.34274602 0.27837363 0.17124921 -0.34633037 0.17428444 0.12213203 -0.59876865 0.19745326 -0.020118656 -0.1863522 -0.4402508 0.0278049 0.019270197 0.30723962 -0.22221395 -0.25608352 -0.12655258 -0.5217622 -0.12688188 0.41632065 0.01917478 -0.20910026 0.15790994 -0.028814435 0.48618582 0.10488156 -0.18129714 0.21513093 -0.32329753 0.34842193 -0.3657116 -0.21314675 -0.3088182 -0.36866677 0.045390952 -0.36220497 0.076849036 0.0050061713 -0.4300326 -0.031030418 -0.19055115 0.23273085 -0.13005991 0.5068265 0.23185422 0.012491956 0.03409293 0.08276848 -0.07643932 -0.10390255 0.26861575 0.084939264 -0.023345666 -0.086667754 0.0022913537 -0.17458414 0.024298765 0.16714703 0.36496896 -0.3398152 -0.24506037 0.18121655
http://ekaw#presentationOfPaper 0.26383492 -0.38889658 -0.1375555 -0.088120185 -0.011290294 0.30850884 0.1703776 0.6953764 -0.22763847 0.15426044 -0.044662055 0.3144497 -0.3108918 0.0489516 0.45608333 -0.01107031 -0.3284594 -0.030361628 0.13713418 0.09914935 0.0035373252 0.03392432 0.027252428 -0.008407885 0.49619824 -0.19294366 -0.19327524 -0.19123034 -0.0007076778 0.22436716 -0.30136225 0.34633473 -0.093414895 -0.16627647 -0.6302529 0.46784464 0.020540621 0.26476 0.14215495 0.0574839 -0.4119713 0.3556214 -0.39549088 -0.33567342 0.009607608 -0.057896994 0.26395777 -0.3638262 -0.016096884 0.03389756 -0.20174517 -0.07294091 -0.2010146 -0.21532963 -0.27899322 0.4192873 -0.06010464 -0.024336824 0.3555817 0.34160495 0.2866772 -0.26205394 0.042369764 -0.21963541
http://ekaw#writtenBy -0.21719418 -0.16301899 -0.20127663 0.44659662 -0.06917791 -0.047056027 0.015215119 0.29598424 -0.32947353 -0.22355212 0.2845312 0.11294643 -0.23656593 -0.58386075 0.23865773 0.3844024 -0.11692015 0.15555145 0.05730658 0.07901016 0.028045245 0.045384604 -0.2849395 -0.077004425 0.07615457 0.0042926664 -0.35134462 0.011584873 0.060154725 0.16235024 -0.34171754 -0.014769912 -0.19688056 0.3113058 -0.20041019 -0.34296402 0.22305118 -0.06672751 0.042932436 -0.16483752 -0.24891374 -0.017581357 0.40118396 -0.5436567 0.10095374 -0.19349708 0.487062 0.0022111519 0.07234034 0.15583196 0.3986547 0.08612311 -0.016962394 0.118607365 0.091650985 0.14968053 0.030019518 -0.18567581 0.3146802 0.08444651 -0.23777759 -0.53664833 -0.068068594 0.3184712
http://ekaw#Possible_Reviewer -0.017550252 0.26252186 0.20243967 0.49751508 -0.038680147 -0.010938723 0.24581243 -0.086552136 -0.46363223 -0.4419683 0.121539205 0.38910255 -0.46815613 -0.39486277 0.35655048 0.2384623 -0.029768778 -0.00010563326 0.141536 0.058356144 -0.02309856 0.05481639 -0.05819505 -0.09806011 -0.2513131 0.08198467 -0.19825363 0.23299284 -0.078024216 -0.13146466 0.061867155 -0.02765387 -0.1597218 0.07651885 -0.3704936 0.22521599 -0.13700181 0.025118379 0.27340093 0.03657751 0.14522225 -0.10917461 0.10792358 -0.069515795 0.15345956 -0.32352045 0.23502451 0.2110037 -0.30043674 0.52676374 0.22672504 -0.31325653 0.017677762 -0.09345032 -0.12845913 0.2439258 0.08232566 -0.3605153 -0.13148834 0.35822466 -0.089782216 -0.4528872 0.034749575 0.28382796
http://ekaw#Industrial_Paper 0.30984145 0.15622196 -0.2144264 -0.13360523 0.22142991 0.15881902 0.5845899 0.19294187 -0.27459002 -0.29489598 0.17476699 -0.13652499 -0.055683106 0.11003732 0.047476362 0.43545762 0.15181358 0.063322954 0.0772799 0.42037496 0.21749568 0.10409765 0.1327906 -0.45823154 0.11323587 0.10686713 0.5476039 0.27902132 0.036883928 -0.11660467 -0.5866888 0.032693043 0.07888316 -0.23156849 -0.27582836 -0.10677168 -0.28190747 -0.28705013 -0.037134565 -0.1551034 0.22846724 0.017248616 -0.043597072 0.17194267 -0.018720554 0.070314765 -0.034352962 -0.1181328 -0.20170462 0.38795906 0.18544969 -0.208196 0.5386289 -0.2119582 -0.05076853 0.04780402 0.106505975 -0.17068812 -0.29629633 -0.15631554 -0.14744785 0.26211217 -0.011377566 -0.16539569
http://ekaw#hasReview 0.2750538 -0.020673288 -0.17828603 -0.09420518 0.46643394 -0.16289844 0.36609662 0.12801336 -0.07638106 -0.2663962 0.29944125 0.13732055 -0.2478624 -0.24827512 -0.019655108 0.10449628 -0.12901841 -0.20638756 0.057401203 -0.012065384 0.0015292045 0.62684375 0.08018506 -0.08282255 0.23597477 0.1334462 0.292637 -0.36835968 0.3411649 0.23772706 -0.45077354 0.1593005 -0.06737626 0.08711486 -0.33299506 -0.48170432 -0.054981872 -0.14432016 0.18717876 -0.06598363 -0.1933679 -0.34577885 -0.2863051 0.18264812 0.11542615 0.3037309 0.49055314 -0.053245477 0.07837879 0.116647884 -0.08208763 -0.2014884 0.123145394 0.036736585 -0.08484245 0.027223703 -0.1300611 0.26678875 0.03054915 0.50089455 -0.40372413 -0.17540582 0.2273376 0.31516245
http://www.w3.org/2002/07/owl#Ontology -0.6272035 -1.0493315 -0.49364203 0.76972556 0.7788873 1.7964509 1.4751381 -0.9250513 0.08128674 0.17804292 -1.3039582 -0.112329856 -2.296901 -0.4709022 0.0739052 -0.37864345 -0.20417514 -0.17060542 0.15378374 0.46903738 1.0601596 -0.23568481 0.41987312 0.010047975 0.56977814 -0.04728554 0.6294695 0.9710825 -0.5874707 0.86709434 -0.98746574 0.11088105 1.1503754 -0.5901946 -1.1354214 -1.6880745 -1.2754852 0.6060406 -0.9618732 0.22111474 -1.8037511 -0.41573355 -0.21299413 0.17446014 -0.082925685 0.87949145 1.1882774 -0.049384333 -1.6045291 0.69666916 -1.1733496 -0.39352787 1.0619644 -0.046358515 -1.1016924 0.791788 -0.15187043 -0.11560063 0.20648962 0.010884454 0.68000644 -0.9569473 0.76805913 0.3270827
http://ekaw -0.8182059 -1.1240743 -0.5454949 0.7770243 0.6714311 1.9245358 1.3847072 -0.8612982 0.2036788 0.39885816 -1.2762072 0.008053525 -2.2795973 -0.42160785 0.04025629 -0.34712243 -0.08032537 -0.12969768 0.22522882 0.36531505 1.0250106 -0.27448612 0.5938642 -0.09709196 0.68502134 -0.09755958 0.6789785 0.9909894 -0.499443 0.8401192 -0.97108513 0.22123688 1.1249659 -0.6776738 -1.1691912 -1.6844696 -1.1423091 0.45541292 -0.88846356 0.13786744 -1.7836745 -0.43759915 -0.13182667 0.07864501 -0.20227464 0.80842614 1.1364874 -0.05062211 -1.5792435 0.54908913 -1.1685429 -0.5458272 1.1628629 0.04430471 -1.0006925 0.96408844 -0.17624734 0.10443772 0.15290575 0.10326468 0.6138531 -0.9242793 0.70243376 0.55334723
http://ekaw#volumeContainsPaper 0.01976993 -0.3100755 -0.107215434 -0.24539296 -0.047079403 0.16169256 0.1153343 0.31976208 -0.110172346 0.12061688 0.2646004 0.07442203 -0.1050594 -0.16014585 0.12491273 -0.24952163 -0.099182054 -0.35361248 -0.08782777 0.29105884 0.065286145 0.52052456 -0.20432001 -0.0026159354 0.18006067 -0.061291214 0.03136279 -0.16229014 0.2968061 0.55200714 -0.036452204 0.26713976 -0.18405858 0.4281225 -0.60089993 -0.08129003 -0.55327725 0.19731127 -0.41557136 -0.21882984 0.015903912 0.27272227 0.72420377 -0.47289115 -0.49918562 0.20503911 0.22025636 -0.072084956 -0.15169442 0.0037720448 0.3823 -0.27093312 -0.117468685 0.20759803 -0.49274325 -0.026068384 -0.10232309 -0.04875392 -0.24794842 0.44286957 0.0032058193 -0.29500896 -0.37615862 0.18634328
http://ekaw#PC_Chair -0.0096427975 -0.5682651 0.16210699 0.36910823 0.07682131 0.22227612 0.18635689 0.044389334 -0.65368134 -0.19911689 0.22280136 -0.053800844 -0.27382565 -0.15957649 0.14221936 0.14886245 0.24966778 0.020546813 -0.046738293 0.1519698 0.06335307 0.09727008 0.059022203 -0.3024536 -0.30808708 0.18805982 -0.20150135 0.24235567 0.067495234 -0.17217933 0.3204691 -0.093314506 -0.095438704 -0.21382634 0.055357933 0.023566674 0.37889537 -0.2958247 0.1490692 0.04508841 0.06431776 0.08220284 -0.013534093 -0.13175465 0.21705393 -0.045015402 -0.0966568 0.016775204 -0.38433757 0.55222195 -0.24494286 -0.2617471 0.52805126 -0.0137948105 -0.09945714 0.106359415 0.6203032 -0.25353646 -0.1817222 0.13832311 0.25736338 -0.37472507 -0.05621907 0.340071
http://ekaw#Positive_Review 0.24957669 -0.36477977 0.15598838 0.20199558 0.24776584 0.082931064 0.26593408 -0.04900525 -0.020424405 -0.13482904 -0.08355837 0.043579735 -0.23849982 -0.23374882 -0.13550456 0.20288809 0.17551473 -0.067525715 -0.3833979 0.24169971 -0.10703284 0.1852465 0.3256123 0.16174099 0.16319816 0.25064832 0.05924094 -0.09321613 0.62392676 -0.25131163 -0.30805728 -0.063663684 -0.3182981 0.112226196 -0.35960245 -0.5012142 -0.19172938 0.12457883 0.43495068 0.16488504 -0.004937242 -0.103782155 -0.3397535 0.023177726 -0.10723377 0.30573392 0.31982592 -0.24077013 -0.058867905 0.053718954 -0.426365 -0.18064764 0.061519273 0.07553924 0.34970713 0.072500974 0.090386264 0.06522788 -0.23278041 0.15595634 -0.00016773185 -0.4870049 0.049695894 0.25937426
http://ekaw#hasPart -0.23648897 -0.099144205 -0.5481601 -0.06977549 0.22865324 0.38382703 0.53807 0.19319199 0.31509733 -0.1178233 0.19013469 0.32358742 -0.3929785 -0.581175 0.4136799 -0.25964013 -0.22431348 -0.4545285 0.1907417 -0.08026109 0.04589738 0.008102719 -0.12112962 -0.15694149 0.11047235 -0.25854912 -0.053469907 0.3838725 -0.069560714 0.53601456 0.06933666 -0.098326385 -0.24437706 0.47752586 -0.41872263 0.09100934 0.07669227 0.07620954 0.12630147 -0.074663766 -0.31106204 0.03852361 0.31611884 -0.19882834 0.24878739 0.53745925 0.29311088 0.1446703 0.15116604 0.09209249 -0.06874719 -0.5573951 -0.26252607 0.17646438 0.15981035 0.019735772 0.002012124 -0.42027327 0.15131286 0.37015337 -0.21162513 0.018689979 -0.14919367 -0.40283772
http://ekaw#Poster_Paper 0.29400584 0.056024633 -0.025835939 -0.098910816 0.29778644 0.23571354 0.4825502 0.21071568 -0.35278133 -0.21351935 0.11576059 -0.12216099 -0.09188245 -0.056287445 -0.0025409963 0.35409927 0.30346534 -0.08993655 0.16137622 0.56033754 0.31003308 0.12845649 0.22111903 -0.30392662 0.12215045 0.039134283 0.2901647 0.11604746 -0.122387394 0.007786317 -0.42544016 0.108986154 0.051735595 -0.0343654 -0.07716072 -0.16211204 -0.270554 -0.45498624 -0.15534867 -0.15959722 0.06594952 0.121107765 -0.16860333 0.3597626 -0.0108352825 0.15242398 0.11086423 0.007972402 -0.16791773 0.46635732 0.23356386 -0.05982161 0.49756405 -0.100529544 -0.053782575 0.25230664 0.062377382 -0.07563453 -0.3752239 -0.33798504 -0.12537643 0.108067214 0.036399078 -0.22067036
http://ekaw#Regular_Paper 0.33194414 0.10866756 -0.09124101 -0.09970749 0.20418595 0.21108216 0.49446818 0.14729106 -0.2395136 -0.23957883 0.29905003 -0.29104248 0.056049924 -0.08904686 0.026988566 0.33207735 0.15652095 0.03792544 0.12094494 0.49426582 0.22735721 0.12123553 0.13678153 -0.40838167 0.022897318 0.011170086 0.3837499 0.23663287 -0.042444196 -0.08331768 -0.4870287 0.10725583 0.016978104 -0.068691134 -0.28558978 -0.17092906 -0.4266756 -0.47049168 -0.16299021 -0.031952623 -0.058909897 0.09800536 -0.19099188 0.27831852 0.051286962 -0.035563253 0.058654953 -0.091451526 -0.22860968 0.41090637 0.17155266 -0.088215664 0.46390715 -0.016569363 -0.04217641 0.28874582 0.037927825 0.029637834 -0.32685354 -0.23097968 -0.07673711 0.04628424 0.026462086 -0.16861004
http://ekaw#hasReviewer 0.26903218 0.31698844 0.38536394 0.010431317 -0.06577184 0.001621548 0.19744828 -0.082868055 -0.13919836 -0.33001924 0.41339967 0.37811834 -0.41046017 -0.21707462 0.2868871 0.2797192 -0.16493252 -0.52072895 0.095086634 0.15222351 0.16716708 0.19159353 -0.18797551 -0.5660773 -0.06775943 0.13480549 0.1263096 0.050559863 -0.13696627 0.20254607 -0.27777293 0.13103192 -0.14808919 0.08123275 -0.20952202 0.08966468 -0.015664635 0.069263764 0.0867966 -0.18537556 -0.2006363 -0.2255886 0.03264106 0.053778015 0.06516582 -0.030154916 0.12078813 0.3516244 -0.2878714 0.52920043 0.46574187 -0.2953492 -0.08213656 -0.11349903 0.086654685 0.25494972 -0.031496108 0.09682384 -0.08625241 0.6795257 0.06258804 -0.24013998 0.19767357 0.10139124
http://ekaw#Conference_Session 0.18943131 -0.71788585 0.19788082 -0.08300882 0.24258877 -0.020468296 0.3401581 -0.25079817 -0.10941957 0.16320746 0.1549337 -0.077748545 -0.35871854 -0.10435097 0.2057882 -0.080460414 -0.11402425 -0.20207219 -0.3752655 0.13104837 -0.05402275 -0.066331655 0.24603415 -0.24147198 0.2643577 -0.06618187 0.065207176 0.4882528 -0.35122088 -0.117695235 -0.16877714 -0.2924799 0.372742 0.424905 0.023813475 0.2982218 -0.009627854 -0.15512002 0.5336114 -0.3398973 -0.24984276 0.32941565 0.07787803 0.2788066 -0.28825188 -0.041595344 0.068573944 -0.18047696 -0.23934537 -0.27670413 -0.2969968 -0.16814288 0.26098797 0.08702191 -0.12162866 -0.008675668 0.32597387 0.13124226 -0.026791273 0.044746958 -0.27050558 -0.57608145 -0.2770641 -0.32414952
http://ekaw#hasEvent -0.13064307 -0.26136857 -0.21312569 0.028750585 0.3090959 0.32716495 0.080342166 0.21797763 0.26576203 0.032684714 0.19502084 0.20748001 -0.26336926 -0.32222962 0.47617093 -0.06833088 -0.27187112 -0.35363814 -0.11943449 0.0068473173 0.19648495 0.10822079 -0.14955674 -0.17024082 0.120358825 -0.17905335 -0.16896866 0.40678477 0.18818875 0.651407 0.10809679 -0.37962428 -0.09860056 0.20454197 -0.3585797 0.24251884 -0.15298636 -0.21574925 0.26659837 -0.120867215 -0.14213996 -0.011258407 0.020851264 -0.07604613 0.19850421 0.14469965 0.15825629 0.014178541 0.26353619 0.16058543 -0.18792704 -0.56424445 -0.14793314 0.25703147 0.09142758 0.093284555 0.059094775 -0.27956498 0.5015045 0.46147162 -0.36898842 0.113536544 -0.111148626 -0.20945418
http://ekaw#Demo_Paper 0.29310235 -0.015369468 -0.008095981 -0.1313538 0.21635514 0.123677805 0.40804687 0.20324095 -0.37009308 -0.2919526 0.11949368 -0.16311456 0.02528755 0.095245056 -0.012114076 0.4612873 0.26741704 -0.053415153 0.19094624 0.62490594 0.23920724 0.14672281 0.23675548 -0.3475754 0.10935512 0.07390657 0.309986 0.2907647 0.022024252 -0.08154346 -0.52494127 0.0760004 0.019280491 0.048544563 -0.11906866 -0.08083628 -0.32611373 -0.38568103 -0.17059141 -0.23487711 0.07422414 0.060741298 -0.13336278 0.43754855 -0.05914972 -0.07883568 0.12911758 -0.091220304 -0.3093561 0.3679106 0.18316087 -0.16261096 0.40930328 -0.016382014 -0.08476538 0.29290783 0.064230144 -0.07237439 -0.27220005 -0.20379113 -0.15882719 0.05655198 0.058219016 -0.085318826
http://ekaw#Invited_Talk_Abstract -0.4374201 -0.22866802 -0.30127305 -0.028346188 -0.300145 0.13200366 -0.20185784 0.073735066 -0.50063175 -0.02221176 0.3655022 -0.33877385 -0.25520465 -0.03441212 0.06795236 0.37000656 -0.16632472 -0.050533727 0.16592129 0.29754275 0.28405613 -0.22939667 0.4731467 0.0009812989 0.15345876 0.64538836 -0.07231871 -0.27148876 -0.0729939 0.08811058 0.24815492 0.10460201 0.033790346 0.26374018 -0.4030513 -0.007026251 0.01888327 0.07687762 0.106895566 0.16395241 -0.3779142 0.07002578 0.20198692 0.32505378 -0.06523 0.040171027 0.16086741 -0.3971239 0.041450534 0.017133558 0.111462414 -0.30020094 0.72246253 0.011501179 0.16384293 -0.35810468 -0.30169904 -0.09812883 -0.3301309 0.095043615 0.24832925 -0.06856487 -0.010889486 -0.31777447
http://ekaw#technicallyOrganises 0.06682669 0.2966291 -0.60347956 0.14933144 0.31400207 0.24053411 -0.005456382 0.10139061 0.051363293 -0.21297735 -0.15831405 0.45546943 -0.47493008 0.07343361 0.27642933 0.08463186 0.041369356 -0.0014104055 0.035875373 0.01659018 -0.077202626 0.3231831 0.13425165 -0.33094916 -0.18736146 -0.15423483 -0.42463478 0.13160796 -0.42670965 0.38788423 0.11251449 -0.3836893 -0.079433426 0.29186213 -0.6151282 -0.19273831 -0.2383598 0.025569165 -0.08339336 -0.31196493 -0.038196962 -0.24905808 0.21963249 -0.44885182 -0.14183722 0.22952078 0.6708304 -0.18414311 -0.11316701 0.0104918955 0.26896483 -0.31828192 -0.01788474 -0.12979242 0.004341 -0.06843456 0.43358433 0.19301927 0.092481166 0.34941274 0.18629892 -0.049297594 -0.047747176 -0.0062106135
http://ekaw#scientificallyOrganises 0.18456146 0.19709311 -0.39809376 -0.1507868 0.24696022 0.3148593 0.066253506 0.27436972 0.026501806 -0.35504735 -0.29622072 0.35457414 -0.3846901 0.08206837 0.16986032 -0.018088916 0.20724346 -0.31071764 0.27553928 0.28289133 0.13847478 0.1278462 -0.03571585 -0.53751874 -0.24755475 0.15343904 -0.0455328 0.18497404 -0.017809235 0.32997882 0.48698705 0.13013954 0.10879661 0.4193195 -0.530391 -0.25168324 -0.20532322 -0.09651152 0.104753435 0.11572073 -0.49160698 -0.05499583 0.26067883 -0.465549 -0.14796974 0.21884724 0.4702663 -0.39907098 0.11465941 0.12411053 -0.027360728 -0.13581942 -0.20377961 -0.10005476 0.24648923 0.16778864 0.4098844 0.1782003 0.2969927 0.1402983 -0.07671721 -0.1205573 -0.26802644 0.11475727
N8e30f70609e742468e6d1cf720bb436e -0.20994054 -0.27046728 -0.17667376 -0.13514324 0.26350057 0.05013539 0.0008867751 0.049804613 -0.03917065 0.4793328 0.45011503 0.08879243 -0.40346423 -0.20278911 0.35767442 -0.16858634 -0.017534433 -0.4671572 -0.29030806 0.21015088 0.058259547 0.44527194 -0.0987978 0.049105015 0.4274326 -0.013916614 0.087435156 -0.2691193 0.31032708 0.2895552 -0.23562175 0.23217025 -0.6333929 0.17676759 -0.1691656 -0.016160842 0.049070504 0.1416345 -0.51859075 -0.104428135 -0.11099011 0.19422527 0.05057199 -0.33790317 -0.65145385 0.13945933 0.21240777 -0.27973375 -0.52543586 0.14569649 -0.008536158 -0.07411393 -0.04916725 -0.10013405 -0.5438303 0.26844144 0.07040894 -0.12808102 0.007914791 0.32821918 -0.22834322 -0.24098682 -0.17326982 0.030656185
http://ekaw#topicCoveredBy 0.12966642 -0.11227282 -0.02756166 0.11946366 0.030634323 0.4680683 0.4210646 0.083711185 -0.043307576 -0.24430357 0.14466034 0.023330303 -0.1118356 -0.33168286 0.06483709 -0.08304878 -0.22261746 -0.14402357 -0.11317333 -0.17336588 -0.046081208 0.806137 0.6448104 -0.20515661 -0.36077163 0.17904046 -0.13503107 0.24127562 -0.10812638 0.5556583 0.11350533 0.24380095 0.23348884 0.32732823 -0.018750517 -0.4823207 -0.12930667 0.3214738 0.066719435 -0.28077313 -0.25657907 0.20711717 0.18312043 -0.30408055 -0.15407026 -0.1809894 0.3375088 0.014526773 0.07631217 0.15405723 0.40575376 -0.609329 0.014948895 0.15424111 -0.0113460235 0.5025168 0.077072665 -0.29593688 0.5539267 -0.16873534 0.35116133 0.13105388 0.078468055 -0.30413514
http://ekaw#scientificallyOrganisedBy 0.23845504 0.10268323 -0.26006395 -0.036291305 0.15412761 0.34032896 -0.24448343 0.13128191 0.20600127 -0.5016871 -0.013597469 0.20490594 -0.49601778 -0.047541946 0.37594455 0.032772254 0.22984374 -0.24089685 0.56170577 0.038656812 0.0513113 -0.0061424132 0.036252774 -0.18709922 -0.09225093 0.16999444 -0.02151332 0.4458906 -0.26182064 0.48181558 0.35526216 -0.122595824 0.11592526 0.2813534 -0.40810415 -0.31413338 -0.3296889 -0.026455574 0.096495785 -0.08710152 -0.5061075 0.09693793 0.17671785 -0.49328598 -0.11457862 0.14079112 0.53920746 -0.5066445 0.056360584 0.013899374 0.087315366 -0.15124516 -0.21192163 -0.08007192 0.15335163 0.2914971 0.38297454 0.27925363 0.18099396 0.16716692 -0.06745428 0.041995116 -0.24708398 0.2930744
N0c9f56114d8042f5aea194521493fff8 -0.4113973 -0.3827026 -0.15989092 0.086709514 0.20735824 0.15462005 0.35911557 0.06675251 -0.25103167 0.16313098 0.53540564 -0.3205085 -0.031096062 0.097622395 0.13704014 -0.046094056 -0.17138277 -0.1277552 -0.21882716 0.22077687 0.37634814 0.24524961 -0.242892 -0.07260394 0.1626075 0.14475076 0.08641844 -0.20986842 0.4691397 0.5887148 0.14190029 0.41315478 -0.31291768 -0.17923893 -0.2573197 -0.18935288 -0.21669227 0.27213126 0.0058313995 -0.3592511 -0.046506144 0.3016628 0.3123009 0.016461022 -0.5769882 0.27446622 -0.15907544 -0.38892606 -0.39254412 0.018591791 0.2775755 -0.1670537 -0.017777717 0.16159648 -0.5237431 0.17482035 0.09813305 0.23276906 -0.18897735 0.5319663 -0.005071251 -0.4983335 -0.419431 -0.03579046
http://ekaw#coversTopic 0.15025453 -0.0020791467 -0.2034778 -0.10659959 0.005454217 0.52077985 0.23876762 0.092462614 -0.14470364 -0.15259667 -0.08872601 0.09258703 -0.21750422 -0.13920535 0.007993392 -0.30518782 -0.50831103 -0.078261785 -0.10888815 -0.09312163 0.13761722 0.72203624 0.53408515 -0.25874743 -0.19694874 -0.030220948 -0.008377535 0.17052667 0.07872573 0.25454587 -0.102696985 0.23387514 0.21079427 0.36631978 0.15719752 -0.60687935 -0.10852378 0.07453243 0.12921785 -0.22226697 -0.16108488 0.4595912 0.17715432 -0.37425685 0.10629384 -0.17446408 0.33705723 0.21864974 -0.06673746 0.25349733 0.37187445 -0.94460016 -0.004042409 0.08968114 0.23401971 0.34888625 0.0039455662 -0.06331515 0.37986273 0.08600126 0.3075999 0.106064886 -0.058493942 -0.17481728
http://ekaw#partOf 0.018480288 -0.1322457 -0.50691724 -0.020801412 0.07601106 0.6287587 0.3746483 0.09491661 0.056832995 -0.113582164 0.10465321 0.22995704 -0.27503186 -0.5910462 0.4509394 -0.15975809 -0.04084062 -0.657733 -0.03818865 -0.07326769 -0.008399893 0.044611134 -0.3398421 -0.1464844 0.1146052 -0.24367005 -0.11373879 0.41363177 -0.18321596 0.50044125 -0.06121625 -0.11125255 -0.3136993 0.40189573 -0.40752092 -0.054081015 0.0124428645 -0.03872739 0.049057573 -0.31146684 -0.28331575 -0.13168652 0.3646377 -0.23821677 0.16390288 0.37179697 0.1805991 0.08471396 0.25198647 0.10038396 -0.24707858 -0.59625745 -0.24999079 0.18235295 0.076948166 0.14065683 -0.01679323 0.02405979 0.42322317 0.08344195 -0.36784422 -0.17401873 -0.1025675 -0.41112193
N38dda243e58c4e5783112204b1ccb646 -0.17640385 -0.0031809916 0.007842297 -0.26779878 -0.20426019 -0.23699836 0.18108055 0.094975375 -0.13668585 0.2700693 0.19260617 -0.31015098 -0.5793507 -0.11095145 0.2409618 -0.20375928 0.25680783 -0.28130704 -0.12285834 0.19272944 -0.37789673 0.50038654 0.0942481 0.022687312 0.498789 0.18457122 0.021750467 -0.09849208 0.57250893 0.45074764 -0.20428206 -0.046781924 -0.4917457 0.4367055 -0.27457222 0.16279095 -0.2675929 0.09400214 -0.32226944 -0.113015465 -0.15065056 0.3700649 0.39326528 -0.10812588 -0.27126786 0.22907193 0.080638774 -0.15121809 -0.4448203 0.14523195 0.10501953 -0.13025753 0.24177265 -0.046776716 -0.32362714 0.00774317 -0.0047199526 0.21499361 -0.0889462 0.4056624 -0.11914502 -0.3430951 -0.513989 -0.0072088563
http://ekaw#listsEvent 0.062224355 0.05397837 -0.07500268 0.058581594 0.3852666 0.21780454 -0.23287551 0.014456662 -0.0395901 -0.08286088 -0.06626302 0.25438133 -0.24013412 0.054504294 0.5440455 0.030982519 -0.1381887 -0.20481576 0.2358114 0.4154819 -0.44607186 -0.03711391 -0.15907717 -0.39515603 -0.25428405 0.0030997482 -0.21489286 0.29494828 0.14536223 0.5111942 -0.22757469 0.12756577 -0.010816667 -0.18827075 -0.33147433 -0.10665302 -0.0813429 0.5209394 0.04407237 0.28487578 -0.15337761 0.10138583 0.28341514 -0.25029474 0.19233564 -0.019075098 0.26393723 -0.05050372 0.28126085 -0.06920754 -0.18932563 -0.8318405 0.18968575 0.35395527 0.086355984 -0.2379703 0.34366545 -0.117923476 0.07710413 0.29787385 -0.37483826 0.25589457 0.093773484 -0.24860106
Nbc4048f2b5df4f9f984101a79a81f883 0.05674716 -0.5555736 -0.24783482 -0.23283935 0.10188283 0.229006 -0.26294023 0.14387515 -0.06840316 0.30535 0.18975367 -0.033378948 -0.45888373 -0.09986315 0.44780505 0.23109649 -0.29648015 -0.52509546 -0.35106188 0.12305 -0.049092457 0.30952474 -0.093948446 0.04310394 0.49717936 -0.018341286 0.07295704 -0.18283616 -0.16145244 0.33694118 -0.24559432 0.38369465 -0.25592643 -0.10872406 -0.5858534 0.45584562 0.25965393 -0.050014537 -0.1425136 -0.0624971 0.08610779 0.3960789 -0.27001676 -0.38110068 -0.43823892 -0.02689889 0.37898326 -0.08996423 -0.34802538 0.2604096 -0.20561324 0.17988653 -0.09369952 -0.14998771 -0.4192543 0.05746745 0.15764874 -0.05268462 0.01459541 0.114765085 0.051572762 -0.4211905 0.07422852 0.07680743
http://ekaw#Workshop_Chair 0.25665697 -0.445735 0.09131833 0.278324 -0.051179085 0.14737971 0.26587453 -0.09993997 -0.4571384 -0.12893836 0.16385671 -0.05826863 -0.14244819 -0.19881733 0.1964244 -0.09642477 0.041024696 0.25169212 -0.12556629 0.13810316 0.16347112 0.20188431 -0.05786329 -0.25649792 -0.24841696 0.31155595 -0.2334827 0.20171459 0.081011064 -0.16161634 0.16433428 -0.25592014 0.0011744212 -0.14644742 -0.05489121 -0.053372942 0.15472817 -0.313214 0.15706477 0.07707261 -0.020810978 -0.018372236 0.1753661 -0.20439158 0.26272535 0.08511852 -0.09664652 -0.094514504 -0.33760825 0.50619054 -0.22551873 -0.27689594 0.550425 0.016902605 -0.18446444 0.22096977 0.49503705 -0.32680264 -0.17996255 0.1606989 0.40545142 -0.43036047 -0.07026109 0.28572518
http://ekaw#eventOnList 0.12279832 -0.2788938 -0.0575282 -0.07502254 0.45162946 0.10596915 -0.15682104 -0.22589536 -0.06908377 0.03136983 -0.095796205 -0.030634515 -0.23149313 0.09881511 0.3971552 0.22500148 -0.19798972 -0.2619169 0.34405592 0.22073239 0.021988653 0.09253264 -0.1391519 -0.5294608 -0.27146614 -0.19320314 -0.26593664 0.46002844 0.06751061 0.65107113 -0.049806025 0.19197138 -0.41678375 0.01110132 -0.07409826 -0.118293546 -0.29354003 0.15989955 -0.064471446 0.026385898 -0.0814491 0.0547235 0.20234305 -0.63989055 0.48653284 0.15499924 0.44023508 0.14864565 0.4440303 -0.18176019 -0.11344108 -0.5718686 0.17449114 0.1261026 0.108875446 -0.1697368 0.17607218 0.01664719 -0.03339773 0.24299808 -0.21508455 0.05603451 0.23205425 -0.14853694
Nb091948eb53f4eae9449c21cb0da4736 0.19130898 -0.039393444 0.12805209 0.013106821 0.38452885 -0.05184043 -0.16608022 -0.06867883 -0.14188218 0.317271 0.23850715 0.14762053 -0.47103846 -0.22704113 0.3230938 0.36245835 -0.15568057 -0.35361862 0.1637245 -0.15381211 -0.15729901 0.7818577 -0.33317277 -0.04024034 0.35563272 0.19503395 0.41835386 0.08880394 0.07595244 0.35975924 -0.5299938 0.22753158 -0.018573955 0.19564001 -0.4853893 -0.49812675 0.11578325 -0.27272645 0.30291498 0.06747049 -0.219963 0.015997116 -0.12914889 0.6166432 -0.43480808 0.18814686 -0.027116237 -0.0835758 0.034795396 0.04562927 -0.08983148 -0.12701686 0.0055034156 0.07348121 -0.19313215 0.2721193 -0.19398655 -0.0403263 -0.1608981 0.63640606 -0.0009931942 -0.35743907 -0.09652903 0.34090233
http://ekaw#Tutorial_Chair 0.31204328 -0.40981427 0.09648925 0.33480552 -0.1264805 0.13643171 0.3085041 -0.024807263 -0.5559911 -0.039310332 0.24411003 -0.1043101 -0.14287259 -0.18709543 0.14328834 -0.07488233 0.03272451 0.20365542 -0.105893336 0.21815269 0.11955082 0.03392115 0.019628204 -0.16733317 -0.19836214 0.14440961 -0.16278958 0.29649863 0.05611337 -0.14923789 0.17332935 -0.20650455 -0.011042595 -0.22232683 -0.19675161 0.032074347 0.1838723 -0.34226385 0.07902024 0.22213423 0.0022536078 -0.006567359 0.2010726 -0.17729644 0.1773189 -0.05202233 -0.1386751 -0.0629724 -0.2496148 0.44639015 -0.28350836 -0.39148343 0.49304008 0.0065249396 -0.09410346 0.23199375 0.3967561 -0.3565582 -0.27596214 0.15358002 0.45088655 -0.3032384 -0.099601746 0.38090035
http://ekaw#Assigned_Paper 0.36389408 0.049097728 0.65473026 0.48934403 -0.05284773 -0.031571083 0.098916225 -0.3798487 -0.30618307 0.21838062 0.077104956 -0.085634045 -0.1339085 0.2483895 0.35118663 0.3740435 0.0647405 -0.43774983 -0.06878594 -0.38612574 0.073197454 0.26991516 0.20050535 -0.16638756 0.31061977 -0.01364432 0.23964721 0.25050288 -0.16487208 0.23882873 -0.32857496 0.23914309 -0.11361721 -0.13397607 -0.118835144 -0.3017709 -0.17438778 -0.303214 0.12430694 0.1073154 -0.48053154 0.14611878 -0.020251824 0.3806205 -0.101156384 0.1952679 0.09244054 -0.10162933 -0.26396307 0.32711157 0.049388044 -0.11169302 -0.09003319 -0.28895596 0.037967555 0.09181954 0.00726001 -0.18209182 0.17667305 0.61358786 0.1748935 -0.29900748 0.05553012 0.15619749
http://ekaw#Negative_Review 0.2868132 -0.2952643 0.06626921 0.1694409 0.060240407 -0.03583316 0.19098234 -0.13724424 0.020453911 -0.18114804 0.02990151 0.10739982 -0.17684841 -0.3639716 -0.19956106 0.40718848 0.10286727 -0.1021529 -0.48873875 0.13393667 -0.051981602 0.06116453 0.18984012 0.24222568 0.23266248 0.2708203 0.14985168 -0.0669877 0.51464736 -0.20892452 -0.2669198 -0.16535133 -0.18310645 -0.007714658 -0.39439356 -0.6384769 -0.2330803 0.23496972 0.41509414 -0.0007514227 -0.034212783 0.0041632303 -0.35461158 -0.32985663 -0.26779783 0.15238447 0.30052435 -0.2472922 -0.10203841 0.19882438 -0.19715095 -0.22480734 0.29164812 0.071508154 0.2614325 -0.038757574 0.15898576 0.042746935 -0.3095494 0.018208416 0.12303856 -0.1700305 0.1932982 0.13120788
http://ekaw#Submitted_Paper 0.3179962 -0.083529495 0.14331761 0.18785843 -0.23796636 -0.39121628 0.27828714 0.05826507 -0.553965 -0.066799685 -0.013917856 -0.03534804 -0.38232228 0.045905948 0.36504686 0.5105993 -0.019199563 -0.16376428 -0.20566937 -0.13269152 0.096000746 0.19716357 0.019850561 -0.32589948 0.1095249 -0.13675712 0.42531693 0.13236648 -0.33012706 0.18281732 -0.37694845 0.03623671 -0.054424413 -0.28289315 -0.05291212 -0.36535218 -0.075089864 -0.053938124 0.13359685 0.12485048 -0.30675596 0.1728941 0.041631058 0.17127849 -0.3128334 0.34113804 -0.0037282007 -0.05349098 -0.26214054 0.3698324 0.066256054 0.06873521 0.22692001 -0.05809889 -0.009352244 0.09767299 -0.121653445 -0.23138323 0.070220895 0.13041724 0.23524503 0.16312777 0.0701824 0.037293825
http://ekaw#locationOf 0.088210024 -0.23067033 -0.22812796 -0.007076982 0.20539628 0.08608517 0.02212786 -0.06004307 -0.21389215 -0.03626764 0.10968991 0.15763135 -0.15319753 0.008129148 0.24774799 0.17818123 -0.03539734 -0.31202337 0.22391412 -0.0021284977 -0.25780353 -0.028312359 0.21857771 -0.45051888 -0.16720223 0.03654647 -0.45019847 -0.15426438 -0.24828547 0.2800976 0.04721367 -0.18889144 -0.1521469 0.0232621 -0.40981448 -0.24393795 -0.14525229 0.08567662 -0.09985131 -0.0045662997 -0.06861992 0.21423168 0.024626093 -0.5171123 0.10820416 0.04336498 0.3767657 0.24939871 0.46947682 0.0136594055 -0.08288508 -0.46425584 -0.09538491 0.33478457 0.12042554 0.54914165 0.089228764 -0.2671459 0.040064257 0.53904146 -0.55829704 0.04470175 -0.42445678 -0.3972084
N889b8d50b77a45f6b4ecaaeaacbc97c1 0.14105877 0.046238832 0.12856893 0.29811335 0.098121524 -0.3595826 0.050832924 -0.05222086 -0.31331202 -0.13515219 0.06778873 0.047542043 -0.33836496 -0.117725 0.4239968 0.48690817 -0.10575781 -0.5323385 -0.082242966 -0.22552393 0.15370399 0.7441049 -0.30415735 -0.23068239 0.18011786 -0.024002932 0.47759616 0.21235861 -0.030132739 0.5406891 -0.22361663 0.2634355 -0.15296888 -0.028851064 -0.37923673 -0.05460142 -0.005436703 -0.22931705 0.2447738 0.5427745 -0.19435018 -0.017342638 -0.12100683 0.34961948 -0.3087108 0.100805774 -0.05679154 0.06847315 -0.43580207 0.43258256 0.18038943 -0.17526622 -0.34767067 -0.15971386 -0.2064459 0.03411084 -0.17424941 -0.05258482 -0.12264406 0.8951375 0.020080313 -0.5242166 0.062022734 -0.15949382
http://ekaw#reviewerOfPaper 0.19757676 0.29907304 0.13137592 -0.04508625 -0.092868745 -0.08396364 0.29305872 -0.082442015 -0.093220614 -0.5364156 0.20267811 0.21005587 -0.278398 -0.4469332 0.33834562 0.216733 0.0036162124 -0.16860229 0.20676476 0.40150633 0.20463783 0.27485806 -0.12577337 -0.33305278 -0.14785035 -0.17664942 0.01809654 0.020161536 -0.016348569 0.13851964 -0.15379171 0.032579448 -0.11053235 -0.038475808 -0.24835995 0.074993685 -0.10381211 0.0813523 -0.01422936 0.051354203 -0.23965672 -0.10966532 0.12774944 -0.07532394 0.23501705 0.22440234 0.1615761 0.36392966 -0.093315594 0.44614038 0.4055457 -0.5218613 -0.097207665 -0.3078838 -0.031533446 0.3710354 -0.13330212 -0.11637655 0.0119831525 0.41127154 -0.083728924 -0.39783472 0.034567297 0.13593574
N49cd55a4698640289094329549385757 0.33964795 -0.13535501 0.146445 -0.26684433 0.17628798 -0.12684806 -0.18804657 0.4160231 -0.8145798 0.18246946 -0.03687089 -0.12413851 -0.39876643 -0.3094807 0.17365997 0.068015866 -0.25318676 -0.34278482 -0.1445297 -0.0645528 -0.03131383 0.23321575 -0.06048226 -0.19753927 0.5240261 0.31304902 0.22404175 0.14537409 0.10432055 0.2570032 -0.20019633 -0.17446032 -0.3917199 -0.18560952 -0.2400612 -0.22629368 0.0057206773 -0.07608632 -0.17419511 -0.041651096 -0.26662815 -0.2506353 -0.021432182 0.21810623 -0.27205828 0.39412543 0.1541688 -0.19464369 -0.18699206 -0.15973805 0.21960677 -0.1216529 -0.0036129542 0.32113808 0.21606173 0.07618168 -0.125894 -0.41858366 0.5712382 0.13955522 0.085389435 -0.36093676 -0.2293983 0.22752021
http://ekaw#Location 0.19015673 -0.32978204 -0.04400378 -0.08091641 0.21581405 -0.14893949 0.08821274 -0.18016045 -0.27383444 -0.07127524 -0.006069349 0.008251217 -0.0036995243 0.05091175 0.13086407 0.2052466 -0.19604334 0.010843742 -0.19310212 -0.040615004 -0.077711485 -0.25190696 0.21728791 -0.19418766 -0.17702463 -0.011398764 -0.45833534 -0.097392514 -0.2920824 -0.00858715 0.033564914 0.08810469 0.13207687 0.16702744 -0.49726507 -0.33541444 -0.16308944 0.0016715988 -0.12754028 -0.26565716 -0.071000524 -0.08908182 0.19578557 -0.5207547 0.25985283 0.14230654 0.33840168 0.05618918 0.15245083 0.35932547 -0.057382733 -0.41426018 -0.054555286 0.15141517 0.20832135 0.36702633 -0.059308615 -0.4584499 -0.3298351 0.44966763 -0.69552165 -0.005431423 -0.38791642 -0.08886474
N8ee41976b9eb4ba1aa0f8558a09e92c1 0.54576933 -0.7493859 -0.07112717 0.58322 0.031699672 0.37457705 0.15323779 0.08733282 -0.0018092103 0.25953028 0.02455318 0.044759143 -0.56842303 -0.32080454 0.22723384 -0.068847135 -0.10229682 -0.4617656 -0.11402121 -0.20355529 -0.09484297 0.083627105 -0.36500794 -0.19189909 0.3162209 -0.03242421 0.04264245 -0.0876318 0.057854082 0.5695024 0.10361487 0.0036079285 -0.3017073 0.274472 -0.28935814 -0.0011650252 0.17879394 0.02738154 0.26069853 -0.32650906 0.019104049 0.02459795 -0.074440874 0.19992441 -0.054476388 0.114044935 -0.31517243 -0.20576923 -0.16210255 0.18310086 -0.07220211 -0.20238484 -0.07283841 0.050896816 -0.13309619 -0.24105272 -0.15692663 0.020998346 0.11190177 -0.079908505 -0.45996678 -0.052879687 -0.39001104 -0.33181936
http://ekaw#Neutral_Review 0.27319664 -0.2767985 0.07170034 0.3374517 0.013843444 -0.031761352 0.1707929 -0.18977748 0.01914441 -0.19377944 0.026086384 -0.00094101543 -0.29204595 -0.35296434 -0.30296028 0.40280506 0.2612562 -0.26432893 -0.39195085 0.18304175 0.14211868 0.12150052 0.28268826 0.20892498 0.100065075 0.27392063 0.09491877 -0.07569849 0.5256959 -0.2482517 -0.28348807 -0.011745488 -0.32111967 0.0644435 -0.20047012 -0.45695356 -0.21540436 0.15761219 0.4433554 0.09865274 0.08589152 -0.013747845 -0.32479674 -0.22285089 -0.17685999 0.16562146 0.3765354 -0.34472644 0.026311059 0.068424135 -0.41970652 -0.2836087 0.13324794 0.1765195 0.22864707 0.050080433 0.21392779 -0.05177211 -0.2830097 0.17157815 0.0049493653 -0.20498535 0.13316387 0.16393203
Nf2366b5077d04299991a24b26b4d5d69 0.25920206 -0.31535965 0.04021661 -0.03845849 0.16018145 -0.18440337 -0.1555153 0.040846005 0.0045180637 0.26221308 0.20072481 -0.089020096 -0.34121168 -0.5004859 0.15586403 0.39549658 -0.062304407 -0.38992727 -0.0090484815 -0.04147321 -0.05022868 0.50817597 -0.055429045 0.2622429 0.38576847 0.13111778 0.28045565 0.2843503 0.5466869 -0.14225185 -0.1158331 -0.07645746 -0.33547875 -0.11376259 -0.5582146 -0.4813267 0.110001534 -0.25584993 0.17437907 -0.080779545 -0.02872476 -0.056614034 -0.45927227 0.13656662 -0.301565 0.5143667 0.35511622 -0.09306067 0.14723472 -0.19672121 -0.04949221 -0.3663615 0.22218943 0.15417875 0.016824247 0.23911889 -0.08210767 0.035551257 -0.19156228 0.2487202 0.117493324 -0.28907448 -0.25039566 0.29301748
http://ekaw#heldIn 0.114281625 -0.31892428 -0.20101735 -0.23469023 0.22737655 -0.04143323 0.09700224 -0.08223439 -0.18602203 -0.28439102 0.017294673 0.07639512 -0.24629173 -0.016182426 0.39514974 0.1592011 0.017341742 -0.10738857 0.11298621 -0.04862507 -0.3398789 -0.24536796 0.21284841 -0.28893968 -0.067502454 -0.016624276 -0.46645236 -0.05815439 -0.28061882 0.4396359 -0.010166454 -0.2947431 0.096319064 -0.017003572 -0.4360277 -0.26325187 -0.2420937 0.17883815 -0.16570209 -0.06491318 0.027951773 0.16312689 0.13708659 -0.52292603 0.08930269 -0.025503572 0.31489223 0.24754827 0.36278182 0.2349299 -0.16999815 -0.5190687 -0.21780264 0.3313945 0.17874505 0.38715112 -0.015575945 -0.2851823 -0.079985574 0.51533115 -0.46388844 -0.0519375 -0.39102224 -0.22548391
N64c5e434413145bb895657fea67a965e 0.23507686 -0.68709046 -0.22981323 0.06434551 0.21767253 0.22511277 0.4073284 -0.008727257 -0.061647154 0.42029884 -0.3298127 0.09355131 -1.9437153e-05 -0.5848202 0.70660996 -0.045035027 -0.11901409 -0.44656435 -0.36187804 -0.18568462 0.122146204 0.08769073 -0.11870153 0.08121225 0.16224806 0.4490781 0.15045263 0.14003114 -0.07732587 0.33559096 -0.22354798 0.04714482 -0.2224178 0.1131296 -0.45156434 0.16313729 -0.032172587 -0.22967471 0.18970568 -0.017130308 -0.052692182 0.18875591 0.19919288 0.15221004 -0.12630846 0.007141749 -0.16059573 -0.05176262 0.006676234 0.3605624 0.0005131003 -0.17475611 0.049571376 0.24120586 -0.020786462 -0.16111827 0.05324686 0.4257764 0.26806453 0.056820784 -0.29040575 -0.17090449 -0.5227807 -0.02777971
http://ekaw#reviewOfPaper 0.14863971 0.11175573 -0.031245083 -0.16844343 0.2114448 0.0029647683 0.40589216 -0.08198056 0.058384757 -0.35096422 0.36375046 0.2221173 -0.5290571 -0.22150609 0.038795263 0.11841639 0.09132177 -0.21100783 0.21158962 0.26953748 0.09770469 0.54725903 0.0037937828 -3.995849e-05 0.024443552 -0.018535526 0.083855465 -0.1512279 0.122918785 0.06361619 -0.6203276 0.12598237 -0.024926897 0.11127818 -0.38518658 -0.40957284 -0.011864396 0.0402816 0.09958555 -0.13170838 -0.06998993 -0.18950187 -0.09616927 -0.084123395 -0.072460815 0.25737733 0.26360738 -0.016890114 0.24619088 -0.13781767 -0.0017975983 -0.37159318 0.061486136 0.06719457 0.056389853 0.33491656 0.038504615 0.19634801 0.049323365 0.13080044 -0.17348433 -0.07699561 0.06487575 0.18664986
http://ekaw#updatedVersionOf 0.07001284 -0.13005415 -0.22620401 -0.21273193 0.015230571 -0.020481948 0.10011508 0.21466395 -0.20118482 0.21513358 -0.20242518 0.029884864 -0.4984664 -0.48914444 -0.0056429524 0.21553285 -0.41382706 -0.100338556 0.2715033 0.10773763 0.031756893 0.28841862 -0.2807836 -0.006071036 0.4014337 0.17215998 -0.1951875 0.110460654 -0.06830746 0.10357939 -0.10253646 -0.006337932 -0.17897516 -0.1928581 -0.1695633 -0.30681008 -0.12957558 0.1075059 -0.63589025 -0.34889302 -0.11668253 -0.2250575 0.13878112 -0.1619141 -0.11305451 0.2603324 0.39438188 -0.56128097 -0.006128676 0.1546946 0.472071 -0.32983598 -0.17620145 0.10252207 0.6899565 -0.014363107 0.10699565 -0.29630736 0.5063911 0.28297055 -0.20310254 -0.3391327 0.07482813 0.00030549345
Nfb3cecbf81c348dfaf02055f84ac94a1 0.24346228 -0.28713658 -0.1297614 0.3618986 0.039300155 0.05084116 -0.116562575 0.38866347 -0.61997914 0.30100256 -0.0004889207 -0.16246422 -0.4504876 -0.1601056 0.3521813 -0.12011225 -0.0075667347 -0.25041944 -0.066097245 0.11961698 0.20050114 0.057049308 -0.2955715 0.09149973 0.5187495 -0.21259461 -0.22360232 0.26278362 0.12620701 -0.0191262 -0.3227715 0.027225617 -0.08877218 0.1603542 -0.088504866 -0.24563654 0.36914405 -0.15674253 0.30001682 0.020245878 0.10798739 0.11732835 0.12627989 -0.041382924 0.04049587 0.26933095 0.0005978834 -0.02172079 -0.07876229 0.28889135 0.19965719 0.20242518 0.23115563 -0.07124499 0.01961293 0.027956717 0.22644356 -0.55281746 0.2831976 0.53852177 0.010705205 -0.38668945 -0.26658186 0.5485278
Nec6fba2b9b39415da2a6798a43386a27 0.40297914 -0.46862212 -0.0072587337 -0.22451791 -0.04026814 0.01530024 -0.17106442 0.24324697 -0.3586629 0.31581166 -0.039995268 -0.038603 -0.43179354 -0.050986163 0.3299962 0.52357316 -0.114431486 -0.4032071 -0.18747053 0.07080112 0.04721868 0.20720397 0.03329821 -0.09859724 0.36061227 -0.2844011 0.21806587 0.0007744785 0.027182056 0.3844214 -0.3340293 0.2709846 -0.12857832 -0.2200305 -0.47121847 0.24475957 0.18757229 0.08097432 0.053066716 -0.19572634 -0.0602801 0.4274179 -0.11552707 -0.041561082 -0.11899011 0.36164263 0.22806954 -0.046433873 -0.25710604 0.24070345 -0.11394849 0.2554032 -0.1206134 -0.0074339644 -0.27182767 0.07157088 -0.011233338 -0.06993916 0.53109115 -0.0663177 0.2280278 -0.34924597 -0.1905876 0.2880432
http://ekaw#Conference_Paper -0.20868547 0.096035786 -0.19601336 -0.041753553 0.045926213 0.11236466 0.27021298 -0.1066001 -0.25230995 -0.45250064 0.11020714 0.067104824 -0.10611163 0.17787535 0.164122 0.42322388 0.055287182 -0.019541103 -0.15237501 0.45104736 0.55437744 -0.074243635 0.15514307 -0.23038082 0.33982274 0.18483981 0.22643559 -0.055641443 -0.03583895 0.047467794 -0.2154245 0.16584116 0.08168478 -0.4466601 -0.23886654 -0.39805898 0.035262097 -0.19612162 0.40199733 -0.25609505 0.043791104 -0.130193 0.4032676 0.25115144 -0.31240883 0.13744514 0.09296482 -0.30193362 -0.16909148 0.16853055 0.20530868 -0.35216796 0.4579397 -0.17741886 -0.40814558 -0.0690637 -0.2698644 -0.29803926 -0.21327664 -0.0945469 0.14985147 0.07936005 -0.1671595 -0.16051684
http://ekaw#authorOf -0.045544956 0.12755658 -0.30556625 0.35546726 0.23227632 -0.19663917 0.045782343 0.35066563 -0.16269952 -0.00017388452 0.25257596 -0.07062207 -0.4402888 -0.3741352 -0.029937716 0.22186561 -0.19894211 -0.020651111 0.2277755 0.06903444 0.09260859 -0.09191725 -0.24520616 -0.07813003 0.18874027 0.17245314 -0.23947133 0.13873012 -0.06395241 0.04364035 -0.32736337 0.050120078 0.0042450535 0.3869026 -0.07894878 -0.16682443 0.07943021 0.15016247 0.10471129 -0.18995918 -0.10850066 -0.0617551 0.42071152 -0.55143523 0.24854836 -0.03915659 0.37410396 -0.13133335 0.00945698 0.17097881 0.3624062 -0.24285352 0.010562728 0.0064958534 0.2985475 0.16900653 0.121949084 -0.26963016 0.23500809 0.26940453 -0.33222157 -0.20403074 -0.0554433 0.05442161
http://ekaw#Workshop_Paper 0.10367316 -0.037353966 0.09577029 -0.030575523 -0.05687579 0.26152757 0.30770308 -0.12529479 -0.32725435 -0.46707475 0.20445293 -0.04241832 0.0644357 0.1864472 0.1506487 0.25718713 0.20648818 -0.059826482 0.13710982 0.51125103 0.4299223 -0.110470064 0.04332729 -0.11253834 0.24861531 0.093542516 0.19814408 0.03971528 -0.21516326 -0.14356472 -0.48528934 0.06550731 -0.009059722 -0.2509682 -0.22325931 -0.48834708 -0.19527332 -0.36413106 0.08709325 -0.26981103 -0.07309246 0.10914539 0.014512769 0.2687859 -0.2420504 0.11230186 -0.03309005 -0.028436204 -0.3289244 0.23170829 0.23773192 -0.43743256 0.40629193 -0.14180267 -0.17228045 0.08283798 0.027111925 -0.004320728 0.017110154 -0.122660756 -0.08282858 0.13092381 0.027666237 -0.23957548
http://ekaw#reviewWrittenBy 0.31241903 0.3128093 -0.029906219 0.23147121 -0.012507799 -0.03530933 0.2187363 0.10238988 -0.023088548 -0.3685058 0.3381414 0.04193669 -0.30273005 -0.6744121 -0.13971701 0.21378426 0.0026721787 -0.31907192 0.20163876 0.30085728 0.040127803 0.11862418 -0.15130042 -0.10788874 0.017198484 0.1432608 -0.2520125 -0.10910597 0.18356322 -0.06108278 -0.3115259 0.0074220914 -0.1618571 0.19091763 -0.20516941 -0.22558455 0.2667409 0.3484463 0.32989585 0.0449881 -0.1305817 -0.06433998 0.22815834 -0.6884295 0.22634168 0.18101774 -0.0033546593 0.12416731 -0.06771303 0.2224975 0.21071844 -0.4689902 0.015012815 -0.06833215 0.16618991 0.05438324 0.23444661 -0.024672437 0.056851465 0.42313698 -0.11348224 -0.39915377 0.06474468 0.3039611
N831e7061156a458b8fcf67ea59e91331 0.33673579 -0.6827992 0.2059957 -0.053319465 0.154093 0.31484628 0.25852638 0.07036654 -0.09982111 0.13391407 0.091341786 0.13261226 -0.4332034 -0.4476581 0.47339833 -0.1629258 -0.4813569 -0.47784385 -0.41873732 -0.15534163 0.0009876392 0.13703921 -0.13310501 0.169404 0.4849755 -0.21948473 -0.06976277 0.26960027 -0.27228323 0.3576582 0.27542707 -0.15013103 -0.06564216 0.06453396 -0.45485994 0.118337505 0.10007232 -0.15283781 0.1807808 -0.038900297 -0.22362927 0.19636732 0.29473007 0.28283054 -0.2962441 0.045840245 0.04897407 0.0022021201 0.07211552 -0.12084322 0.1206228 -0.08773596 0.21581866 -0.07650639 -0.052624367 -0.028468156 0.15414925 0.3704652 -0.23153588 -0.02960103 -0.42362526 -0.36663973 -0.21420136 -0.42839408
http://ekaw#paperPresentedAs -0.1382763 -0.4414391 -0.07557936 -0.118317634 -0.05676008 0.32038236 0.057394113 0.49691454 0.074532345 -0.011873773 0.2873402 0.3416497 -0.416237 0.08865214 0.5085136 0.29139292 0.028903153 -0.09554232 0.20083778 0.2631234 0.101950385 0.35492688 0.4275543 -0.115980856 0.5795116 -0.2994807 -0.24830443 -0.20294413 -0.3843906 -0.01189461 -0.056713153 0.5351237 0.034152854 -0.037662294 -0.57179266 0.47523382 -0.112999834 0.25270474 0.23358066 0.011782541 -0.2064913 0.07435061 0.11439898 -0.23869926 0.16346277 0.24124692 8.3477586e-05 -0.11670765 0.09846851 0.14744408 -0.2216671 -0.2799485 -0.31020933 0.23943461 0.095843144 0.30243355 0.28971922 -0.05413487 0.31880507 -0.034312688 0.21073596 -0.1819852 0.21828358 -0.09136521
http://ekaw#Demo_Session -0.010628409 -0.78381103 0.0886546 0.28877467 0.14991973 0.11792944 -0.16302668 -0.23332211 0.022959538 0.12830597 -0.48554587 0.029812576 -0.4002038 -0.39405912 0.15932946 0.016440112 0.19241959 0.17826153 -0.14081223 -0.043574866 0.07573463 -0.044010665 0.41991234 -0.5345296 0.014397036 0.22750084 0.4514652 -0.12721403 -0.06315519 -0.13817051 -0.31234816 -0.14430694 -0.05933115 0.14295486 -0.5066849 0.1599459 0.048214357 -0.50253105 0.35929775 -0.06802599 -0.11148013 0.3464062 0.070348606 0.010640878 0.06369133 0.058548767 -0.14829758 -0.41862664 -0.08776876 0.17535383 0.12387537 -0.1675132 -0.017431749 0.06477748 -0.28916258 -0.1432193 0.26258573 -0.20441882 -0.027233133 -0.0722226 -0.023491109 0.06404203 -0.29330185 -0.33044723
http://ekaw#Poster_Session -0.005851161 -0.81717145 0.21134074 0.30132172 0.039765302 0.20149395 -0.086699136 -0.2553899 -0.012656773 0.09315255 -0.31240138 -0.09530997 -0.31975615 -0.27077556 0.13257319 -0.006749957 -0.11841706 0.08775281 -0.2488008 -0.13798141 0.021786347 0.045360047 0.3609065 -0.39800745 -0.100692436 0.027397584 0.5081527 -0.07790367 -0.09758974 -0.20858873 -0.3839738 -0.16151336 -0.0462145 0.11662652 -0.5872357 0.20272265 0.03017257 -0.51048964 0.16346526 -0.34883812 -0.22085218 0.20825484 0.0013339978 -0.09370607 0.054485533 0.014674281 -0.37252122 -0.500775 -0.13000242 0.22529179 0.10809696 -0.33486894 -0.027472278 0.0615483 -0.23090509 -0.05259424 0.2358456 -0.07720298 -0.02268685 -0.073407896 -0.12914217 0.14923163 -0.13759159 -0.24137177
http://ekaw#Regular_Session 0.16210012 -0.7649861 0.07818406 0.35267523 0.030072708 0.071231104 -0.09223444 -0.37838528 0.014749609 0.036078677 -0.32059994 -0.22607024 -0.31252035 -0.29691538 0.08076255 -0.07015179 -0.026547128 0.097629204 -0.17850475 -0.020156354 0.07439969 0.008121401 0.4131716 -0.5089539 0.0963519 0.07497305 0.34180516 -0.16984713 -0.15702268 -0.08649092 -0.44415438 -0.14581053 0.14088234 0.12070478 -0.46445218 0.26457185 -0.03559523 -0.38222966 0.31761622 -0.2686832 -0.27133313 0.20991077 -0.041726433 -0.02370975 0.20137389 0.040569697 -0.22976273 -0.4708565 -0.09527202 0.17482455 0.16258736 -0.34130377 -0.0534135 -0.012287178 -0.38307264 -0.12752062 0.30182555 -0.024354974 0.06538647 -0.033335466 -0.15260158 0.1452674 -0.33960432 -0.094189666
Nb6fb9599cbfb4b1c90b0f0f27966baa9 0.13443005 -0.6474628 -0.061873395 0.25604975 0.30358946 0.5159916 0.25716805 -0.077193625 0.05455589 0.18111554 0.2661658 0.26059827 -0.36624828 -0.043649174 0.32237005 0.097805336 -0.51114225 -0.46279868 0.0008502494 0.13535659 -0.24405688 0.0005684746 0.13273123 0.17346694 0.31669384 -0.05236538 0.2872937 0.011905473 0.24278367 0.437394 0.017804986 -0.07960891 -0.0543298 0.038669057 -0.675796 0.46296257 0.082456656 -0.2777988 0.19640438 0.01020207 0.009467358 0.28477177 -0.08533474 -0.0014158714 0.12536278 0.45012733 -0.33847314 0.020029737 -0.06069867 0.123266 0.23926683 0.09248358 -0.3910372 0.4063887 -1.2392226e-05 -0.06313341 0.21977986 -0.09281297 0.16087176 0.24159984 -0.082344316 -0.30907133 -0.1671165 -0.22534236
N8b3257423e924411bd09f25d068c0673 -0.005758289 0.20011035 -0.34277496 0.8292201 0.21469298 0.03865589 -0.55141443 0.23728374 -0.0057201553 -0.3708487 0.27726963 -0.04403905 -0.4380127 0.34668702 0.14282924 0.3088082 0.13404115 0.34616518 -0.13536462 0.24912538 0.25088924 -0.2903053 0.40250027 0.076952465 -0.36624855 0.4504934 -0.17285167 0.01732698 -0.3888548 0.0758771 0.0039506154 -0.123624064 -0.26495636 0.36056632 -0.226211 -0.123831056 0.09782786 0.03192895 -0.24566823 -0.5434167 -0.45253363 0.100360565 0.24849153 -0.25816342 0.019117564 0.09725771 0.06371858 0.38010713 -0.08209879 0.13215403 -0.2766161 -0.2552765 0.38022053 -0.20136103 0.22932701 0.047635414 -0.12474284 -0.1795742 0.08448458 0.1871023 -0.15559693 -0.17026056 -0.021258108 -0.089825176
N3af3301f10e042b687e5c39deb6795ea -0.20922033 0.0024464256 -0.014056506 0.19639015 -0.28117722 0.026255948 -0.20646708 -0.17003806 -0.41868958 -0.043224458 0.12224572 -0.64401245 -0.47845417 0.18898395 -0.091292 0.34020892 -0.20115092 -0.23819995 0.28557122 0.23883444 0.032843214 -0.1557531 0.50440097 0.32058656 0.08963266 0.2876678 0.146285 -0.21464561 0.2889299 0.15289788 0.116814844 0.069133855 0.051187642 0.21986845 -0.79651606 0.06060133 -0.086096205 -0.08943225 -0.53694046 -0.21280825 -0.38441822 -0.1020644 0.08175084 0.20071973 0.10273217 -0.12752096 0.10086338 0.13496271 -0.02944601 0.1754024 -0.15535343 -0.22348146 0.9031771 0.015347754 0.30350393 -0.645095 -0.50007194 0.043482002 0.13438733 0.10512148 0.1315289 -0.3717135 -0.27408996 -0.19588657
N02a0c2870c294d9c934ba290ada416f9 -0.2366676 -0.12597209 -0.2458928 0.25992173 -0.1982769 0.44453308 -0.07710727 -0.35651731 -0.54658276 -0.37163734 0.20425904 -0.3082563 -0.19730644 0.42954072 0.043589436 0.38881153 -0.20565474 -0.131252 0.21762338 0.4377181 0.67704517 -0.23894636 0.29928914 0.3365111 0.033632454 0.18480496 0.09064621 -0.50369966 0.20487176 0.15641852 0.121050164 0.18603462 0.25137776 0.066089615 -0.34850544 -0.15029298 0.12523994 -0.1171821 -0.21237014 -0.5093238 -0.34898573 -0.068142466 0.36716354 0.04684402 -0.17898098 -0.18300976 -0.03797622 -0.29070148 0.061552774 -0.14932087 -0.018202482 -0.44801748 0.6825647 0.076969594 -0.18983518 -0.37103492 -0.42010096 0.041247882 -0.15139553 0.23486944 0.26162574 -0.19406484 -0.12863384 -0.2999689
N8cb4969cd2d64ee5b549ed2642634d17 0.13405474 -0.11058372 -0.47412288 -0.06003354 -0.33383873 0.013981508 0.12091732 0.13696301 -0.5067922 -0.026116064 0.5813624 -0.15090632 -0.30206135 -0.17710291 0.119970515 0.31393683 0.061385963 0.057960145 0.27602938 0.3207651 0.44836697 -0.20339818 0.10084461 -0.052322764 0.11598787 0.3848456 -0.12203541 -0.110746376 -0.26810932 0.19546796 -0.53869677 0.20959415 0.3480198 0.02801503 -0.5617783 0.30936086 0.234411 0.2999333 -0.19207978 -0.122562185 -0.38876185 0.51220906 -0.31917578 0.11033938 0.14431706 -0.30321828 0.3518828 -0.56476986 0.050691567 0.14094117 -0.54959774 -0.16898718 0.15087579 -0.36220023 0.06961217 -0.16031016 -0.40106833 -0.06867372 0.06658273 0.03342636 0.36031276 -0.27219918 0.410272 -0.22093602
N88f0b50063bd49db8b4e725146bb1534 -0.06488721 -0.12516436 -0.046600323 0.09339097 -0.28531665 -0.16752532 -0.09316977 0.4264243 -0.58204156 0.26083818 0.007186816 -0.68114156 -0.53213906 0.17929736 -0.01744061 0.09733517 0.05851581 -0.12188712 0.3322213 -0.1638304 -0.35217923 -0.011553042 0.5984686 0.05919462 0.25585854 0.42830035 0.4582099 -0.022462478 0.6018776 0.06941521 0.19973189 0.03683186 -0.116046734 0.11381046 -0.63345015 0.09067687 -0.30893394 0.084046096 -0.37600935 -0.14169468 -0.41667658 -0.21500085 0.33438247 0.38659164 -0.1251746 0.21661831 0.23931359 0.07047555 -0.20020406 -0.013880536 -0.050072934 -0.23804875 0.77292484 -0.23023061 0.08026587 -0.22285146 -0.41221872 -0.25030681 -0.017502988 0.42983672 0.025515398 -0.4022807 -0.3091274 0.09340106
N8d725c6ff39442a7a4b8cda5a4efa812 0.57772547 0.0108096935 -0.31049195 0.7028191 0.46435675 0.015819121 -0.4522164 0.40953857 0.16470337 -0.5851002 0.1055325 0.12731726 -0.4426522 0.07934134 0.115275465 0.114820465 0.11108788 0.67694265 0.03323359 -0.009042194 0.30023304 -0.33688787 0.19525397 0.059421804 -0.25429136 0.3048556 -0.32144457 0.26054046 -0.23975678 -0.04139307 0.1511964 -0.084472075 -0.028625848 0.40989038 -0.46572384 -0.29331055 -0.21597019 -0.15458032 -0.32394513 -0.28423083 -0.37466875 0.24083565 0.09786596 -0.26008654 0.0779684 0.21181707 0.2795943 0.11452248 -0.26019886 -0.20992024 -0.054355927 -0.29936633 0.22024551 -0.27232832 0.0034810775 -0.027557246 0.08870902 0.18104476 0.11840859 0.4509025 0.24604248 -0.0060685715 -0.4117759 -0.3030636
N6783e5fb78314bdd91a43b79f22ef7ad 0.019429939 0.11373822 -0.50341475 0.5193455 0.039290838 -0.054531384 0.13442795 -0.16648625 -0.20892636 -0.39795431 0.5246403 -0.17748985 -0.34584737 0.037816744 0.5012906 0.36976355 -0.020405402 0.02562188 0.1655789 0.38144493 0.34451273 0.20527227 0.5073663 -0.39885524 0.3564829 -0.32100168 -0.11221448 -0.2893597 0.16698988 -0.1630548 -0.28972432 0.4490321 0.12847541 0.118820935 -0.31843483 0.22634962 -0.18051647 0.015445655 -0.28027907 0.09829171 -0.35239932 -0.07208835 0.0052752947 0.2993783 -0.17866546 -0.014284831 -0.062416073 0.09678074 0.17639697 0.07715644 -0.11592941 0.0053681475 0.52363783 -0.08939556 0.45910883 -0.023259671 -0.29317033 -0.002715329 0.093615375 -0.11766926 0.3143349 -0.045966353 0.16454777 -0.19993126
N19ad82b26b7f422fa5cb179b31fc1a45 0.22451471 0.066439606 -0.49413198 0.1683324 0.066882774 0.2783295 0.29645863 -0.20285451 -0.114950486 -0.11684863 0.34620437 -0.03864954 -0.43137833 0.07113269 0.12015136 -0.124757126 -0.3481775 -0.05226926 0.014958196 0.41736817 0.2959806 0.43478572 0.6117896 -0.19764888 -0.009686857 -0.21625753 0.03333275 0.00479179 0.30835187 0.08681934 -0.17389768 -0.10987778 0.113190666 -0.33272767 0.21529752 -0.39079726 -0.19852483 -0.5579106 -0.051348075 0.24918523 -0.20174281 0.46463332 0.120406516 0.08252024 -0.07892534 -0.30561 0.6313998 0.3595094 -0.2102818 0.2980329 0.009283735 -0.53241783 0.10606654 0.00041185503 0.4048393 -0.07361283 -0.4934269 0.02530945 0.0926427 0.25375873 -0.070211634 0.4180616 -0.040297527 -0.20786628
N92bb79766c3f4a7690120eee689d9400 0.2947977 0.2400689 -0.37690997 0.30420431 -0.04220777 -0.19238967 0.09453439 -0.03507093 -0.29665193 -0.2058693 0.18125856 -0.11280371 -0.55886453 0.078769475 0.10058448 -0.07366634 0.07381207 -0.11860437 0.23894657 0.5379058 0.7481752 -0.1714601 0.35050583 0.051858723 0.05644544 0.01798037 0.010050478 -0.11069803 -0.09276989 0.052580927 -0.35855183 0.512735 -0.01814642 -0.13225389 -0.585432 0.113513835 0.2792451 0.2027054 -0.23007642 -0.0030372655 -0.12434087 0.33941188 -0.31989917 0.33587903 0.09644574 -0.20292906 0.4128631 -0.16545166 0.15360211 0.2337839 -0.12147994 -0.08269166 0.4828404 -0.2372538 0.20283715 0.032789804 -0.5152458 -0.030358395 -0.0029487445 0.09893373 0.06868465 0.012510212 0.2482211 -0.35070464
N2f63880ee7754c5bbde35fc1000758cd 0.09920955 0.16995199 -0.4117288 0.11137816 0.1276274 0.20738803 -0.12986384 -0.081463896 -0.052460294 -0.065969825 0.3341631 0.14333701 -0.2983856 -0.015544055 0.07981487 0.100987844 -0.4448226 -0.49391365 -0.08107455 0.5089111 0.4870263 -0.06949468 0.6471166 -0.26890892 -0.27909407 -0.12756903 -0.025489705 0.020377496 0.31244326 0.38902918 0.19995397 0.0035561062 0.059624013 -0.13386087 -0.18339191 -0.22327834 0.039406136 -0.16540396 -0.23212959 -0.212985 -0.43680274 0.2984622 0.107924804 -0.082839884 0.16918194 -0.22174682 0.2624326 0.5425347 0.04736546 0.09015597 -0.2955396 -0.4361765 0.16393605 0.07103693 0.49197173 -0.22830483 -0.34510246 -0.09196024 -0.055587273 0.16576298 -0.20225346 0.59090465 -0.41890284 -0.14187919
N81d7051673784c8185fb3b2d8f4de19e -0.2754473 -0.42171538 -0.2897934 0.33395094 0.18521787 -0.017538995 -0.037618198 0.10591764 -0.49664828 -0.22924593 0.5492994 -0.05524855 -0.18513723 -0.041530386 0.4444991 0.5310085 0.06079868 -0.13731371 0.36331132 0.22784351 0.46429968 0.13936245 0.42846859 -0.038840562 0.46956903 -0.30987668 -0.10878713 -0.22900166 -0.19984356 -0.33412364 -0.17702751 0.31604064 0.25454235 0.24201636 -0.08886014 0.38459828 -0.2737688 0.35292703 -0.33951837 0.13151163 -0.4367116 -0.0746981 -0.17374967 0.026551895 0.008974412 0.14426355 -0.061660126 -0.44376892 0.2336104 0.6047226 -0.19470249 -0.43617165 0.3796737 -0.01633728 0.51121575 -0.06700333 -0.23157056 0.19429873 0.05507225 -0.10585564 0.43247586 0.06177204 0.29939148 -0.023858776
Nc38a30223fb54523a467a6f52a85c6ee 0.41987088 0.23976602 -0.062828586 0.16942368 0.2459397 0.037964795 0.0518377 -0.23436704 0.08722896 -0.48126927 0.37781355 -0.27233982 -0.16551875 -0.06663851 0.50844866 0.28504136 -0.33217102 -0.30876505 -0.006499295 0.30580243 0.19495463 0.19665822 0.7230212 -0.06472827 -0.38693976 0.07409142 -0.2758479 -0.08475051 0.09143459 0.47051322 0.17204718 -0.07213624 -0.129867 0.33466145 -0.30462924 -0.012631723 0.44712323 0.010903441 -0.28857824 -0.2772752 -0.080967814 0.07068127 0.22346084 -0.033692066 -0.16820374 0.09128693 0.17345768 0.04192286 0.46631148 0.14690652 -0.22243223 -0.0637632 0.55501467 0.16645177 0.20170815 -0.078306966 -0.13535078 -0.3015584 0.2361108 0.22985211 -0.2985995 0.55911607 0.17358363 -0.49124733
http://ekaw#Late-Registered_Participant -0.16690868 -0.6204415 0.09409736 0.23917113 -0.10832987 0.27493328 0.092844404 0.062872924 -0.19411762 0.121490754 -0.031579718 -0.08396456 -0.011416205 0.29432747 -0.1180343 -0.03938739 -0.069118984 -0.08922661 -0.069975086 0.01881124 0.278834 0.24783011 -0.00653287 -0.23633118 0.06811559 0.2534125 -0.03706438 0.25157785 -0.12580927 -0.08404933 -0.32437885 -0.2614504 -0.019445466 0.044654988 -0.30059484 -0.28214338 0.20633 -0.19974916 -0.0026799731 0.14696534 -0.13267148 0.076118276 0.2105532 -0.15586862 0.17765588 -0.16492434 0.017956749 -0.002503036 -0.16693178 0.4293991 -0.23090138 0.05552891 0.6211319 -0.13351604 0.20365845 0.2423578 0.71067065 -0.54203707 -0.33353144 0.19670923 0.31042814 -0.14568748 -0.30601132 0.18760328
N93b36c88a6df48f69e23b18a8b2a48d3 -0.17498277 -0.340677 0.17624615 -0.020412263 -0.34828243 -0.07264679 -0.31889376 0.30351037 -0.6018063 0.24032964 0.21519995 -0.35188863 -0.38125932 -0.15243489 -0.14269769 -0.050086133 0.37481612 -0.45725957 0.039834887 0.068467125 -0.4420778 0.06509242 0.42763937 0.22737128 0.15652333 0.13048364 0.27735585 0.09819276 0.26440507 0.28346846 0.23466414 0.09890693 -0.3149275 0.44078183 -0.56581306 -0.01039961 -0.51098996 -0.06743835 -0.34724277 -0.017564021 -0.18369876 0.043690845 0.242607 0.1018844 -0.2837669 0.10672982 0.011757512 0.06277315 -0.33287886 0.23548615 0.20830245 -0.31541607 0.67120135 0.0127451895 -0.15161178 0.0044803685 -0.05399431 0.11637524 -0.05539415 0.13845368 -0.088748686 -0.14112437 -0.29929262 0.11737138
http://www.w3.org/2002/07/owl#TransitiveProperty -0.018020827 -0.14072557 -0.39768854 -0.10455708 0.06317149 0.7140172 0.5224318 0.08062912 0.20963712 -0.1098224 0.18898402 0.17840706 -0.28024992 -0.62420315 0.52129096 -0.22279906 -0.26714137 -0.54357004 -0.028981972 -0.41183114 0.08434624 -0.089957684 -0.34034288 -0.26251966 0.08285686 -0.14178973 -0.057865858 0.49160093 -0.050142553 0.5608155 -0.09679956 -0.24109146 -0.2935562 0.44335338 -0.5337417 0.11785345 -0.0097152935 0.015201359 0.053974066 -0.31961292 -0.13563648 0.05594273 0.4797362 0.023577357 0.051208038 0.30192763 0.13330394 0.124105215 0.15367988 0.10294124 -0.40060163 -0.5544221 -0.08125512 0.09263375 0.31628576 0.083011605 -0.06986323 -0.124941505 0.37394205 0.25299805 -0.43183973 -0.15759133 -0.14896329 -0.4639616
http://ekaw#technicallyOrganisedBy 0.20224509 0.118312195 -0.11852274 0.057915173 0.29556403 0.5730594 0.08711534 0.40451875 0.2435959 -0.35092437 -0.00061529124 0.256612 -0.2526217 -0.20944515 0.314591 -0.008449386 0.07393833 -0.009648078 0.29388276 0.10821703 0.088443734 0.29599285 0.22283722 -0.40682298 -0.19511545 -0.012159438 -0.15427841 0.092345744 -0.6172257 0.23329282 0.038792495 -0.25113 -0.21233502 0.07563973 -0.5133347 -0.37394604 -0.33104804 0.24486 -0.18477741 -0.14867963 -0.23201704 -0.05384758 0.20060891 -0.44839206 0.15333907 0.12350993 0.5004694 -0.09731153 0.08714389 -0.3602046 0.14232951 -0.33922246 -0.11516332 -0.11972225 0.034045447 -0.17892776 0.31651592 0.13514811 0.24247651 0.56072414 -0.13756672 -0.14366698 -0.3012218 0.03855595
Nd6b7fd8df25e4f5e9b30d804b8979f35 0.17618048 -0.26963642 -0.37438744 0.088154614 0.30350643 0.24978572 0.23477663 -0.12983778 -0.30517375 -0.12106977 0.29202512 0.12136266 -0.3465644 0.07868933 -0.23156989 -0.0601504 -0.22727087 0.0012644576 -0.044825375 0.06865556 0.04746279 0.4870379 0.59449387 -0.06523675 -0.26409203 -0.076702386 0.4566045 0.20140292 0.15637401 0.3312453 -0.14932403 -0.2031394 0.19360092 -0.11844965 0.089419685 -0.44326925 -0.115286276 0.04022858 0.07975962 -0.020275835 -0.31362435 0.51493925 0.33162415 -0.012718745 0.101103 -0.3377246 0.38929912 0.40413848 -0.12535623 0.34603378 0.10952497 -0.5996766 -0.1004235 -0.14351174 0.32095426 0.05076722 -0.13626161 -0.11191828 0.12930435 -0.19965586 0.1698418 0.23351295 -0.007738331 0.07768704
N8f32febcc86f40c7b8ada3f6e2bb1a6f -0.5211473 -0.22293909 -0.23461273 0.36027247 0.17084385 0.44005534 0.18958224 -0.33448783 -0.51746154 -0.35323223 0.36816263 -0.23570873 -0.085507385 0.34836683 -0.10640539 0.25944346 -0.1438911 -0.18875116 0.15825427 0.67978424 0.6432244 -0.2589787 -0.08629439 -0.01808965 0.150769 0.38663387 0.29555842 -0.55641246 0.19595245 0.10633398 0.03457141 0.106117636 0.1026297 -0.0344745 -0.31978488 -0.4396478 0.10019483 0.23396131 0.13224216 -0.17929767 0.051609486 -0.0338474 0.37228656 0.3912211 -0.5410659 0.064332046 0.0396934 -0.19986059 -0.1714068 0.10115504 0.10111116 -0.42691663 0.52305144 -0.12772818 -0.5824203 -0.13404594 -0.124769926 0.082483605 0.22996531 0.13786824 0.20476697 -0.099090114 -0.28445417 -0.30552906
Nf2f9f66e75b440299f03d62b5c1ff595 0.14000335 0.39296952 -0.40996188 0.63594186 0.43467605 -0.10069178 0.05807861 0.102070354 -0.23337197 0.26049635 -0.124271 -0.09391843 -0.2701916 0.22043248 0.21583512 0.17459048 0.36088607 0.10296752 -0.31726974 0.32006896 0.24622127 -0.26379824 0.3918348 -0.4157132 -0.20209658 -0.25348443 -0.0779249 -0.17047898 -0.35832542 0.13215403 0.6460446 -0.22124158 0.2606745 0.5767246 -0.7632826 -0.27774647 0.32270664 -0.13599233 -0.1958692 -0.2230878 -0.07511892 -0.17839003 0.048048362 -0.039800707 0.051526263 -0.19204675 0.5473671 -0.30968964 -0.3893091 -0.16137968 -0.030708775 -0.5480696 0.0027585456 -0.044187203 0.28052294 0.080914415 0.3418033 0.082133695 0.031170966 0.10133869 0.036509454 -0.11589972 0.018089885 0.0926609
http://ekaw#Early-Registered_Participant -0.14817229 -0.57385546 0.009838055 0.20896278 -0.024346504 0.029554715 0.2585281 0.08988808 -0.27586746 -0.16038439 0.04582556 -0.2184416 0.06845288 0.3326113 -0.04704444 -0.061935976 0.0020413129 -0.13846113 0.008979207 -0.0834378 0.45108432 0.20041563 0.15952168 -0.11956543 0.1730269 0.18437523 0.024858518 0.19344367 -0.3092378 -0.08270642 -0.23443064 -0.39067954 -0.10112982 0.17311107 -0.33197832 -0.37328744 0.068867445 -0.12064433 0.09698132 0.4183098 0.037042018 0.1880716 0.024672646 -0.2025931 0.31507298 -0.18705633 0.08881218 -0.0059131975 -0.35557497 0.30858365 -0.21173066 -0.0155447265 0.62145597 0.009390607 -0.034205783 0.00582851 0.77696836 -0.36283508 -0.05776187 0.08461248 0.17086203 -0.20085394 -0.31776905 0.2975142
N66c5ba3249854b60b31760ba72145839 0.005225713 0.088833615 -0.2557771 0.3934487 0.41128483 0.25040826 0.20457052 -0.07915457 -0.05696454 0.08052595 -0.57481396 -0.33137736 -0.56536156 0.11512977 0.46105516 0.5308605 -0.2875109 -0.12418473 0.052091524 0.3316454 0.5615601 -0.12500764 0.45159513 0.3024523 -0.016650373 0.33136773 -0.011184662 -0.23112671 -0.08846444 0.24372189 -0.020936932 0.05652886 -0.007998959 0.102311485 -0.24673642 0.6028406 0.41117075 -0.035451405 0.11177077 -0.18777053 -0.48746333 0.23714288 0.0071436837 -0.09096899 -0.20367947 -0.11150023 -0.33021867 0.32194954 -0.21209489 -0.08243408 -0.2582633 -0.19380318 0.5093147 0.2965761 0.16481085 -0.0801463 -0.19838433 0.12902762 -0.0586749 -0.03657379 -0.08532595 0.22353986 -0.089526124 -0.20528218
N812686b95f30419b9562377a9a2c9f78 0.30453488 -0.26632592 -0.08033247 0.4156241 0.22815548 0.35502344 -0.15406324 0.27990377 0.28813612 -0.40569767 -0.021157268 -0.006054507 -0.399545 -0.053725593 0.17340048 0.032018553 0.11743124 0.3811266 0.06609189 0.14901944 0.043957993 -0.13065922 0.35754508 -0.19336276 -0.3984152 0.16525099 -0.34031233 0.32114267 -0.3445035 0.2477053 -0.05193112 0.07004195 0.07953451 0.015576617 -0.1701987 -0.2601101 -0.39970407 0.07381397 -0.1579283 -0.8163298 -0.31563225 0.095165655 0.03476334 -0.06865857 -0.08802415 0.2578441 0.21430366 -0.05680147 -0.1868847 0.007486527 -0.25420037 -0.029926656 0.031631 -0.33088967 0.3060925 -0.33404213 0.48492467 -0.0011426774 -0.09301651 0.47363904 0.16963275 0.024010116 -0.42489418 0.07134871
Nf5f772ae60174a658befe38ee4affda8 0.16926992 0.5698598 -0.18998206 0.87202257 0.16638553 0.06271645 -0.17056246 -0.0043180515 -0.27226618 0.3380687 0.056567594 -0.08088777 -0.21759465 0.2581069 0.2534668 0.3754027 -0.035431527 0.0705487 -0.1336706 0.29192808 0.50830156 -0.32588404 0.2563687 -0.28434712 -0.045105215 0.12803365 -0.028123872 -0.15379374 -0.24843256 0.013904295 0.36775967 -0.43926877 0.17691791 0.49024853 -0.5681976 -0.1986537 0.31451425 -0.03620015 -0.3584881 -0.14892755 -0.18806498 0.061851773 0.24004874 -0.47660267 -0.000667181 -0.15891473 0.15760931 0.10296816 0.060991656 0.015982905 -0.10007234 -0.37743276 0.39653635 0.103289135 0.21094163 0.29951978 -0.21769263 -0.08092742 -0.053343993 0.016659694 0.030364502 -0.09595116 0.016395163 -0.0603601
http://ekaw#Organising_Agency 0.26157448 -0.0073680407 -0.26245505 0.3121572 0.17026758 -0.012506363 0.12625465 -0.10627152 0.15985359 -0.2939357 -0.09272934 0.059029702 -0.13055815 0.33608818 0.037344143 0.31690648 0.24887544 -0.025435114 -0.1087676 0.07835704 -0.12686779 -0.14326853 0.024767648 -0.23716848 -0.032399863 0.2131642 0.06572996 0.32446107 -0.34615958 0.05626817 0.36096352 0.027848547 -0.022929443 0.44899827 -0.3411812 -0.032901533 -0.16995929 -0.40842468 -0.025686277 0.014041362 -0.43392143 0.13843246 -0.15649597 -0.33445948 -0.15829344 0.07812031 0.39830577 -0.46018684 -0.20247465 0.098870605 0.05896089 -0.44907147 0.06911343 -0.23431836 0.004091396 0.034784902 0.31050614 0.014234382 0.12359441 -0.16196436 0.20924471 -0.062604085 -0.36575788 0.26970837
N70f5c55768a544208fa1219248f940f8 0.4618134 -0.413774 -0.16627903 -0.06722352 0.583958 0.62378913 0.21186548 -0.3351986 -0.099066675 0.26243564 -0.7868184 -0.33723408 -0.15326682 -0.21647672 0.61066693 0.38093516 0.07637011 -0.29211956 -0.34138665 -0.18730551 0.49498317 -0.13870512 0.1527199 0.378129 0.2618017 0.32144544 0.10928012 -0.061736323 -0.20486684 0.044611264 -0.09472605 0.10321632 -0.24990068 -0.061576378 -0.40116593 0.5989179 0.057300523 0.032178693 0.10070117 0.0877774 -0.49146944 0.28653365 0.3615157 0.1810543 -0.28044707 -0.22063722 -0.21337673 0.16877626 -0.050690517 0.20548522 -0.12640111 -0.23864366 0.36704624 0.011505592 0.15318742 -0.008435433 0.09924738 0.13568278 -0.04978528 -0.010749009 -0.12538366 -0.00891585 -0.19332469 0.08536264
Naec7fbf3c2a74a558fac42d113e263b0 0.5033032 -0.010788706 0.20231913 0.17615786 0.19746709 -0.04473508 0.49756017 0.05255018 0.075103916 -0.70859975 0.10139213 -0.30839682 -0.07053427 0.020462995 0.67065495 -0.08263591 -0.16238306 -0.4397048 -0.057948582 0.43275583 0.09631628 0.32691017 0.48808792 -0.01549511 -0.25841948 -0.028294047 0.15171917 -0.06733546 0.13542072 0.24280651 -0.09906102 0.111612014 0.09802215 0.34119296 0.029093368 -0.37966153 0.05347553 0.12548609 -0.2790694 -0.13963555 -0.14832503 -0.016368698 -0.04943558 0.032602195 -0.08735601 -0.30559108 0.31695968 0.014982308 0.6240864 0.28369883 0.11606116 -0.12662633 0.6269526 0.06798305 -0.1798757 0.26026914 -0.23925419 -0.49521953 0.29004964 0.06473821 0.16523346 0.17446685 0.17320555 -0.44156316
N1fed0e448b864a48be6e300175596d08 0.2161814 -0.27869686 -0.2922314 -0.19294319 -0.2217197 -0.02522632 -0.056583505 0.26329705 -0.47948498 0.053972706 0.3259563 0.037205663 -0.25219545 -0.009780302 -0.022891358 -0.00012733172 -0.17315993 -0.11269763 0.15157376 0.13941908 0.43233207 -0.16490795 0.19433932 0.086009555 0.13742013 0.17002337 -0.055023905 0.1414274 -0.42220592 0.13814591 -0.2372889 0.36609766 0.02872816 -0.021188738 -0.67841166 0.4460337 0.25408363 0.40992662 -0.03203457 -0.13675547 -0.15180548 0.65780383 -0.509103 -0.03656637 0.21142407 0.1410206 0.29276824 -0.5930599 -0.10969295 0.15366313 -0.33136103 -0.32397437 0.1035145 -0.24999776 -0.22159162 0.23626328 -0.014354676 -0.03247495 -0.051704243 -0.03320815 0.17807873 -0.048814278 0.32280272 -0.0015277157
http://ekaw#Research_Topic 0.22211364 -0.2523767 -0.010018839 -0.027958427 0.26766092 0.39295703 0.2743918 0.028245844 -0.13781625 -0.36881036 -0.06687058 -0.15171987 -0.1547596 0.01940278 -0.051290527 -0.15016407 -0.17360787 0.02481276 -0.049813516 -0.29828632 -0.09469294 0.63905305 0.6035008 -0.16665165 -0.09001601 0.057302162 0.2562807 0.14101173 0.048487514 0.2850283 -0.008364636 0.12056633 0.23331475 0.15083154 0.0058042947 -0.42005503 -0.0003212905 0.2814736 0.1705228 -0.1792219 -0.16823961 0.28064808 0.45909652 -0.15435861 0.13705918 -0.330577 0.3750897 0.0004440493 -0.08279062 0.44767857 0.25663665 -0.6933511 -0.054351598 0.086519435 0.21437776 0.27427188 0.24190752 -0.18309392 0.26529184 -0.15812269 0.3088392 0.029718153 0.25290924 -0.2454824
N4185b704244044f1a79bab120a0867b4 0.37372524 -0.12785925 -0.018455496 -0.0322524 0.05623552 0.0146095855 0.31733736 -0.0012893899 0.041192196 -0.5904416 -0.0008812895 -0.462455 -0.03600065 -0.008111904 0.47190884 -0.01763295 -0.20015004 -0.024185307 -0.00837066 -0.06218317 0.014708705 0.6935663 0.52024645 0.022104813 -0.2910902 0.021754175 0.15652698 0.02744102 0.1443718 0.2912603 0.19155021 0.020984733 0.14796996 0.38656965 -0.122806154 -0.4411359 0.12977237 0.13403177 0.0073690345 -0.33028972 0.123685166 0.36967182 0.20114829 0.013458874 -0.10105233 -0.17306232 0.098264605 -0.16422984 0.17632946 0.36141148 0.105776854 -0.55075765 0.291148 -0.110034525 -0.04344683 0.44496393 0.20635937 -0.52270836 0.3871172 0.026555972 0.26522735 0.11771891 0.37684876 -0.39310938
Ndd71c6a7f9d046d9a884f5084f164874 0.17991287 -0.4240256 -0.3850275 0.1755469 0.34532866 0.225483 0.23368609 -0.08857125 -0.13897485 0.10956183 -0.52606285 -0.5389613 -0.14411424 -0.3330319 0.44684803 0.49611902 -0.075030066 -0.0146225635 -0.25976983 0.01439755 0.6029475 -0.17568402 0.35108355 0.18743354 -0.06785525 0.2782725 0.17612325 -0.18710545 -0.28677773 0.34191564 0.12540936 0.07308957 -0.15044533 -0.094447486 -0.49939546 0.66089386 -0.03440259 -0.032731067 0.2613197 -0.03645866 -0.61371243 0.3078785 0.21165253 0.10310501 -0.15763257 -0.4365007 -0.30567634 0.37160987 -0.36536697 -0.17403872 -0.26413885 -0.12258634 0.44588906 0.3588508 0.1943203 0.11556291 0.1198138 0.16756286 0.06091819 0.057979234 -0.35020134 0.16024914 0.13839863 0.109954916
http://ekaw#inverse_of_partOf_7 -0.15160945 0.008016156 -0.3374716 -0.1306196 0.08227009 0.60671246 0.17248607 0.11362251 0.089284815 -0.29837263 0.16499211 0.14302658 -0.2689131 -0.2442975 0.33117822 0.029446768 -0.3213827 -0.4004186 -0.014534792 0.058140665 -0.072893575 -0.12924601 -0.040451083 -0.13256958 -0.08236501 -0.33565578 -0.1788247 0.20363641 -0.081521146 0.5037257 -0.0352039 -0.31745982 -0.16726436 0.2533096 -0.53440785 -0.17449062 -0.15011583 -0.106371656 -0.008719985 -0.076698296 -0.11822928 0.044484936 0.21799286 -0.35969588 0.17239736 0.19741315 0.23613162 0.1824812 0.31316254 0.13881072 -0.100946166 -0.57847226 -0.09785915 0.14286554 0.1793054 0.02205058 0.05645527 -0.09599246 0.4446157 0.4607504 -0.3283735 0.067175515 0.15867046 -0.2200258
N68e90f61d1014a1b8468bfe0cb674d84 0.20087448 -0.22524273 -0.34682027 0.089519106 0.340063 0.29926005 0.3190286 -0.27087143 -0.41713208 0.18906306 -0.40474862 -0.25718415 0.11286439 -0.31669942 0.45906815 0.093315125 0.29746437 -0.5679345 -0.3938663 -0.27291107 0.20228268 0.13406226 0.014338113 0.2215756 0.13635331 0.46344486 0.07440776 0.14138143 -0.059527863 0.17770818 -0.26915348 0.30521375 -0.37313873 -0.11419016 -0.4460605 0.43526074 0.04463034 -0.15266076 0.3472377 -0.18244018 -0.3968238 0.43857655 0.28659177 0.20259345 -0.21998397 -0.07452226 -0.3718566 0.038849115 0.030724233 -0.09104 -0.14401287 -0.23605824 0.25680903 -0.08210329 0.3799835 0.23443536 0.53717977 0.11782917 -0.059159897 -0.055039052 -0.062761135 0.085268065 -0.31429538 -0.015600945
N38938a1cc9b6475a985cc145e749aaa4 0.2605928 -0.18677476 -0.2515817 0.53617865 0.15058726 0.35793677 -0.26839826 -0.0019167349 0.17667043 -0.2090903 -0.3229061 -0.33380425 -0.58210605 0.08827488 0.18560098 0.5157003 -0.3015181 -0.017321028 0.030341275 0.4009713 0.33233336 0.19623487 0.23843062 0.18295033 0.16549611 -0.06409394 -0.0825611 -0.28568423 0.028053526 0.3732273 0.27887473 -0.16013469 0.14999169 0.20227169 -0.36468977 0.23542117 0.37656817 0.17051344 -0.08111267 -0.012787705 -0.3951879 0.06128605 -0.09185726 0.14197402 0.006767228 -0.24811094 -0.4025694 -0.09271687 -0.5477219 -0.019512307 -0.5413346 -0.22099876 0.45192024 0.36209643 0.11395262 -0.06684132 -0.32657117 -0.18450886 -0.26174405 -0.35745168 -0.27792326 0.09464681 -0.28909695 -0.4728335
Nbc800f40791844f4bdfd7e44ad5dafa0 0.0086459 0.12252217 0.00975843 0.48889324 0.09055152 -0.262739 -0.13564833 -0.39257857 0.12566677 -0.0344347 0.06747327 0.17272341 -0.19721484 -0.07277262 0.28026125 -0.09432906 0.16336328 0.03849347 -0.04921674 0.51973903 0.13078403 -0.14096138 0.07067887 -0.02047975 -0.023419652 0.16543981 0.13817868 -0.039619036 0.3165251 0.4155466 -0.5136016 0.28767255 0.079327345 -0.0009605895 0.017502086 0.07704941 -0.16338216 0.40364012 -0.4485807 0.27366832 -0.35468808 0.043094456 0.10712231 -0.016992673 0.13186982 0.2384791 0.4504578 -0.1889614 -0.26133558 -0.07179497 -0.031392142 -0.642249 0.88318527 0.5712306 -0.0050415173 -0.4025637 0.4504352 -0.4139927 0.11546744 -0.19636106 -0.455647 0.10330033 0.27680233 0.10363554
N9e0aa2612a2949a78566473317d82afa -0.017755864 -0.26640385 -0.19591196 0.10551542 0.084315374 0.13323653 0.055683866 0.038109947 -0.39359888 -0.2685836 0.36557668 0.28740928 -0.02612706 -0.13112313 0.40632445 0.55240047 -0.33907023 0.14074175 0.40238464 -0.09486862 0.18351756 0.2124091 0.39980608 -0.3326735 0.69111633 -0.24795759 -0.035040516 -0.1924329 -0.0018843854 -0.24947545 -0.0803572 0.14750315 0.23226535 0.29107836 -0.38110784 0.38503584 -0.26152205 0.4946817 -0.095145255 -0.0023959272 -0.33329344 0.25701198 0.023874473 -0.14906082 0.03179801 0.34309345 -0.31637648 -0.21622676 0.05648573 0.21790747 -0.28774074 -0.25415578 0.20812011 -0.019069515 0.15193087 0.12577894 0.18195175 0.13226508 -0.009003842 -0.12721333 0.40617335 0.100237444 0.0166528 0.029829396
